tree
version=v4
num_class=1
num_tree_per_iteration=1
label_index=0
max_feature_idx=72
objective=binary sigmoid:1
feature_names=ret_1 ret_2 ret_3 ret_5 ret_8 ret_13 ret_21 log_ret_1 log_ret_5 roc_5 roc_10 roc_20 momentum_accel price_percentile dist_MA5 slope_MA5 dist_MA10 slope_MA10 dist_MA20 slope_MA20 dist_MA60 slope_MA60 ma_cross_5_20 ma_cross_5_20_prev ma_cross_10_60 macd_dif macd_dea macd_bar macd_bar_change macd_cross macd_cross_prev atr_14 atr_5 rsi6 rsi6_slope rsi12 rsi12_slope k d j cci cci_slope hvol_5 hvol_20 hvol_ratio hl_position dist_high_20 dist_low_20 vol_ratio_5_20 vol_change vol_price_corr_10 vol_price_agree taker_buy_ratio body_ratio upper_shadow_ratio lower_shadow_ratio is_bull bull_streak bear_streak avg_body_3 max_range_3 hour_sin hour_cos dow_sin dow_cos cum_ret_5_rank cum_ret_20_rank sharpe_5 sharpe_20 funding_rate funding_rate_ma oi_change oi_change_5
feature_infos=[-0.13079365546033195:0.092127744713825566] [-0.17201809169070492:0.1115638437744142] [-0.20466605241742952:0.15957770655933179] [-0.20764489112227813:0.19031332646017285] [-0.21794152702797442:0.20783092025639882] [-0.29922046061266883:0.30178403334976922] [-0.29302645344492606:0.32276312182366484] [-0.14017473134018363:0.088127852819481198] [-0.23274561786030842:0.17421657201255955] [-0.2076448911222781:0.19031332646017288] [-0.23935499639806532:0.21477878882962037] [-0.30937398713460201:0.31117195405035425] [-542.76999999999953:1023.5300000000002] [0.016666666666666666:1] [-0.14890661715227488:0.091543313522341269] [-0.10096749724590903:0.091161042968213257] [-0.17822564449654607:0.1252489396628586] [-0.060513189832226311:0.052642351726441827] [-0.23919583490615884:0.15036495521294607] [-0.042932665773705581:0.036895491169840033] [-0.28868370242646468:0.20059361717625634] [-0.01903073389946941:0.019428475532345058] [-0.13753105562352175:0.11540095873816725] [-0.13753105562352175:0.11540095873816725] [-0.19325227576136286:0.15383595084011784] [-0.085565421204908954:0.048104513484042065] [-0.077841280828842521:0.044373260657172925] [-0.052345912137752235:0.043002725456436658] [-47.833583186956304:44.752233129214403] [-1:1] [-1:1] [0.00066855659750653389:0.14601442082951788] [0.00057493623827431972:0.18723562237344699] [0.0011909230276677364:0.99753661845508035] [-0.82952770383381991:0.8406663525415301] [0.011607787704463704:0.98296526670678341] [-0.59970926677294079:0.67838918852498054] [0.059122486629495159:0.9516542337932935] [0.091723812525132675:0.93244395265950653] [-0.21889082807646915:1.2171585848684279] [-2.2919210698309622:2.2089023481625678] [-2.8784257467227472:2.8112439419295772] [0.0010299359520299844:0.41717643492924406] [0.0025552959752311059:0.27900876613750658] [0.045774438284646675:2.0855629356898486] [0:1] [-0.4645904328634608:0] [0:0.33814765477108599] [0.18674760456503298:3.1698917761289969] [-0.99552134197220377:93.700925515538685] [-0.99491456977589232:0.99775821241089835] [-1:1] [0.17345443002520775:0.77947705091758068] [0:1] [0:0.98458574181118919] [0:0.99255952380953061] [0:1] [0:13] [0:12] [6.0655520755202999e-05:0.085791919994813684] [0.00066648604714170589:0.34395690814229785] [-1:1] [-1:1] [-0.97492791218182362:0.97492791218182362] [-0.90096886790241903:1] [0.016666666666666666:1] [0.016666666666666666:1] [-43.309992482361409:40.005199055930511] [-17.07301537208297:19.931602725923753] [-0.00356332:0.0020966299999999999] [-0.00356332:0.0020966299999999999] none none
tree_sizes=3768 3884 3854 3886 3894 3898 3896

Tree=0
num_leaves=34
num_cat=0
split_feature=60 31 46 24 48 70 63 27 60 11 46 23 62 44 27 60 37 66 14 31 38 48 5 60 23 63 44 38 27 69 3 58 10
split_gain=224.686 82.5003 51.483 29.9255 29.4864 27.5355 25.4769 19.2517 18.4565 16.0437 24.0744 14.8426 17.2478 14.96 14.499 14.0738 13.9947 16.0471 13.5245 13.4921 13.8494 21.0704 16.7399 13.1789 12.4621 12.2826 14.38 12.0353 22.5247 17.1796 11.6941 11.6297 11.4904
threshold=0.011640189362099413 0.0029084544064107397 -0.024818266395483578 -0.0089572490183210621 1.9654590512864072 9.6956250000000029e-05 1.0000000180025095e-35 0.0029526119508860938 0.0039327283916841338 -0.010625805745746527 -0.0093795535363679974 -0.01079085114064581 0.25881904510252057 0.64084354846625902 -0.011523603768123645 0.0099507879057270671 0.78975494336754937 0.87500000000000011 -0.003249915068241765 0.0078208424706234375 0.82816210659962886 1.3187740561276133 0.069805959975766899 0.0083818107455418227 -0.00068933791353056829 -0.60785761079279388 0.95022408989268192 0.72171151258825728 0.0021484842295849782 2.3570000000000003e-05 -0.0052018301378686229 2.5000000000000004 -0.0032547387102903657
decision_type=2 2 2 2 2 2 2 2 2 2 2 2 2 2 2 2 2 2 2 2 2 2 2 2 2 2 2 2 2 2 2 2 2
left_child=1 -1 4 6 -2 30 7 9 -7 15 -11 12 -8 24 -6 -3 18 23 -10 31 22 -22 25 -18 32 -21 -27 28 29 -28 -5 -4 -13
right_child=2 3 19 5 14 8 11 -9 16 10 -12 13 -14 -15 -16 -17 17 -19 -20 20 21 -23 -24 -25 -26 26 27 -29 -30 -31 -32 -33 -34
leaf_value=-0.49053027184129178 -0.4747616848042458 -0.48356474484232853 -0.48142126289013359 -0.48018791021165325 -0.4751783272074378 -0.48667626354134724 -0.48672821700808216 -0.48615196279769107 -0.47657145083010566 -0.47094791110513373 -0.48413584544850663 -0.4748921636056565 -0.47491522824183197 -0.47121894965760419 -0.48621665185444618 -0.47537292997067138 -0.47415652727580293 -0.47129546548912993 -0.48090680242157885 -0.48007922259830682 -0.48483244867018183 -0.47311417309636339 -0.46920856217213985 -0.48696558596479889 -0.47187799103386802 -0.47534701723703765 -0.47186946530184759 -0.48177425432480658 -0.47398871340206888 -0.48131570281441455 -0.48352109341742644 -0.47157661238445031 -0.48672988196377148
leaf_weight=97.786832839250565 1053.4523537755013 85.74062879383564 175.73285901546478 132.50824449956417 18.65980626642704 42.516014277935028 23.856208011507988 53.381217926740646 87.394029349088669 44.641814991831779 21.021807059645653 14.408204838633536 27.399209201335907 81.489027366042137 35.902412056922913 29.052609756588936 15.825405314564703 40.626413643360138 514.6799728423357 166.28485584259033 60.231020227074623 21.494207218289375 25.273408487439156 17.242605790495872 20.785606980323792 303.28090184926987 23.383807852864265 82.670027762651443 118.33623974025249 132.27204442024231 639.62981480360031 13.227204442024229 20.313206821680069
leaf_count=414 4460 363 744 561 79 180 101 226 370 189 89 61 116 345 152 123 67 172 2179 704 255 91 107 73 88 1284 99 350 501 560 2708 56 86
internal_value=-0.478929 -0.481402 -0.4767 -0.480934 -0.475141 -0.481613 -0.478537 -0.480784 -0.480174 -0.479189 -0.475175 -0.475745 -0.480421 -0.473995 -0.48244 -0.481488 -0.479763 -0.475574 -0.480277 -0.47824 -0.477737 -0.481742 -0.477352 -0.480841 -0.478087 -0.477603 -0.476979 -0.478368 -0.477339 -0.479888 -0.48295 -0.480724 -0.48182
internal_weight=4240.5 2010.3 2230.2 1912.51 1108.01 1490.42 422.09 233.838 718.284 180.457 65.6636 188.251 51.2554 136.996 54.5622 114.793 675.768 73.6944 602.074 1122.19 933.227 81.7252 851.501 33.068 55.507 826.228 659.943 356.662 273.992 155.656 772.138 188.96 34.7214
internal_count=17953 8511 9442 8097 4691 6310 1787 990 3041 764 278 797 217 580 231 486 2861 312 2549 4751 3951 346 3605 140 235 3498 2794 1510 1160 659 3269 800 147
is_linear=0
shrinkage=1


Tree=1
num_leaves=34
num_cat=0
split_feature=32 32 31 13 33 48 32 24 42 42 24 49 39 45 31 31 22 1 24 24 11 19 40 25 46 61 32 44 17 59 44 52 36
split_gain=234.8 72.658 62.5995 29.2484 28.3378 21.6349 20.3099 19.9609 27.5329 27.76 26.3023 18.0949 15.7321 14.5119 13.788 13.3212 14.0754 12.8679 12.9092 15.4851 17.1035 12.2765 12.2679 14.3298 15.8072 11.8098 11.6926 11.3273 11.1634 10.4463 15.2719 12.406 11.8595
threshold=0.0075073521904374134 0.0032162258073292196 0.013476842255764279 0.53750000000000009 0.71766970643988404 1.2703892876978873 0.0041693272964169617 -0.01333308659785057 0.056030181607859879 0.027590106296435924 -0.039454467867002123 -0.41660109914220828 1.0098163994207729 0.5570249301248833 0.0029084544064107397 0.0089958911572922181 0.0017080501477234461 0.00076546404273436519 -0.017682767015370231 -0.0092083351901077748 -0.010341108305589658 -0.0052152436893709844 -0.49433261489995683 -0.0021183811202080288 -0.025345475239076692 1.0000000180025095e-35 0.012277431304933356 0.63651491046530762 -0.0037347807162813602 0.0042398706244367902 0.95022408989268192 0.56885774516544207 0.15902748493680594
decision_type=2 2 2 2 2 2 2 2 2 2 2 2 2 2 2 2 2 2 2 2 2 2 2 2 2 2 2 2 2 2 2 2 2
left_child=1 14 7 6 11 12 -3 8 9 10 -2 13 26 -4 -1 -11 -17 -8 -19 20 -20 -12 -9 28 27 -15 -6 -25 -24 -26 31 -31 -32
right_child=2 3 4 -5 5 -7 17 22 -10 15 21 -13 -14 25 -16 16 -18 18 19 -21 -22 -23 23 24 29 -27 -28 -29 -30 30 32 -33 -34
leaf_value=-0.011906050854090522 -0.0097512823548564637 -0.0046449953388087873 0.003751089655283335 -0.0038227115528323584 0.0031543116356413888 0.0063228362167897338 0.00127990650762255 0.001817982383095736 -0.0069184421307888324 -0.00047285357445256822 -0.0039051710021924856 0.0051503665350019915 0.0039686738206879081 -0.0081486475887213531 -0.0066339997198342328 0.0086559280626997154 0.00012475809692116314 -0.006490433495788173 -0.0038665892490051795 -0.0030031389389432268 0.0088793181111246691 0.0036344733850709782 -0.0078083051545767479 0.010920381767115427 -0.001834292989014811 0.0019902002625544891 -0.0051406015553256352 0.0019293633919642002 -0.0012984015538170558 0.0022519808356619374 -0.00208168440896457 0.012558044518701838 0.0021298341036825228
leaf_weight=85.973716303706169 22.915753930807114 115.40930940210819 71.851013317704201 688.7614571005106 21.732421174645424 46.332347795367241 332.48416613042355 277.90339995920658 28.825800955295563 26.698311224579811 28.354707792401314 708.65118208527565 38.757910966873169 25.761691600084305 132.60661697387695 129.06349648535252 23.869899600744247 50.050517022609711 17.005608916282654 85.447218045592308 30.018085151910782 105.15941213071346 47.013688787817955 19.608300730586052 378.06392414867878 21.985757395625114 91.448886051774025 55.771744340658188 65.676592126488686 129.2398084551096 224.09985893964767 13.230412811040877 100.61574470996857
leaf_count=365 97 489 304 2918 92 196 1408 1176 122 113 120 2998 164 109 562 546 101 212 72 362 127 445 199 83 1601 93 387 236 278 547 949 56 426
internal_value=-9.16717e-05 -0.00327341 0.00171876 -0.00236994 0.00370212 0.000237379 -0.000781759 0.000503676 0.00261301 0.00343481 0.000291283 0.00453112 -0.00162386 0.000858304 -0.00871782 0.00616805 0.00732718 8.53153e-05 -0.00208908 -0.00041747 0.00427081 0.00202869 -8.35524e-05 -0.000595339 -0.000174563 -0.00348968 -0.00354388 0.00429406 -0.004025 -0.000574204 0.000445631 0.00322731 -0.000775809
internal_weight=4240.39 1537.76 2702.63 1319.18 1026.52 198.272 630.415 1676.11 364.887 336.062 156.43 828.25 151.939 119.598 218.58 179.632 152.933 515.006 182.521 132.471 47.0237 133.514 1311.22 1033.32 920.63 47.7474 113.181 75.38 112.69 845.25 467.186 142.47 324.716
internal_count=17953 6515 11438 5588 4343 839 2670 7095 1544 1422 662 3504 643 506 927 760 647 2181 773 561 199 565 5551 4375 3898 202 479 319 477 3579 1978 603 1375
is_linear=0
shrinkage=0.0102


Tree=2
num_leaves=34
num_cat=0
split_feature=60 31 43 24 38 63 31 69 52 27 26 48 11 48 63 62 31 41 63 61 12 60 38 11 66 2 35 12 47 24 6 54 54
split_gain=216.01 79.8904 43.1212 28.9239 28.2488 24.8765 23.1753 21.7024 20.3642 18.8862 16.6068 24.4335 15.6814 15.672 15.1687 15.0159 14.9224 14.6812 14.0343 20.3011 17.0763 13.7115 13.2517 13.2039 13.1734 12.9719 13.7789 12.6743 12.0374 13.5207 13.0102 11.7331 13.7575
threshold=0.011640189362099413 0.0029084544064107397 0.048494093916206821 -0.0089572490183210621 0.6780195013916176 1.0000000180025095e-35 0.0059315117315268126 9.2600000000000015e-05 0.51153071608914003 0.0029526119508860938 -0.0024724329536517679 1.9654590512864072 -0.010625805745746527 0.82390351257973948 -0.8783796973249266 0.78656609248549303 0.0038604024680854968 -0.54303048037443746 0.87837969732492682 -0.5 -51.175000000000175 0.0099507879057270671 0.24961676361305971 -0.0060592246897728163 0.87500000000000011 -0.00040269230573025666 0.57964635731484526 -21.210000000000147 0.06136017108427505 -0.052190374870103202 0.034493593999887058 0.14615384615384816 0.06768831974476279
decision_type=2 2 2 2 2 2 2 2 2 2 2 2 2 2 2 2 2 2 2 2 2 2 2 2 2 2 2 2 2 2 2 2 2
left_child=1 -1 4 5 6 9 -2 27 14 12 11 25 21 17 -4 -10 -9 -12 20 24 -6 -3 -7 -14 -20 -8 -27 31 -16 -30 -31 32 -5
right_child=2 3 8 7 18 22 10 16 15 -11 13 -13 23 -15 28 -17 -18 -19 19 -21 -22 -23 -24 -25 -26 26 -28 -29 29 30 -32 -33 -34
leaf_value=-0.011526383821974236 -0.0045387985595218942 -0.0046734789472589241 1.3551929220271767e-05 -0.0026625355252553472 0.0030076182079906556 -0.006122168372465253 0.0056892619680664743 -0.0074326157949422735 0.003121236265175186 -0.007247041532419991 0.010783343263633822 -0.0070937218242503796 0.010516062687451413 0.00037308881104159292 0.0074747123874501871 -0.0032151876217572438 -0.001280304511537562 0.0025522637328358991 0.0020312056631266763 -0.0024166525819907386 -0.0035465467243169881 0.003410285052917648 0.0038482762325024351 0.00059299672927966382 0.015941332287799471 0.0004702384013544128 0.0064427696171981469 -0.0047521170346833666 0.0096307672498331803 -0.0044298355465134769 0.0039856504226402148 -0.0030302538089189974 0.01038643598065429
leaf_weight=97.255752488970757 55.48368413746357 85.617575794458389 46.136772409081459 16.279471457004547 50.088197201490402 14.872781321406363 254.33203642070293 43.127667874097824 197.47868303954601 53.278237149119377 27.901097774505615 20.772255480289459 19.874415636062622 535.07424242794514 259.57238492369652 48.242890134453773 772.90971951186657 115.35767844319344 13.706498548388483 33.308043628931046 232.86391100287437 29.08548691868782 173.52354602515697 45.845451906323433 14.652705699205397 139.55618552863598 56.27705916762352 547.49915425479412 30.286300882697105 25.312298163771629 75.92373925447464 91.772035077214241 16.989397674798965
leaf_count=414 235 363 195 69 212 63 1075 183 835 226 118 88 84 2264 1097 204 3275 488 58 141 986 123 734 194 62 590 238 2322 128 107 321 389 72
internal_value=-9.07694e-05 -0.00251808 0.00209252 -0.00205824 0.00115092 0.000298163 0.00188752 -0.00272644 0.00422747 -0.00192409 0.00219866 0.00366997 -0.000344854 0.00117618 0.0055477 0.001875 -0.00160747 0.00416989 -0.00142338 0.00297775 -0.00238452 -0.00262011 0.00305448 0.00362007 0.00928814 0.00417004 0.00219235 -0.00408304 0.0061999 0.00367496 0.00187544 -0.00114942 0.00402156
internal_weight=4240.26 2007.93 2232.33 1910.67 1549.37 422.097 1204.75 1488.58 682.953 233.701 1149.27 470.938 180.423 678.333 437.231 245.722 816.037 143.259 344.619 61.6672 282.952 114.703 188.396 65.7199 28.3592 450.165 195.833 672.54 391.095 131.522 101.236 125.041 33.2689
internal_count=17953 8511 9442 8097 6555 1787 5096 6310 2887 990 4861 1991 764 2870 1848 1039 3458 606 1459 261 1198 486 797 278 120 1903 828 2852 1653 556 428 530 141
is_linear=0
shrinkage=0.0102


Tree=3
num_leaves=34
num_cat=0
split_feature=32 32 46 6 34 59 32 62 23 43 20 44 65 63 20 47 65 52 17 64 69 67 69 60 68 32 8 47 69 19 69 69 63
split_gain=259.9 87.5172 46.5375 29.2932 23.5095 22.8849 20.905 19.6234 18.9587 17.4137 15.4501 15.3888 13.925 15.8979 13.2004 19.8514 13.1568 12.8714 12.6103 12.4896 11.7923 15.6371 13.987 18.412 13.3987 12.515 12.1894 11.7723 11.4237 12.7543 13.8916 11.0847 10.9007
threshold=0.0085538416605490265 0.0032162258073292196 -0.025624045595159902 0.0026265209216902456 0.29452133471171521 0.013127258312336425 0.0059815029942844296 0.37940952255126048 -0.012216688872493357 0.036838329341099492 -0.097275940801909586 0.81165803011939419 0.67500000000000016 -1.0000000180025095e-35 0.047802943251965054 0.042586917659540188 0.075000000000000011 0.53623347675838806 0.0026650964360990241 -0.22252093395631442 2.8150000000000006e-06 -0.58837306571141756 9.161500000000001e-05 0.01425887153255552 -5.7833095480087549 0.0053891295576774583 -0.0057786195865789274 0.021012352968315062 0.00012814000000000003 0.0011529813074708797 6.5760000000000007e-05 7.9625000000000011e-05 0.6078576107927941
decision_type=2 2 2 2 2 2 2 2 2 2 2 2 2 2 2 2 2 2 2 2 2 2 2 2 2 2 2 2 2 2 2 2 2
left_child=1 -1 4 8 10 -4 -5 11 -3 12 -2 14 20 -14 15 28 -12 -6 -13 -11 21 -10 23 24 -22 26 -24 -15 29 -8 -31 -26 -27
right_child=2 3 5 6 17 -7 7 -9 9 19 16 18 13 27 -16 -17 -18 -19 -20 -21 22 -23 25 -25 31 32 -28 -29 -30 30 -32 -33 -34
leaf_value=-0.008858066535289465 0.0099794247664262651 -0.0060102914339882178 0.00057266503408219061 -0.0052799131942635833 0.0017068715119425515 0.0067652319243540222 0.0092615023860981201 -0.0046098327905522768 0.0084737484816943664 0.0019190585778962048 0.0018306196590441286 -3.8815144239104893e-05 -0.005988190677161935 -0.0021715230017518117 -0.0074336931606946892 0.0099370123046066648 0.004689983016782218 -0.0054543867844544453 -0.006811008305255258 0.014289463574273339 0.0069338924955318773 -0.0020321369833271275 0.0067247196982585661 -0.012533846662659364 -0.0012405817459625751 0.0042690536331411143 -0.0032465825300223715 0.0055771060570228969 -0.0068018812286785866 -0.0057043442353699059 0.0040075084223988406 -0.0086022569602831767 -0.0013533623717016255
leaf_weight=216.07744927704334 47.868467196822166 65.352060928940773 1120.6868321299553 347.6453453451395 93.717846125364304 65.525625512003899 20.521023914217949 171.02366550266743 37.51343809068203 22.665465012192726 216.7418909072876 66.992638617753983 94.535354986786842 84.029939264059067 13.689591631293295 32.32996067404747 743.62825572490692 35.949995800852776 49.759232759475708 13.467186957597731 18.646988615393639 24.051262885332108 14.867674902081488 16.061289608478546 203.52215026319027 136.92948246002197 82.543215230107307 26.70081415772438 16.993116453289986 25.700189307332039 37.276601061224937 23.57806932926178 48.43161116540432
leaf_count=920 202 277 4743 1475 396 277 87 725 159 96 916 284 401 356 58 137 3141 152 211 57 79 102 63 68 863 580 350 113 72 109 158 100 205
internal_value=3.88989e-05 -0.00274757 0.00233005 -0.00196744 0.00380357 0.000915998 -0.00341615 -0.00192207 -0.000725931 -0.000316911 0.00432925 -0.000173235 -0.000626287 -0.002921 0.00202649 0.00301283 0.00404534 -0.000283401 -0.00293329 0.00659004 0.000151367 0.00437477 -0.000327409 -0.0020256 -0.00132801 0.00124482 -0.00171205 -0.000294853 0.000767598 0.00232298 3.64471e-05 -0.0020128 0.00279952
internal_weight=4235.02 1910.9 2324.12 1694.83 1137.91 1186.21 781.931 434.286 912.896 847.544 1008.24 263.262 811.411 205.266 146.51 132.821 960.37 129.668 116.752 36.1327 606.145 61.5647 544.58 261.808 245.747 282.772 97.4109 110.731 100.491 83.4978 62.9768 227.1 185.361
internal_count=17932 8105 9827 7185 4807 5020 3316 1841 3869 3592 4259 1116 3439 870 621 563 4057 548 495 153 2569 261 2308 1110 1042 1198 413 469 426 354 267 963 785
is_linear=0
shrinkage=0.0102


Tree=4
num_leaves=34
num_cat=0
split_feature=32 32 31 1 25 23 26 47 70 70 36 55 26 50 62 47 20 67 38 23 15 63 70 26 24 63 1 67 57 37 44 44 43
split_gain=254.66 86.0339 48.8209 30.1673 22.8064 23.463 22.6075 20.8289 18.5536 23.9059 15.6911 17.8836 15.6672 14.6991 16.7829 17.2442 29.1768 15.7302 14.4649 14.4653 13.6457 16.9028 22.1098 20.992 15.679 13.3147 12.3164 12.5424 12.0754 12.0031 11.8529 14.558 11.7179
threshold=0.0085538416605490265 0.0032162258073292196 0.013652337402821884 -0.000958070525909127 -0.001397469646035472 -0.011327476138699806 -0.023884712383292147 0.0069161428627770834 0.00016453687500000001 0.00047650250000000007 0.26197731776007832 0.10841244448360203 0.010430215935488929 0.71995377474253941 0.60355339059327384 0.041071940438221634 0.049042769842424359 -1.1839166019161269 0.57080653349763211 -0.026780403967590787 -0.0014775832174608314 -1.0000000180025095e-35 3.6198750000000006e-05 -0.0024724329536517679 -0.01397607745617028 -0.60785761079279388 -0.0053065630065658445 1.7618082713466898 1.5000000000000002 0.59133620763318262 0.94104862663505762 0.61814911596897948 0.02576105802716978
decision_type=2 2 2 2 2 2 2 2 2 2 2 2 2 2 2 2 2 2 2 2 2 2 2 2 2 2 2 2 2 2 2 2 2
left_child=1 -1 7 -4 5 -3 -5 -2 10 12 18 -12 -10 14 15 -6 -17 -16 19 -9 25 22 29 -23 -24 -7 -20 30 -29 -22 31 -28 -21
right_child=2 4 3 6 13 20 -8 8 9 -11 11 -13 -14 -15 17 16 -18 -19 26 32 21 23 24 -25 -26 -27 27 28 -30 -31 -32 -33 -34
leaf_value=-0.0087871700307773082 0.0046755399696200442 -0.0054840749155868011 0.0059162063687134012 0.0098081319166275615 -0.0021055439398165285 0.0069026925143074796 0.001743432218998751 -0.0084338386551792641 0.0066148958628676905 -0.0021402555740104396 0.011006602367195971 5.3636568572349758e-05 -0.0029516535411399196 -0.0068482613705131866 -0.00052558409230356068 0.0061706979882321629 -0.0099064490511128409 -0.0057128892466234895 0.001736396347347984 -0.0018950708525771263 -0.0042075446231595844 0.0039183087470130639 -0.0054607486281604374 -0.0049977609481135369 0.0031471642890055938 0.000937976588830373 -0.0079080584527073967 0.0013671350973933369 -0.003843613537091201 -0.015231431096950569 -0.007529091627060191 0.0012424649274527992 0.0020627621328978135
leaf_weight=215.60320319235325 145.34870141744614 74.468233183026314 464.36459645628929 38.88741609454155 688.7664756923914 57.859816744923592 485.82901841402054 16.557338550686836 136.89499640464783 60.976181268692017 27.668788745999336 35.001320913434029 20.326486244797707 84.098162606358528 81.842474356293678 60.204015910625458 14.370756492018698 237.67773169279099 86.499826580286026 99.005397602915764 21.695691958069801 108.5583733767271 38.165691316127777 36.547040998935699 51.411895915865898 118.57776813209057 27.412156701087952 111.22081942856312 78.904028862714767 19.776154786348343 77.440635949373245 52.214442059397697 360.80932667851448
leaf_count=920 614 316 1959 164 2923 245 2052 70 579 258 117 148 86 357 347 255 61 1009 366 419 92 459 162 155 218 502 116 471 334 84 328 221 1525
internal_value=3.84776e-05 -0.00272144 0.00230506 0.00402274 -0.00194835 -0.000186954 0.0023451 0.00103314 0.000587738 0.00327426 -1.53566e-05 0.00491227 0.005375 -0.00274361 -0.00242343 -0.00160086 0.0030515 -0.00438581 -0.000355895 0.000870761 0.000686548 -0.000728809 -0.00338174 0.00166779 -0.000523339 0.00290068 -0.0017033 -0.00256115 -0.000796671 -0.0095185 -0.00469225 -0.00191902 0.00120984
internal_weight=4234.98 1909.62 2325.36 989.081 1694.02 527.061 524.716 1336.28 1190.93 218.198 972.734 62.6701 157.221 1166.96 1082.86 763.341 74.5748 319.52 910.064 476.372 452.592 276.155 131.049 145.105 89.5776 176.438 433.692 347.192 190.125 41.4718 157.067 79.6266 459.815
internal_count=17932 8105 9827 4175 7185 2233 2216 5652 5038 923 4115 265 665 4952 4595 3239 316 1356 3850 2014 1917 1170 556 614 380 747 1836 1470 805 176 665 337 1944
is_linear=0
shrinkage=0.0102


Tree=5
num_leaves=34
num_cat=0
split_feature=43 43 14 46 0 25 63 43 16 25 42 44 25 69 3 63 69 23 6 47 45 0 43 42 39 27 4 34 53 44 63 40 36
split_gain=192.621 94.4946 51.5227 42.1744 25.7738 21.8661 20.5444 18.6368 25.5321 18.4425 17.8149 16.9095 16.295 16.0049 14.4142 14.2643 14.0869 19.2552 14.0392 13.9489 13.7001 13.1717 12.868 12.7223 12.3975 12.5571 13.8854 13.6391 14.0242 12.3491 11.9866 12.0159 11.6839
threshold=0.016189725111762376 0.045229629542866093 -0.0042459326024267613 -0.010607314027751245 -0.0067490999351431649 -0.001150438463985545 0.87837969732492682 0.033143103539304865 0.017465321725027783 -0.000511707859147125 0.053375389316648904 0.49005825314699292 0.016120914484540335 9.9930000000000014e-05 -0.0019517690523762619 -0.8783796973249266 0.00015729500000000003 0.0069133348963062282 -0.082302032672621026 0.015804321336966926 0.49177921283831311 -0.0010725378345716738 0.025205827255779339 0.0088441325407377092 1.0162803094050263 0.0025918921711114303 -0.015105905826285957 0.50160233897813122 0.15127948055397844 0.89701075300103483 1.0000000180025095e-35 -1.2293165286821595 0.034189806357707839
decision_type=2 2 2 2 2 2 2 2 2 2 2 2 2 2 2 2 2 2 2 2 2 2 2 2 2 2 2 2 2 2 2 2 2
left_child=3 2 9 14 -3 6 11 8 16 10 30 22 -9 -5 -1 -16 -7 -18 -6 -8 21 32 -4 -15 25 26 -13 28 -28 -11 31 -2 -20
right_child=1 4 5 13 18 7 19 12 -10 29 -12 24 -14 23 15 -17 17 -19 20 -21 -22 -23 -24 -25 -26 -27 27 -29 -30 -31 -32 -33 -34
leaf_value=0.00043189487771511033 -0.001728874178511475 0.0069487712170825016 0.0019385660392853196 -0.0082166139298046632 0.0084277307244697702 -0.0030900169776643016 0.0010212799431623071 0.00096686787739727771 0.004941927496348494 0.0033753929207178822 -0.0025200458598599088 -0.002357136799631242 -0.0083786805474326074 -0.008548726593644973 -0.011950718897848182 -0.002546542501235623 -0.0027579513613247581 0.0048234722699079082 0.0001809193220637812 0.0082204261340065744 0.0035134403296166027 -0.0028653742608849017 -0.0057139417932555231 -0.0016525687747445947 0.0081068116362690758 -0.0032114908753971948 0.0075031818075789033 -0.0076477952181560832 0.0016286276830818011 -0.0014173795090521104 0.0029975812193874084 0.0082549267798298562 0.0066082415380481216
leaf_weight=145.96872381865978 13.743447646498678 209.87902468442917 31.575351625680923 297.85721729695797 44.194602355360985 806.76140171289444 54.59208257496357 358.61184111237526 49.368714034557343 98.178798720240593 33.390835911035538 91.286447182297707 20.305561766028404 40.993929550051689 21.370337218046188 76.484483912587166 83.991070702672005 59.25041238963604 86.926756352186203 57.513349950313568 445.29256714880466 81.010694265365601 81.598107472062111 86.360976710915565 22.688528314232826 81.992752701044083 50.377365842461586 13.950008749961851 259.31566125154495 129.37987768650055 122.74328355491161 133.65395663678646 44.309516727924347
leaf_count=619 58 884 134 1270 186 3424 231 1518 209 415 141 386 86 175 91 325 356 251 367 243 1880 342 346 367 96 347 213 59 1097 547 518 564 187
internal_value=3.80389e-05 0.000980398 7.17859e-06 -0.00498316 0.00381325 -0.00070358 0.00070423 -0.0014645 -0.00219473 0.00284798 0.00449295 -9.15687e-06 0.000461289 -0.00692182 -0.00159867 -0.00462315 -0.00256676 0.000379743 0.00287345 0.00472434 0.00249733 0.000363599 -0.00357824 -0.00388391 0.000769138 0.000430525 0.00115178 0.00214277 0.00258914 0.000651154 0.00536154 0.00732208 0.00235912
internal_weight=4234.92 3565.88 2654.27 669.036 911.613 2123.18 744.89 1378.29 999.372 531.09 303.532 632.784 378.917 425.212 243.824 97.8548 950.003 143.241 701.734 112.105 657.54 212.247 113.173 127.355 519.611 496.922 414.929 323.643 309.693 227.559 270.141 147.397 131.236
internal_count=17932 15085 11239 2847 3846 8996 3152 5844 4240 2243 1281 2678 1604 1812 1035 416 4031 607 2962 474 2776 896 480 542 2198 2102 1755 1369 1310 962 1140 622 554
is_linear=0
shrinkage=0.0102


Tree=6
num_leaves=34
num_cat=0
split_feature=32 32 0 38 6 26 48 59 48 21 2 21 28 40 70 36 50 32 62 55 6 17 32 6 59 64 11 11 26 70 54 68 38
split_gain=237.624 83.5856 48.1583 29.7523 23.2475 21.7125 20.2608 19.6706 18.6417 18.0283 15.0035 14.7105 13.6419 12.8707 12.583 12.568 12.555 13.4554 12.5151 12.3706 12.0783 12.8661 15.0508 11.8015 11.7382 11.6828 11.4366 11.3644 13.0257 15.1859 14.9637 18.0617 11.3697
threshold=0.0083408374166801229 0.0032162258073292196 -0.0067490999351431649 0.59253353612800164 0.0026265209216902456 -0.0022627143130754417 1.2452474118071188 0.0052395301878049748 1.7736971890066353 -4.0383152932865756e-05 -0.0063250164000082645 0.0042388461524150997 -3.2785561409053545 0.36971369186925163 2.1170000000000006e-05 -0.18488256866626904 -0.69314885135303872 0.019058706378752895 -0.70710678118654757 0.33181818181819239 0.0063717478011726678 0.0042302781370361373 0.0061069297962488348 -0.0019746676211856436 0.0067348330860499449 -0.22252093395631442 0.025889472246587743 -0.020782913213504329 -0.0021148853646848491 -3.1395624999999983e-05 0.29890879090970868 -2.1162278699040002 0.4451567550543708
decision_type=2 2 2 2 2 2 2 2 2 2 2 2 2 2 2 2 2 2 2 2 2 2 2 2 2 2 2 2 2 2 2 2 2
left_child=1 23 5 6 10 15 7 -4 16 18 14 -7 -11 -13 -3 -2 -5 19 -6 -18 -14 22 -22 -1 -21 -10 -27 -12 29 -29 31 -31 -32
right_child=2 4 3 8 9 11 -8 -9 25 12 27 13 20 -15 -16 -17 17 -19 -20 24 21 -23 -24 -25 -26 26 -28 28 -30 30 32 -33 -34
leaf_value=-0.0049758100579744393 0.0032439305633801948 0.010415881408631979 0.0020821409306205495 0.0066183473840926354 0.0037377549213376796 0.002131733042997725 0.00076329329863355122 0.0053147465281950185 -0.00023024759654678408 0.0023749803047324099 -0.0041281735693447447 0.011711445878476555 -0.0080162568852615683 -1.5826778844299439e-05 0.0013054378226571924 0.0093340463472606494 -0.0021130218507765773 0.003484294541733711 -0.0019980736625489874 0.0017696022267484496 -0.0048482746473459664 -0.0070438030668677851 -0.00038382959056829877 -0.010147395417350437 -0.0040534182654054706 0.01554326855169977 0.0042929699083119307 -0.0088549369331783097 -0.0016395575543882762 0.00059810537268927303 -0.006523902656937421 0.0088153558060303592 0.0014870792124610879
leaf_weight=67.986345484852791 46.554878652095795 18.445401534438133 408.8027498871088 26.293529257178307 53.004015147686005 200.1007543951273 379.62899085879326 376.85317358374596 23.158692300319672 31.857559397816658 113.36552445590496 34.421162873506546 84.171366542577744 13.515668556094168 102.83739106357098 149.98901787400246 402.4666016548872 77.544791698455811 154.15429121255875 208.92258298397064 168.95873139798641 95.804200649261475 146.87265160679817 146.55420653522015 43.292907625436783 15.810631588101385 23.422575488686562 13.669530555605887 432.27309690415859 56.64877550303936 26.687292590737343 54.614393711090088 58.330089300870895
leaf_count=291 196 78 1727 111 225 844 1603 1589 98 135 481 145 358 57 435 631 1703 327 655 884 719 407 624 628 183 67 99 58 1836 240 113 231 247
internal_value=0.00024239 -0.00253768 0.00233113 0.00165145 -0.00174082 0.00536514 0.00269911 0.00363389 0.000163837 -0.0030788 -0.000618966 0.00335319 -0.00407956 0.00841722 0.00270791 0.0078972 -0.000277474 -0.000527122 -0.000527581 -0.00100342 -0.00449537 -0.00377134 -0.00277419 -0.00851571 0.000767021 0.00551343 0.00888958 -0.00115375 -0.000627318 0.00145581 0.00218336 0.00464186 -0.00103633
internal_weight=4257.01 1826.23 2430.78 1986.2 1611.69 444.581 1165.28 785.656 820.912 734.823 876.871 248.038 527.665 47.9368 121.283 196.544 758.52 732.227 207.158 654.682 495.807 411.636 315.831 214.541 252.215 62.3919 39.2332 755.589 642.223 209.95 196.281 111.263 85.0174
internal_count=18025 7761 10264 8391 6842 1873 4919 3316 3472 3123 3719 1046 2243 202 513 827 3208 3097 880 2770 2108 1750 1343 919 1067 264 166 3206 2725 889 831 471 360
is_linear=0
shrinkage=0.0102


end of trees

feature_importances:
atr_5=14
dow_sin=12
atr_14=9
hvol_ratio=9
funding_rate=9
ma_cross_10_60=8
d=7
hvol_20=7
vol_ratio_5_20=7
max_range_3=7
ret_21=6
roc_20=6
ma_cross_5_20_prev=6
macd_dea=6
dist_low_20=6
funding_rate_ma=6
macd_dif=5
macd_bar=5
dist_high_20=5
hour_cos=5
rsi12_slope=4
hvol_5=4
avg_body_3=4
ret_1=3
ret_2=3
slope_MA10=3
dist_MA60=3
cci=3
taker_buy_ratio=3
upper_shadow_ratio=3
sharpe_5=3
ret_3=2
ret_5=2
momentum_accel=2
dist_MA5=2
slope_MA20=2
slope_MA60=2
rsi6_slope=2
k=2
j=2
hl_position=2
vol_price_corr_10=2
lower_shadow_ratio=2
hour_sin=2
dow_cos=2
cum_ret_5_rank=2
cum_ret_20_rank=2
sharpe_20=2
ret_8=1
ret_13=1
log_ret_5=1
roc_10=1
price_percentile=1
slope_MA5=1
dist_MA10=1
ma_cross_5_20=1
macd_bar_change=1
rsi6=1
rsi12=1
cci_slope=1
vol_change=1
body_ratio=1
bull_streak=1
bear_streak=1

parameters:
[boosting: gbdt]
[objective: binary]
[metric: auc]
[tree_learner: serial]
[device_type: cpu]
[data_sample_strategy: bagging]
[data: ]
[valid: ]
[num_iterations: 356]
[learning_rate: 0.0102]
[num_leaves: 34]
[num_threads: -1]
[seed: 42]
[deterministic: 0]
[force_col_wise: 0]
[force_row_wise: 0]
[histogram_pool_size: -1]
[max_depth: -1]
[min_data_in_leaf: 56]
[min_sum_hessian_in_leaf: 0.001]
[bagging_fraction: 0.513]
[pos_bagging_fraction: 1]
[neg_bagging_fraction: 1]
[bagging_freq: 3]
[bagging_seed: 400]
[bagging_by_query: 0]
[feature_fraction: 0.573]
[feature_fraction_bynode: 1]
[feature_fraction_seed: 30056]
[extra_trees: 0]
[extra_seed: 12879]
[early_stopping_round: 0]
[early_stopping_min_delta: 0]
[first_metric_only: 0]
[max_delta_step: 0]
[lambda_l1: 0.0114]
[lambda_l2: 0.2146]
[linear_lambda: 0]
[min_gain_to_split: 0]
[drop_rate: 0.1]
[max_drop: 50]
[skip_drop: 0.5]
[xgboost_dart_mode: 0]
[uniform_drop: 0]
[drop_seed: 17869]
[top_rate: 0.2]
[other_rate: 0.1]
[min_data_per_group: 100]
[max_cat_threshold: 32]
[cat_l2: 10]
[cat_smooth: 10]
[max_cat_to_onehot: 4]
[top_k: 20]
[monotone_constraints: ]
[monotone_constraints_method: basic]
[monotone_penalty: 0]
[feature_contri: ]
[forcedsplits_filename: ]
[refit_decay_rate: 0.9]
[cegb_tradeoff: 1]
[cegb_penalty_split: 0]
[cegb_penalty_feature_lazy: ]
[cegb_penalty_feature_coupled: ]
[path_smooth: 0]
[interaction_constraints: ]
[verbosity: -1]
[saved_feature_importance_type: 0]
[use_quantized_grad: 0]
[num_grad_quant_bins: 4]
[quant_train_renew_leaf: 0]
[stochastic_rounding: 1]
[linear_tree: 0]
[max_bin: 255]
[max_bin_by_feature: ]
[min_data_in_bin: 3]
[bin_construct_sample_cnt: 200000]
[data_random_seed: 175]
[is_enable_sparse: 1]
[enable_bundle: 1]
[use_missing: 1]
[zero_as_missing: 0]
[feature_pre_filter: 1]
[pre_partition: 0]
[two_round: 0]
[header: 0]
[label_column: ]
[weight_column: ]
[group_column: ]
[ignore_column: ]
[categorical_feature: ]
[forcedbins_filename: ]
[precise_float_parser: 0]
[parser_config_file: ]
[objective_seed: 16083]
[num_class: 1]
[is_unbalance: 0]
[scale_pos_weight: 1]
[sigmoid: 1]
[boost_from_average: 1]
[reg_sqrt: 0]
[alpha: 0.9]
[fair_c: 1]
[poisson_max_delta_step: 0.7]
[tweedie_variance_power: 1.5]
[lambdarank_truncation_level: 30]
[lambdarank_norm: 1]
[label_gain: ]
[lambdarank_position_bias_regularization: 0]
[eval_at: ]
[multi_error_top_k: 1]
[auc_mu_weights: ]
[num_machines: 1]
[local_listen_port: 12400]
[time_out: 120]
[machine_list_filename: ]
[machines: ]
[gpu_platform_id: -1]
[gpu_device_id: -1]
[gpu_use_dp: 0]
[num_gpu: 1]

end of parameters

pandas_categorical:[]
