tree
version=v4
num_class=1
num_tree_per_iteration=1
label_index=0
max_feature_idx=14
objective=quantile
feature_names=atr_pct vol_ratio bb_width bb_width_rank momentum_5 trend_r2 vol_ma_ratio range_ratio funding_rate ma60_slope funding_z oi_z basis_z taker_imbalance volume_surprise
feature_infos=[0.0019425900770673403:0.040486711964442409] [0.072442199462213142:2.1135625530488049] [0.0018795519753884637:0.10168674729007152] [0.0083333333333333332:1] [-0.094350243805959355:0.082986886339723398] [5.2037382677516946e-07:0.94179386508443963] [0.17441480630216627:3.0266442851797439] [0.043728314083368143:1] none [-0.016908230828267867:0.0085473498255241864] none none [-5:4.7621817065680929] [-0.61798658676691764:0.5489315277169875] [-2.4583510523838874:3.6805631656426723]
tree_sizes=1530 1809 1702 1814 1821 1718 1703 1796 1818 1800 1638 1797 1540 1812 1724 1787 1799 1697 1803 1811 1888 1913 1808 1639 1887 1730 1794 1796 1816 1899 1884 1814 1897 1896 1809 1901

Tree=0
num_leaves=16
num_cat=0
split_feature=0 3 0 9 14 7 6 2 0 3 9 9 6 6 5
split_gain=10.5675 5.92897 4.55328 2.15488 1.89571 1.67018 1.57583 1.35313 2.69184 1.20057 1.18136 0.996158 0.945223 0.750395 0.432758
threshold=0.011772283021426853 0.74583333333333346 0.0067299400776340626 -0.0018072033702395405 0.40411879214150376 0.21779315168630944 1.0322563522609653 0.015191586325620747 0.0086808283294367173 0.77083333333333348 0.0013550122718082316 -0.00040342625065553633 1.3116255809655237 0.78023306197046371 0.34343493091093724
decision_type=2 2 2 2 2 2 2 2 2 2 2 2 2 2 2
left_child=2 13 3 -1 -3 11 -5 10 -9 -10 14 -4 -8 -2 -7
right_child=1 4 5 6 -6 7 12 8 9 -11 -12 -13 -14 -15 -16
leaf_value=-0.012368359952233732 -0.014509342797100543 -0.01272997297346592 -0.012228704500012099 -0.011664169083815068 -0.011853144949418493 -0.01212634490802884 -0.012295821460429578 -0.012665511411614715 -0.012743422389030456 -0.012014852702850475 -0.012667175102978944 -0.011742727478849701 -0.01173226538230665 -0.013194466987624765 -0.011787465555244125
leaf_weight=55 40 55 47 176 62 77 58 76 55 58 46 60 83 71 48
leaf_count=55 40 55 47 176 62 77 58 76 55 58 46 60 83 71 48
internal_value=-0.0122335 -0.0212947 -0.00918294 -0.00506195 -0.0131869 -0.0124205 -0.00346781 -0.0141033 -0.0170362 -0.0122335 -0.0109981 -0.0070252 -0.0077441 -0.0295326 -0.00836448
internal_weight=0 228 839 372 117 467 317 360 189 113 171 107 141 111 125
internal_count=1067 228 839 372 117 467 317 360 189 113 171 107 141 111 125
is_linear=0
shrinkage=1


Tree=1
num_leaves=19
num_cat=0
split_feature=3 9 1 4 3 4 6 9 1 13 6 9 4 6 6 6 13 7
split_gain=5.15601 2.70752 3.46835 3.12443 2.83987 2.01992 1.88135 1.75102 1.47666 1.45628 1.11935 0.864129 1.07572 0.745486 0.663553 0.588265 0.545353 0.259121
threshold=0.24583333333333338 -0.0016037213586955199 0.60922334199391492 0.0080287103799338028 0.76250000000000007 0.00016581395319492656 0.67803968005308057 -0.0018072033702395405 1.4569879659934761 0.047645752683418426 1.0837245553821093 -0.00026238791634386466 0.0014651658166155992 1.1826061665581455 1.0052473777542426 1.0607038503911268 -0.029220575653511379 0.22432641984880783
decision_type=2 2 2 2 2 2 2 2 2 2 2 2 2 2 2 2 2 2
left_child=7 2 4 6 -2 8 17 -1 10 -5 -4 -8 13 -13 -9 -7 -16 -3
right_child=1 3 5 9 -6 15 11 14 -10 -11 -12 12 -14 -15 16 -17 -18 -19
leaf_value=-5.1799352513626223e-05 -0.0019425775440686265 0.00052736651206942043 -0.00086015714565292013 -0.00030765980987780501 -0.0001696006685961038 0.00033084444206906485 0.0003505341161508113 0.00053447849204530946 -0.00099877919565187771 6.7212166177341683e-05 0.00041194084587914404 -0.00036603576969355348 0.00041350011335453021 3.781111910939215e-05 0.00037113231432158496 8.0613115715095799e-05 0.00043344219571736183 0.00046409563808992967
leaf_weight=61 60 62 51 62 41 46 53 115 50 43 54 57 67 53 41 41 44 66
leaf_count=61 60 62 51 62 41 46 53 115 50 43 54 57 67 53 41 41 44 66
internal_value=0 -0.00123916 -0.00461483 0.00121228 -0.0123775 -0.00123457 0.00348189 0.00682252 -0.00472756 -0.00625 -0.00106132 0.000649351 -0.000912921 -0.00405405 0.0090796 0.0046875 0.00508721 0.00833333
internal_weight=0 806 343 463 101 242 358 261 155 105 105 230 177 110 200 87 85 128
internal_count=1067 806 343 463 101 242 358 261 155 105 105 230 177 110 200 87 85 128
is_linear=0
shrinkage=0.05


Tree=2
num_leaves=18
num_cat=0
split_feature=0 0 2 4 5 0 6 5 2 6 6 12 6 6 5 12 1
split_gain=10.0554 4.1616 2.63726 2.30505 1.59558 2.66048 1.46492 1.32071 1.27852 1.26481 1.228 0.915612 0.361556 0.857772 0.319837 0.651993 0.166758
threshold=0.0067951159773116552 0.011917689286112849 0.036289600101369342 0.0096836566574708422 0.64425434257417169 0.0089403347390543987 1.0124524974767939 0.65322655657112338 0.0095842903720830108 0.78023306197046371 1.3687485408047588 -0.6266976781577801 1.1067188527977618 0.67527631425841073 0.18180662037091869 0.37025539732264856 0.53011687648317241
decision_type=2 2 2 2 2 2 2 2 2 2 2 2 2 2 2 2 2
left_child=7 3 6 4 8 -6 -3 11 -2 -4 -11 -1 13 16 -13 -16 -10
right_child=1 2 9 -5 5 -7 -8 -9 12 10 -12 14 -14 -15 15 -17 -18
leaf_value=0.00028368635689002985 -0.0003477339812088759 -0.0018298696846632085 -0.0013669579634588446 -0.00037309989281493478 -0.00088503031455911701 0.00017132482683700795 -0.00040611408753284188 -3.9974768505999249e-05 0.00036937610979794042 0.00037367690110932022 -0.00024816362974115687 0.00046490321794954076 0.0004298239490744891 -1.1970900333835821e-05 0.00050295465749513831 0.00014580288284196286 0.00040963204567378842
leaf_weight=40 45 51 44 73 61 77 40 51 40 50 40 139 64 54 105 42 51
leaf_count=40 45 51 44 73 61 77 40 51 40 50 40 139 64 54 105 42 51
internal_value=0 -0.00289436 -0.00846239 -0.00013412 0.00133588 -0.0028777 -0.0150815 0.00724206 0.00372549 -0.0037037 0 0.00840979 0.00541667 0.00368151 0.00940767 0.00717905 0.00665761
internal_weight=0 690 225 465 392 138 91 377 254 134 90 326 209 145 286 147 91
internal_count=1067 690 225 465 392 138 91 377 254 134 90 326 209 145 286 147 91
is_linear=0
shrinkage=0.05


Tree=3
num_leaves=19
num_cat=0
split_feature=2 9 0 0 2 12 7 7 7 1 9 0 7 5 1 9 0 0
split_gain=10.9597 4.3061 3.32388 1.97872 2.47112 1.03498 1.01164 2.48445 1.48925 0.981911 0.94061 0.809178 0.702072 0.866732 0.502468 0.312613 0.0999724 0.0132557
threshold=0.013231240645684008 -0.0080627579479926586 0.022637850171264105 0.011917689286112849 0.03600522244328664 -0.99460151180802459 0.30563730138293388 0.21095678947917745 0.44471493485033081 0.6287359474351959 -0.0037114724918089199 0.015074478902519494 0.63967266072226969 0.64129273488862004 0.88789818228825579 -0.001638173605560844 0.007243257727883666 0.003059698394141734
decision_type=2 2 2 2 2 2 2 2 2 2 2 2 2 2 2 2 2 2
left_child=5 2 -2 4 6 -1 7 -3 14 -5 -7 -11 13 15 -8 -12 17 -17
right_child=1 3 -4 9 -6 10 8 -9 -10 11 12 -13 -14 -15 -16 16 -18 -19
leaf_value=-0.00010237954788863136 -0.0014150085478021083 8.5010453168717911e-05 -0.00014663604873333037 -0.00066497996021857946 0.00066932858239151767 4.4077881870839467e-05 0.00020416977466884416 -0.00076226993637319544 -0.00029564699742186352 -0.00043477025110028083 0.00021117418328867643 7.8368459153307408e-05 0.00012861666652054277 0.00037345893600470393 4.9017083055696295e-05 0.00041678552001374103 0.0004502283043562783 0.00052385425575603227
leaf_weight=42 72 67 42 47 57 42 41 60 79 44 65 41 64 40 40 46 44 141
leaf_count=42 72 67 42 47 57 42 41 60 79 44 65 41 64 40 40 46 44 141
internal_value=0 -0.00431472 -0.0130435 -0.00214885 -7.24638e-05 0.00582474 -0.00203993 -0.00537109 0.000465839 -0.00733083 0.00654628 -0.00363372 0.00729426 0.00823442 0.00533537 0.00917508 0.0101832 0.0109707
internal_weight=0 590 114 476 344 484 287 127 160 132 442 85 400 336 81 296 231 187
internal_count=1074 590 114 476 344 484 287 127 160 132 442 85 400 336 81 296 231 187
is_linear=0
shrinkage=0.05


Tree=4
num_leaves=19
num_cat=0
split_feature=9 3 3 4 13 9 3 9 5 4 5 3 14 13 4 3 3 4
split_gain=7.87279 4.30625 2.43165 3.04604 2.40061 2.1972 1.99663 1.72257 3.09099 1.40205 1.09815 0.895448 0.859546 0.730882 0.452308 0.599638 0.373131 0.361658
threshold=-0.0083244892205513437 0.24583333333333338 0.77083333333333348 0.01345744576548258 -0.10433080532920673 -0.00079568389308931609 0.74583333333333346 -8.1881883245760165e-05 0.77773902657885619 0.0051166690343041896 0.32904980199194772 0.65416666666666679 1.0765014444374297 -0.037099538623956478 -0.00057846097631392135 0.45416666666666672 0.87083333333333346 -0.00053048109133552168
decision_type=2 2 2 2 2 2 2 2 2 2 2 2 2 2 2 2 2 2
left_child=6 10 3 4 5 -3 -1 8 16 -9 -2 12 13 -6 -15 -16 -4 -12
right_child=1 2 7 -5 11 -7 -8 9 -10 -11 17 -13 -14 14 15 -17 -18 -19
leaf_value=-0.002186349256249612 0.00038773300492144815 -0.0014341176508919015 8.5072218458733499e-05 -0.00051036877656607032 0.00039306617269144163 -3.5332594760875607e-05 -0.00025885966395427297 0.00055463286594639814 -0.00078664817273552557 2.3995958367641072e-06 -6.8444274135375218e-05 -0.00031879006273111609 -0.00020350370558455271 -3.1702075538316693e-05 0.00033045646132646371 9.6295498957440508e-05 0.00062588387297917575 0.00047060612825895417
leaf_weight=56 152 40 41 40 41 73 54 87 40 41 42 78 43 50 47 56 44 49
leaf_count=56 152 40 41 40 41 73 54 87 40 41 42 78 43 50 47 56 44 49
internal_value=0 0.00189119 -1.7313e-05 -0.0021855 -0.000874126 -0.00712719 -0.0121622 0.0038878 -9.92063e-05 0.00794574 0.0076332 0.00130538 0.00288866 0.00435897 0.00251623 0.00444712 0.00508721 0.00285326
internal_weight=0 964 721 468 428 113 110 253 125 128 243 315 237 194 153 103 85 91
internal_count=1074 964 721 468 428 113 110 253 125 128 243 315 237 194 153 103 85 91
is_linear=0
shrinkage=0.05


Tree=5
num_leaves=18
num_cat=0
split_feature=2 3 0 0 7 0 0 3 7 2 3 4 3 7 5 2 4
split_gain=10.0693 7.97955 4.18534 3.30227 2.14574 1.95732 1.61769 1.21831 1.17331 1.81987 1.11714 0.826607 0.752658 1.28231 0.591505 0.626879 0.112012
threshold=0.013231240645684008 0.77916666666666679 0.010777257784567793 0.018181679464792801 0.33313572053294177 0.0081814592433845125 0.0076443154330371734 0.24583333333333338 0.34411840223737361 0.0098984027371441675 0.61250000000000016 0.0013755113706425128 0.89583333333333348 0.25978198470324682 0.29687026468848776 0.0066306175176337407 0.0016129604632542096
decision_type=2 2 2 2 2 2 2 2 2 2 2 2 2 2 2 2 2
left_child=7 2 6 5 -4 -3 -2 14 16 11 -8 -10 -7 -14 -1 -16 -9
right_child=1 3 4 -5 -6 12 10 8 9 -11 -12 -13 13 -15 15 -17 -18
leaf_value=0.00037160030935531906 0.00018982171818814078 -0.00073749401532206295 -0.002009159729068516 -0.00069194577561109154 -0.000517361534062213 0.00050602902181127877 -0.00013495633446087568 0.00049466405324421418 -0.00061929733919088219 0.00030121722755540881 -0.00045113955220860358 0.00026450238392824294 0.00015425536216367408 -4.1036908050722659e-05 0.00020683612014383196 0.00050154385987774205 0.00030894449101180854
leaf_weight=137 43 41 56 48 72 93 59 51 42 76 72 42 57 49 53 43 40
leaf_count=137 43 41 56 48 72 93 59 51 42 76 72 42 57 49 53 43 40
internal_value=0 -0.00389171 -0.00957096 0.00198962 -0.0164729 0.00446058 -0.00428571 0.00582474 0.00322421 0.000465839 -0.00710227 -0.00441176 0.0065625 0.00327103 0.00849359 0.00489691 0.00774457
internal_weight=0 590 302 288 128 240 174 484 251 160 131 84 199 106 233 96 91
internal_count=1074 590 302 288 128 240 174 484 251 160 131 84 199 106 233 96 91
is_linear=0
shrinkage=0.05


Tree=6
num_leaves=18
num_cat=0
split_feature=2 3 1 2 7 2 6 14 6 6 3 7 6 2 14 2 2
split_gain=6.30656 5.62773 2.34737 2.19619 1.98479 2.17202 2.50505 1.73289 1.82975 1.35626 0.811597 0.806587 0.711851 0.427103 0.740696 0.484699 0.00111471
threshold=0.012970794967846025 0.70416666666666672 1.4527077487852551 0.016248412317833933 0.39317129266504686 0.0040102449827615376 1.512557130082598 0.65894522699946789 1.0322563522609653 1.0253602845465484 0.77916666666666679 0.24042145953458552 1.035829058056253 0.047659057174303764 -0.012731758598454193 0.030207701352606236 0.0054648283498631798
decision_type=2 2 2 2 2 2 2 2 2 2 2 2 2 2 2 2 2
left_child=4 3 10 -2 12 -6 7 8 -7 11 -3 -5 16 14 -12 -16 -1
right_child=1 2 -4 9 5 6 -8 -9 -10 -11 13 -13 -14 -15 15 -17 -18
leaf_value=0.00047905913380529307 -0.00017351511496223597 -3.6336396640355379e-05 -0.00084644024620083083 -0.0017035674498034154 0.00040282148543155702 -4.3507200368503312e-05 0.00045089134907834102 0.00032359784463872112 -0.0012678057023145584 -0.00013659660108104383 0.00043364685570065388 -0.0022103496357429261 0.00028430935756026574 0.00012668398370074764 -1.4444115242268357e-05 0.0003006699701184555 0.00041087824507905486
leaf_weight=40 79 64 62 42 48 57 55 51 50 43 67 53 41 63 40 46 136
leaf_count=40 79 64 62 42 48 57 55 51 50 43 67 53 41 63 40 46 136
internal_value=0 -0.00247768 0.00145773 -0.00877294 0.00532359 0.00224237 0 -0.00314465 -0.0068287 -0.0125899 0.00346975 -0.0160156 0.00888761 0.00495392 0.00641234 0.00287356 0.0103107
internal_weight=0 559 342 217 478 261 213 158 107 138 280 95 217 216 153 86 176
internal_count=1037 559 342 217 478 261 213 158 107 138 280 95 217 216 153 86 176
is_linear=0
shrinkage=0.05


Tree=7
num_leaves=19
num_cat=0
split_feature=9 2 3 2 7 2 9 14 2 6 2 6 2 9 2 6 7 2
split_gain=5.55087 3.00619 3.44874 2.50214 2.19489 2.04827 5.14801 1.96306 1.81555 1.7688 1.69055 2.37319 0.970523 0.887945 0.820331 0.721642 0.0295626 0.00457075
threshold=-0.0083244892205513437 0.013104214950486156 0.69583333333333341 0.038621394811469041 0.39317129266504686 0.01725645683757103 -0.0043430888885264687 1.7177714153738624 0.0040102449827615376 1.512557130082598 0.0099711718416120605 1.0607038503911268 0.017054090410237248 -0.00011575863484225567 0.032756186707721076 1.035829058056253 0.21779315168630944 0.0054648283498631798
decision_type=2 2 2 2 2 2 2 2 2 2 2 2 2 2 2 2 2 2
left_child=3 4 5 -1 15 -3 -7 12 -6 10 11 -10 -4 14 -14 17 -15 -2
right_child=1 2 7 -5 8 6 -8 -9 9 -11 -12 -13 13 16 -16 -17 -18 -19
leaf_value=-0.0025812681873480289 0.00045510617711502842 -7.3622687629625069e-05 -5.4746978151726467e-05 -0.00017720690262409871 0.00038268041115997915 2.1112908235339235e-05 -0.001810701874313056 -0.00078852561436446695 7.8699151709339711e-05 0.00037177917811134819 0.00031780597926244956 -0.0012573522927860356 -3.8262856886073145e-05 0.0004928036863088086 0.00016242125738098441 0.00027009388968225241 0.00033148814873508963 0.00038981901066630553
leaf_weight=41 40 74 43 55 48 40 43 42 62 57 49 49 41 47 78 41 48 139
leaf_count=41 40 74 43 55 48 40 43 42 62 57 49 49 41 47 78 41 48 139
internal_value=0 0.00248142 -0.000382932 -0.0100515 0.00522119 -0.00640823 -0.011756 0.00270833 0.00202068 0 -0.00263975 -0.00613839 0.00440891 0.00581395 0.00260417 0.00893665 0.00950521 0.0103472
internal_weight=0 941 456 96 485 157 83 299 265 217 160 111 257 214 119 220 95 179
internal_count=1037 941 456 96 485 157 83 299 265 217 160 111 257 214 119 220 95 179
is_linear=0
shrinkage=0.05


Tree=8
num_leaves=19
num_cat=0
split_feature=0 3 0 9 1 2 9 9 3 9 3 2 0 9 9 3 0 7
split_gain=6.0096 3.06813 4.61928 3.18278 2.09193 2.02827 3.0941 1.86112 1.62367 0.871731 1.50416 0.89491 1.4273 0.882204 0.839701 0.470097 0.448428 0.055559
threshold=0.0068091645731430421 0.75416666666666676 0.013076372087299499 0.0029630419402526535 1.4930205596304948 0.01527806498865982 -0.00030034841556031416 -0.0050650996301528353 0.53750000000000009 0.0010818945298972651 0.43750000000000006 0.007198825270745981 0.0028562827256739284 -0.00065273900987722333 -0.0029465925653096021 0.41250000000000003 0.0086808283294367173 0.34976281401299703
decision_type=2 2 2 2 2 2 2 2 2 2 2 2 2 2 2 2 2 2
left_child=9 2 3 5 7 14 -7 -3 -4 10 11 12 -1 -14 -2 -16 -9 -18
right_child=1 4 8 -5 -6 6 -8 16 -10 -11 -12 -13 13 -15 15 -17 17 -19
leaf_value=0.00052281551818873946 -0.00035739416485936122 -0.00016473110395635816 -0.001758480660945712 -0.00060899886183865635 -0.00078219740063339115 2.5312333722531805e-05 -0.0010485892779845351 0.00011861047748137161 -0.00067075266987237257 0.00042573110900194223 -0.00042565279267080312 0.00042109655234127697 0.00013837199748406915 -0.00048653329778703281 0.00044032048947815209 0.00021171974292536166 0.00045788597837951325 0.00032251486584043655
leaf_weight=42 47 67 47 40 45 61 40 41 42 107 43 74 47 50 48 69 87 40
leaf_count=42 47 67 47 40 45 61 40 41 42 107 43 74 47 50 48 69 87 40
internal_value=0 -0.00118519 -0.00405063 -0.00102124 0.00275801 0.000892857 -0.00453431 0.00471398 -0.0140278 0.00676511 0.00496109 0.00671729 0.00401786 0.000382653 0.00439394 0.00667373 0.00754438 0.00908203
internal_weight=0 674 394 305 280 265 101 235 89 363 256 213 139 97 164 117 168 127
internal_count=1037 674 394 305 280 265 101 235 89 363 256 213 139 97 164 117 168 127
is_linear=0
shrinkage=0.05


Tree=9
num_leaves=19
num_cat=0
split_feature=0 9 0 14 12 5 9 14 0 6 0 9 0 6 5 6 12 6
split_gain=7.08911 2.32035 2.85598 2.19537 1.59988 1.55569 1.60035 1.54456 1.19496 1.52785 1.42256 1.10187 0.772528 0.666652 0.667481 0.476836 0.413045 0.413061
threshold=0.0067299400776340626 -0.0086082979530890929 0.02115400140638667 1.7789918829206777 -0.29691025925549219 0.65322655657112338 -0.0018072033702395405 0.9236124011886564 0.013076372087299499 0.4668223289373305 0.0098677537156145051 0.0022069029350294538 0.0076443154330371734 1.035829058056253 0.21798436809672286 0.96311894011908061 -1.1392595204932447 0.87324257258057092
decision_type=2 2 2 2 2 2 2 2 2 2 2 2 2 2 2 2 2 2
left_child=5 2 -2 4 11 6 -1 8 9 -6 12 16 -11 -8 -15 -14 -3 -18
right_child=1 3 -4 -5 7 -7 13 -9 -10 10 -12 -13 15 14 -16 -17 17 -19
leaf_value=3.9549097346425981e-05 -0.0016616481965430084 7.0196775308533848e-05 0.00031248184720827498 -0.00066356326772893347 0.00034849752006635047 -0.00043928211217583534 0.00042532085325046011 0.00026190366455733718 -0.00086793453623427693 -3.4098891310652656e-05 7.6536530302186766e-05 -7.177188126522147e-05 -0.0014327088926132906 0.00048113815910387665 0.00023447304125037336 -0.0001088813483586274 0.00026623150522324146 0.00031434384346789245
leaf_weight=53 54 49 43 54 42 56 175 57 52 45 67 50 46 41 51 46 51 49
leaf_count=53 54 49 43 54 42 56 175 57 52 45 67 50 46 41 51 46 51 49
internal_value=0 -0.0016466 -0.00880102 -0.00045156 0.00045045 0.00683024 0.00817757 -0.00150983 -0.00301003 -0.001417 -0.00329268 0.0040625 -0.00625 0.00974813 0.00564516 -0.00887097 0.00625 0.00816832
internal_weight=0 705 97 608 554 376 320 355 298 246 204 199 137 267 92 92 149 100
internal_count=1081 705 97 608 554 376 320 355 298 246 204 199 137 267 92 92 149 100
is_linear=0
shrinkage=0.05


Tree=10
num_leaves=17
num_cat=0
split_feature=2 3 14 9 4 9 14 9 5 3 9 5 9 5 4 5
split_gain=5.35956 4.03479 2.4306 2.37684 1.82272 2.8137 2.0654 1.81868 1.65147 1.72539 1.2284 0.913962 1.46586 0.880285 0.464113 0.395675
threshold=0.014105123216524565 0.77916666666666679 -0.25794227653671126 -0.00011575863484225567 0.00086124659395225855 -0.0077826556382557524 -0.24630690392330565 0.0025750193202812581 0.64129273488862004 0.92916666666666681 -0.0032382383266919552 0.65322655657112338 -0.0017461992988531681 0.23808443648369254 0.0034398145483405256 0.02364301006444226
decision_type=2 2 2 2 2 2 2 2 2 2 2 2 2 2 2 2
left_child=2 4 15 8 5 -2 -7 11 -3 -10 -6 12 -4 -14 -5 -1
right_child=1 3 7 14 10 6 -8 -9 9 -11 -12 -13 13 -15 -16 -17
leaf_value=0.00027028063099899515 -0.0022812862678686405 0.00058611565466368558 -0.00048529632338560754 0.0004175668034572201 0.00033021764617271787 -0.0010939296580896815 3.1202852093700256e-05 -0.00021292017496696042 -0.00074560539430800583 4.3167662310472669e-05 -0.00021212738800941027 -0.00048638811761387814 0.00054686195141764643 0.0002200691331010308 0.0002133312625673371 0.00032012871737245596
leaf_weight=45 44 58 40 63 40 50 64 43 47 52 78 40 81 61 40 235
leaf_count=45 44 58 40 63 40 50 64 43 47 52 78 40 81 61 40 235
internal_value=0 -0.00200186 0.00501374 0.00239464 -0.00622744 -0.00974843 -0.00521739 0.00145677 -0.00134494 -0.005375 -0.0012605 0.00336323 0.00491803 0.00734266 0.00829327 0.00827402
internal_weight=0 536 545 260 276 158 114 265 157 99 118 222 182 142 103 280
internal_count=1081 536 545 260 276 158 114 265 157 99 118 222 182 142 103 280
is_linear=0
shrinkage=0.05


Tree=11
num_leaves=19
num_cat=0
split_feature=3 14 9 12 3 12 14 3 1 14 1 6 9 3 3 12 6 3
split_gain=4.11027 2.26083 2.51521 1.08428 1.22341 1.41 0.934658 0.930746 0.847272 0.836713 1.25275 0.960095 0.81813 0.486764 0.88506 0.430126 0.290724 0.118216
threshold=0.24583333333333338 1.7789918829206777 -0.0083244892205513437 -0.36255887706657391 0.88750000000000007 -0.15581077444268454 -0.25794227653671126 0.12916666666666668 0.75093665326032755 -0.30527391199338955 0.69812617562105606 0.82674541131409252 -0.0017193465066085432 0.46250000000000008 0.6708333333333335 -1.1392595204932447 0.73815417624248891 0.62916666666666676
decision_type=2 2 2 2 2 2 2 2 2 2 2 2 2 2 2 2 2 2
left_child=6 2 8 15 5 -5 12 -8 -2 10 -7 -11 -1 -13 -15 -4 -17 -18
right_child=1 -3 3 4 -6 9 7 -9 -10 11 -12 13 -14 14 -16 16 17 -19
leaf_value=6.6204299087559913e-05 -0.0012657953290113044 -0.00053106103909358383 6.1992262518316437e-05 -0.00077739981847635507 0.000317733954628019 -0.00029097614085531474 0.00022574661886792951 -0.00049675204169724997 -0.00031089079880406356 -0.00042513825187658148 0.00028611565289391236 -0.00022353207047778927 0.00032841789791684831 0.00022945885858534381 -5.9951523909301937e-05 0.00021489298824420918 0.00019333986662673679 0.00034894417435135287
leaf_weight=48 40 68 70 53 68 67 41 55 52 50 65 44 128 40 43 57 40 52
leaf_count=48 40 68 70 53 68 67 41 55 52 50 65 44 128 40 43 57 40 52
internal_value=0 -0.000385802 0.000387466 0.00151923 0 -0.00110193 0.00668498 0.00231959 -0.00725806 0.000120968 0.00319549 -0.00203652 0.00889831 9.76563e-05 0.00252976 0.004375 0.00591667 0.0077957
internal_weight=0 809 741 649 430 362 272 96 92 309 132 177 176 127 83 219 149 92
internal_count=1081 809 741 649 430 362 272 96 92 309 132 177 176 127 83 219 149 92
is_linear=0
shrinkage=0.05


Tree=12
num_leaves=16
num_cat=0
split_feature=2 3 4 4 6 1 4 13 4 3 5 6 6 4 5
split_gain=4.80442 4.57742 3.24531 2.10943 2.0978 0.981007 0.983484 1.01951 0.912527 0.701664 1.04357 0.680838 1.22254 0.593138 0.518666
threshold=0.01392256854115179 0.69583333333333341 0.00086124659395225855 0.0087579643160253812 0.96820341574045743 1.0947286587997207 0.0076877877205880915 -0.13903481351080085 -0.0045008088931471337 0.91250000000000009 0.53645975177148408 1.0052473777542426 1.3168574700151394 -0.0085289828996963895 0.78859245609960427
decision_type=2 2 2 2 2 2 2 2 2 2 2 2 2 2 2
left_child=3 2 4 8 -2 6 7 -3 13 10 -7 -10 -13 -1 -9
right_child=1 5 -4 -5 -6 9 -8 14 11 -11 -12 12 -14 -15 -16
leaf_value=0.00022840130895548737 -0.0017888660283900814 -2.2711015478054775e-05 2.4252792740697001e-05 -0.00017396729216123802 -8.3505605231089767e-05 2.6759233318999177e-05 -9.0955207173917791e-05 0.00040439039625592686 0.00034491181342307227 0.00016789337006291113 -0.00078440155007747977 -2.9804117174053e-05 0.00039040625166188853 -0.00018860327344232981 4.1102764043866024e-05
leaf_weight=40 75 49 73 55 41 41 50 109 225 42 41 67 71 58 40
leaf_count=40 75 49 73 55 41 41 50 109 225 42 41 67 71 58 40
internal_value=0 -0.00108986 -0.00743421 0.00556093 -0.0126068 0.00207775 0.00391566 0.00552764 0.0066829 -0.0014 -0.00421687 0.00786401 0.00467626 0.0020202 0.00758333
internal_weight=0 561 189 516 116 372 248 198 461 124 82 363 138 98 149
internal_count=1077 561 189 516 116 372 248 198 461 124 82 363 138 98 149
is_linear=0
shrinkage=0.05


Tree=13
num_leaves=19
num_cat=0
split_feature=0 0 0 6 4 7 6 6 12 0 4 4 12 6 0 6 4 13
split_gain=5.40659 1.80356 2.22348 2.31237 0.907985 0.9064 1.57116 1.1537 0.70957 0.565958 0.555769 0.524986 0.52186 0.504879 1.10287 0.505827 0.171367 0.0918074
threshold=0.0074774575389348489 0.0081185583214888803 0.018181679464792801 0.90031003941225374 0.0087579643160253812 0.54021615584250493 0.80652502137491966 1.4440143580302542 0.15196574522355968 0.0028562827256739284 -0.00024801616972280888 -0.0030674494338336351 0.44317903720998714 0.81974475005298864 0.0036151473968426121 1.227112205241953 -0.010241395055005762 -0.15568852794551888
decision_type=2 2 2 2 2 2 2 2 2 2 2 2 2 2 2 2 2 2
left_child=4 -2 5 -4 9 6 8 -7 11 -1 -10 -3 16 17 -15 -16 -8 -11
right_child=1 2 3 -5 -6 7 12 -9 10 13 -12 -13 -14 14 15 -17 -18 -19
leaf_value=0.00042851363915988528 -0.00047863233161592026 -0.00013275954385850173 -0.0013948143730618011 -8.4409693574706478e-06 -3.2572373364205336e-05 -0.00044218148322642571 6.2041282197335565e-05 3.5157194895107786e-05 -0.00053296194813537651 0.00015491295129008595 1.5820954832843157e-05 0.00014352294988871197 3.2870082207052054e-05 -0.00011898838931738224 0.00018908791041318885 0.00033212768183088763 0.00026572935456851894 0.00032766622275191864
leaf_weight=60 67 49 41 52 41 46 41 66 40 42 48 66 53 45 74 72 65 109
leaf_count=60 67 49 41 52 41 46 41 66 40 42 48 66 53 45 74 72 65 109
internal_value=0 -0.000944882 0 -0.00704787 0.00622185 0.00136842 0.00261708 -0.00243363 -0.000183824 0.00694789 -0.00365169 0.00226293 0.00632813 0.00597668 0.00397135 0.00612245 0.00841121 0.00830592
internal_weight=0 634 567 93 443 474 362 112 203 402 88 115 159 342 191 146 106 151
internal_count=1077 634 567 93 443 474 362 112 203 402 88 115 159 342 191 146 106 151
is_linear=0
shrinkage=0.05


Tree=14
num_leaves=18
num_cat=0
split_feature=9 2 2 3 2 7 1 4 9 9 2 6 1 9 9 2 4
split_gain=4.33377 3.54426 1.85183 1.21686 2.62584 2.76276 1.47014 1.3834 0.932403 0.945955 0.891212 0.693474 1.80663 1.30514 0.588984 0.480455 0.612701
threshold=-0.0086082979530890929 0.036760359495352092 0.008391446566569637 0.69583333333333341 0.016164196715348259 0.30563730138293388 1.0947286587997207 0.005441061794935643 0.0016838831300552972 -0.0014150739250738396 0.022082749230794788 1.0052473777542426 1.0249778324694678 -0.001478081125870889 -0.0037114724918089199 0.029560704309810695 0.0023345020959929523
decision_type=2 2 2 2 2 2 2 2 2 2 2 2 2 2 2 2 2
left_child=1 -1 11 4 7 -6 14 8 9 -4 -8 13 -13 -2 -5 16 -16
right_child=2 -3 3 6 5 -7 10 -9 -10 -11 -12 12 -14 -15 15 -17 -18
leaf_value=-0.0025273018520968016 3.0115017868876262e-05 -5.2466750151421682e-05 0.00016919947825430137 1.8724741567307082e-05 -0.0014132726918923179 1.321398352229909e-05 0.00022637427870525587 -0.00016528625363847725 -0.00017152278662739922 0.00036581191164554384 -0.00059050061937319519 -0.00032506020664796573 0.00028360567758274196 0.00042624271877953293 0.00019486527734106237 0.00057476158384892225 1.6644098666090525e-05
leaf_weight=40 41 73 78 43 41 56 46 70 40 79 62 43 77 104 78 66 40
leaf_count=40 41 73 78 43 41 56 46 70 40 79 62 43 77 104 78 66 40
internal_value=0 -0.00712719 0.00313472 0.00173214 -0.000205479 -0.00727041 0.00390625 0.00228545 0.00448232 0.00625 -0.000688073 0.00671992 0.0035124 0.00916096 0.00619518 0.00743243 0.00504202
internal_weight=0 113 964 699 364 97 335 267 197 157 108 265 120 145 227 184 118
internal_count=1077 113 964 699 364 97 335 267 197 157 108 265 120 145 227 184 118
is_linear=0
shrinkage=0.05


Tree=15
num_leaves=19
num_cat=0
split_feature=2 3 1 6 3 1 7 3 5 13 7 6 6 13 5 3 12 2
split_gain=3.82264 3.36643 1.2801 1.21991 1.58162 1.30419 1.18766 0.917631 0.662628 0.628011 0.547845 0.696323 0.848492 0.675067 0.47678 0.30657 0.142152 0.0161741
threshold=0.014105123216524565 0.50416666666666676 0.30464513742886773 0.83416852918184226 0.70416666666666672 1.1258548389038057 0.63967266072226969 0.26250000000000007 0.72216565192004178 -0.031419605456352022 0.28551852777253467 1.3989624213283547 1.0052473777542426 -0.080372825015644342 0.57913434301323996 0.30416666666666675 0.38017850676690518 0.009635656941568661
decision_type=2 2 2 2 2 2 2 2 2 2 2 2 2 2 2 2 2 2
left_child=6 -2 -3 4 -4 8 10 -8 -5 -6 17 12 13 -12 -7 -14 -15 -1
right_child=1 2 3 5 9 14 7 -9 -10 -11 11 -13 15 16 -16 -17 -18 -19
leaf_value=0.00026450050998036797 -0.0015471087682431117 0.0004384054885199433 -0.0015005137337606674 0.00017541171908333746 0.00017682427005706613 9.508496319066049e-05 0.0001142211840141516 -0.00022533037615235561 2.886825848487586e-05 -0.00010693790622029001 8.9359993540703684e-05 0.00039751212161158586 9.7837292269436753e-05 0.0004164635225274633 -0.00062972695751841758 -0.0002847597929996901 0.00022523697677907787 0.00024655359963895508
leaf_weight=90 64 60 40 79 57 58 40 58 54 59 62 52 45 56 73 41 40 40
leaf_count=90 64 60 40 79 57 58 40 58 54 59 62 52 45 56 73 41 40 40
internal_value=0 -0.00123853 0.000155925 -0.000771971 -0.00429936 0.00122642 0.00471429 0 0.00475746 -0.00106838 0.0058548 0.00446128 0.00316327 0.00534591 -0.00217803 -0.000574713 0.00798969 0.00877863
internal_weight=0 544 480 420 156 264 524 98 133 116 426 296 244 158 131 86 96 130
internal_count=1068 544 480 420 156 264 524 98 133 116 426 296 244 158 131 86 96 130
is_linear=0
shrinkage=0.05


Tree=16
num_leaves=19
num_cat=0
split_feature=0 0 2 6 2 6 0 2 2 5 6 0 2 5 4 4 6 6
split_gain=4.48786 1.71251 2.88885 1.62492 1.48264 1.38608 1.80997 1.78587 1.06449 1.05198 0.799958 0.699924 0.758719 1.07559 0.463094 0.157415 0.102068 0.184613
threshold=0.0068091645731430421 0.018181679464792801 0.037509913436160273 0.99009576013522083 0.014105123216524565 0.96311894011908061 0.0081814592433845125 0.025023232093866008 0.0097259511447781947 0.53645975177148408 1.0416858907817639 0.0028259400419065064 0.005401244637343137 0.65322655657112338 -0.014359016273932433 -0.0011484365688924079 1.0755334552367823 0.51860567309658012
decision_type=2 2 2 2 2 2 2 2 2 2 2 2 2 2 2 2 2 2
left_child=11 2 4 -3 8 7 -7 9 -2 -6 -10 -1 -13 16 -8 -4 17 -14
right_child=1 3 15 -5 5 6 14 -9 10 -11 -12 12 13 -15 -16 -17 -18 -19
leaf_value=0.00036609154445541139 -0.00019379695994292277 -0.0010618196472096434 0.00015546785030373943 -1.5682800455410051e-05 -0.00022831583915262714 -0.00060957754194175507 -1.4143596799337933e-05 1.3697346990782412e-05 0.00030284255740336066 -0.0017264428595200984 2.0352778871066341e-05 9.4644006380755371e-06 0.0002215615792842292 0.00011636536165252909 0.00030639236730101751 0.00049232511758609413 0.00020220086466919536 0.00032703199670879593
leaf_weight=52 59 44 47 43 62 40 44 58 69 43 58 65 54 51 75 56 64 84
leaf_count=52 59 44 47 43 62 40 44 58 69 43 58 65 54 51 75 56 64 84
internal_value=0 -0.000715308 0.000183824 -0.00724432 -0.00132613 -0.00340557 0 -0.0066311 0.00213904 -0.0104953 0.00478516 0.00606469 0.00501567 0.00625 0.00302083 0.0078125 0.00788177 0.00899281
internal_weight=0 698 611 87 508 322 159 163 186 105 127 370 318 253 119 103 202 138
internal_count=1068 698 611 87 508 322 159 163 186 105 127 370 318 253 119 103 202 138
is_linear=0
shrinkage=0.05


Tree=17
num_leaves=18
num_cat=0
split_feature=0 3 2 9 9 3 9 2 9 5 2 5 5 9 0 7 7
split_gain=4.04217 1.94177 2.8478 2.51878 1.87079 1.35974 1.78516 1.3916 1.21072 1.65559 1.31899 1.09521 0.762027 0.55381 0.490059 0.449711 0.0434117
threshold=0.0068091645731430421 0.77916666666666679 0.014558722417483331 0.0013550122718082316 -0.0013898222266773284 0.52916666666666679 0.00034741588059838962 0.030851549451006349 -8.1881883245760165e-05 0.56289979356384989 0.051142823602048776 0.668480537999667 0.18865079649764591 -0.0037114724918089199 0.010023236305955056 0.4648993923778193 0.36528555688914371
decision_type=2 2 2 2 2 2 2 2 2 2 2 2 2 2 2 2 2
left_child=4 2 3 13 12 -4 7 -7 9 -3 -11 15 -1 -2 -10 -6 -15
right_child=1 8 5 -5 11 6 -8 -9 14 10 -12 -13 -14 16 -16 -17 -18
leaf_value=-6.5064731861871113e-05 4.1573487980087853e-05 0.00066127416599127053 -0.0014739697109716139 -0.0004978304398288064 0.00034803699840313298 0.00026535398345898614 -0.00039891051789104818 -0.00033277525182037802 0.00011739697897041404 -0.00051818952241124443 7.8395887144627369e-05 0.00024859513524285668 9.8942257006030392e-05 0.00016519601683674331 0.00042684607006401214 0.0001921361081974423 0.00028244941290037832
leaf_weight=41 47 42 57 51 141 63 69 49 68 64 44 49 60 41 48 79 55
leaf_count=41 47 42 57 51 141 63 69 49 68 64 44 49 60 41 48 79 55
internal_value=0 -0.000500715 -0.00259815 0.00179487 0.00592992 -0.00627615 -0.00391484 0 0.00280899 0 -0.00344037 0.00810185 0 0.00529514 0.00662393 0.00961538 0.00747423
internal_weight=0 698 432 194 370 238 181 112 266 150 108 269 101 143 116 220 96
internal_count=1068 698 432 194 370 238 181 112 266 150 108 269 101 143 116 220 96
is_linear=0
shrinkage=0.05


Tree=18
num_leaves=19
num_cat=0
split_feature=9 4 5 1 4 3 1 6 4 6 14 9 5 6 6 6 9 14
split_gain=3.91499 1.86057 1.85243 1.58511 2.00869 1.26666 1.19916 1.178 0.884234 1.90065 1.39602 0.836627 1.11695 0.749908 0.576588 0.86625 0.856847 0.427691
threshold=-0.0091474976617180719 0.0099270270943512279 0.65322655657112338 0.69812617562105606 -0.0022340903193703849 0.78750000000000009 1.0793836918897961 0.90031003941225374 -0.001753294990042231 0.60004428930953568 0.55264210987900142 -0.00055771802021020711 0.28009123890222049 0.95705430715082607 0.83884691543802437 1.166452829825299 -0.0017193465066085432 0.036767344272529527
decision_type=2 2 2 2 2 2 2 2 2 2 2 2 2 2 2 2 2 2
left_child=7 2 8 17 -5 6 -3 -1 9 -2 14 13 -13 -11 16 -16 -10 -4
right_child=1 5 3 4 -6 -7 -8 -9 10 11 -12 12 -14 -15 15 -17 -18 -19
leaf_value=-0.0016535508827998802 -0.00025782872838454109 -0.0008172295269818137 2.906052569194963e-05 -0.0010627403045772152 0.00022182092029264562 0.00021210148870609271 -2.6849043042653961e-05 -0.0001066773774295161 3.0014337807996678e-05 0.00011152157075005784 -5.009227611702783e-05 0.00016289302242592787 -0.00014322195303240729 0.00043683814959234556 2.5779430210053849e-05 0.00029007581447996718 0.00029887265408044654 0.00025709112619383574
leaf_weight=43 49 40 42 52 74 43 51 43 51 54 56 69 40 79 56 43 142 47
leaf_count=43 49 40 42 52 74 43 51 43 51 54 56 69 40 79 56 43 142 47
internal_value=0 0.00240142 0.00327485 -0.000636574 -0.00433071 -0.00296296 -0.00638587 -0.00862069 0.00462891 0.00244007 0.00637536 0.00432099 0.000795455 0.00699627 0.00776451 0.004125 0.00947165 0.00430556
internal_weight=0 988 854 215 126 134 91 86 639 291 348 242 109 133 292 99 193 89
internal_count=1074 988 854 215 126 134 91 86 639 291 348 242 109 133 292 99 193 89
is_linear=0
shrinkage=0.05


Tree=19
num_leaves=19
num_cat=0
split_feature=0 0 2 14 9 9 9 2 7 7 4 9 4 12 9 9 7 0
split_gain=4.22405 2.48675 3.32293 1.50623 1.8808 1.4919 1.46463 3.01287 2.65597 1.07065 1.51765 0.959194 0.891504 0.8189 0.650498 0.597445 0.328089 0.226793
threshold=0.0065146787960747733 0.018181679464792801 0.036289600101369342 -0.25794227653671126 0.0010818945298972651 -0.011836850439753686 0.0013053461465126761 0.014486701547894507 0.45579831101217377 0.30563730138293388 -0.0020782805780499287 -0.0039181487267577744 0.0013755113706425128 -0.16825640670995812 -0.0013898222266773284 -0.003592692434375155 0.37467645028464674 0.012689172780447183
decision_type=2 2 2 2 2 2 2 2 2 2 2 2 2 2 2 2 2 2
left_child=3 2 6 14 12 -3 7 11 13 10 -9 -2 -5 -8 -1 -11 -13 -4
right_child=1 5 17 4 -6 -7 8 9 -10 15 -12 16 -14 -15 -16 -17 -18 -19
leaf_value=0.00010981479274018306 6.5759751785717106e-06 -4.2292835487319893e-05 0.0001685494934990253 -0.00063734639085630056 0.00039530388162080604 -0.0013466684707016602 -0.00060715350631741468 -0.0011195444887550272 -0.00024354374865420618 -0.00045592950813043345 -0.00022230220487899264 0.00018033178314309152 0.00020099431551032183 0.00017717777833594934 0.00029254261517856127 0.00019464161528457989 0.0003263621845079763 0.00045192275532526555
leaf_weight=63 42 45 77 44 50 42 47 44 74 42 48 53 47 46 136 70 61 43
leaf_count=63 42 45 77 44 50 42 47 44 74 42 48 53 47 46 136 70 61 43
internal_value=0 -0.00047619 0.000559414 0.00623167 0.00202465 -0.00838068 -0.00111269 0.000623269 -0.00498512 -0.00329268 -0.00725806 0.00589172 -0.00203804 0.000398936 0.0090625 0 0.00826087 0.00805785
internal_weight=0 734 647 340 141 87 527 360 167 204 92 156 91 93 199 112 114 120
internal_count=1074 734 647 340 141 87 527 360 167 204 92 156 91 93 199 112 114 120
is_linear=0
shrinkage=0.05


Tree=20
num_leaves=20
num_cat=0
split_feature=9 4 4 6 14 6 13 9 9 7 2 2 7 6 6 14 13 6 9
split_gain=2.90525 1.95501 1.48231 1.1306 1.20611 0.94366 0.927366 0.794308 1.24983 0.779113 0.784766 0.945864 0.69341 0.630071 0.592311 0.527947 0.487242 0.425986 0.188656
threshold=-0.0086082979530890929 0.0096006597449310744 -0.001753294990042231 1.1439964198173489 1.3359035231917435 0.83884691543802437 -0.20953616526307881 -0.0033670115987255995 -0.00055771802021020711 0.42729990344321228 0.016480533858050619 0.04064189174847236 0.48704347327392933 0.99360811623340151 1.4408440832034994 0.32453838922879752 0.065849131383832096 0.80226544665239186 -0.001531014388082119
decision_type=2 2 2 2 2 2 2 2 2 2 2 2 2 2 2 2 2 2 2
left_child=5 2 6 -3 -5 -1 -2 15 -9 10 13 -12 17 18 16 -8 -11 -10 -4
right_child=1 3 9 4 -6 -7 7 8 12 14 11 -13 -14 -15 -16 -17 -18 -19 -20
leaf_value=-0.001426820773862562 -0.00028171425226269572 -0.00038918922010848771 0.00013686746192504706 0.00021404813320070475 -0.00016101124703386927 -7.9840116998496823e-05 -0.0004193434285618199 0.00041886162553096142 0.00044642088523886339 -4.6890452904043303e-05 -2.3077840405138085e-05 0.0004621346140419797 -0.00017280156717733262 0.00021574359837722579 0.00023262670948633992 9.0830119267861303e-05 0.00025362281832087781 9.9234065448170452e-06 0.00025033578412798186
leaf_weight=41 60 53 40 45 40 58 42 78 54 64 74 40 51 42 42 44 40 43 123
leaf_count=41 60 53 40 45 40 58 42 78 54 64 74 40 51 42 42 44 40 43 123
internal_value=0 0.00252305 0.0034457 -0.0028777 0.000436047 -0.006375 0.00100536 0.00215655 0.00374449 0.00533798 0.00675781 0.00304348 0.000838926 0.00867718 0.00204082 -0.00172414 0 0.00344388 0.0101372
internal_weight=0 975 837 138 85 99 372 312 226 465 319 114 148 205 146 86 104 97 163
internal_count=1074 975 837 138 85 99 372 312 226 465 319 114 148 205 146 86 104 97 163
is_linear=0
shrinkage=0.05


Tree=21
num_leaves=20
num_cat=0
split_feature=2 3 1 4 13 4 1 2 2 14 1 3 2 4 14 4 12 13 13
split_gain=2.50946 4.49734 2.46314 1.4774 1.06318 0.879364 0.824464 0.744508 0.866195 0.974244 0.577616 0.506588 1.29282 1.16318 0.775488 0.439631 0.312189 0.223519 0.0855819
threshold=0.014105123216524565 0.72083333333333344 0.50314320774399424 0.010601560492578545 0.078690789985356516 -0.012154019904820955 1.1213842475097942 0.0037546688739217952 0.0068433206734034189 -0.25794227653671126 1.0574279216924973 0.24583333333333338 0.009635656941568661 0.0014651658166155992 0.55264210987900142 -0.0031216443428932479 0.075571148474880459 -0.048645075214519655 0.031191877281595341
decision_type=2 2 2 2 2 2 2 2 2 2 2 2 2 2 2 2 2 2 2
left_child=3 2 -2 7 6 -4 15 -1 9 -9 -7 18 13 -13 -14 -3 -17 -8 -10
right_child=1 4 5 -5 -6 10 17 8 11 -11 -12 12 14 -15 -16 16 -18 -19 -20
leaf_value=0.00033765406761716301 -0.0011454277147874981 0.00028553333205577175 -0.00092744557377833945 -0.0001375182531023461 -8.2737873547304415e-05 0.00011070484039259096 -4.7938526985666233e-05 0.00018174781453957946 0.00023607497510444404 -0.00061766495411761302 -0.00025566086836663701 -0.00044456981399731131 0.00033613051989158895 0.00052036962007234505 0.00011760346725580057 0.00029900006659423637 2.1263179447129912e-05 0.00012345077626398776 0.00017874881608823909
leaf_weight=57 43 64 45 40 67 77 44 67 58 48 40 44 83 40 42 53 55 41 40
leaf_count=57 43 64 45 40 67 77 44 67 58 48 40 44 83 40 42 53 55 41 40
internal_value=0 -0.000306604 -0.00612864 0.00454327 0.00330769 -0.00306748 0.00479651 0.00533854 0.00449173 0.000538793 -0.000529661 0.00588474 0.00422619 -0.000294118 0.00744048 0.00679191 0.0043578 0.000436047 0.00909091
internal_weight=0 529 205 519 324 162 257 479 422 115 117 307 209 84 125 172 108 85 98
internal_count=1048 529 205 519 324 162 257 479 422 115 117 307 209 84 125 172 108 85 98
is_linear=0
shrinkage=0.05


Tree=22
num_leaves=19
num_cat=0
split_feature=0 3 2 6 5 0 2 4 6 2 2 0 4 0 2 3 6 13
split_gain=3.12594 2.44212 2.0601 3.0357 1.60895 1.25899 0.826589 1.03917 0.767354 0.977229 0.80587 0.767987 0.414017 0.409051 0.90211 0.330725 0.238658 0.233537
threshold=0.0068091645731430421 0.69583333333333341 0.014105123216524565 0.83207652004339894 0.692296549021713 0.019468393222297747 0.0097259511447781947 0.0018158495418638678 1.9336746511676342 0.04064189174847236 0.020478143902229084 0.0097807672376932359 -0.0057727879933941453 0.0028562827256739284 0.005401244637343137 0.4958333333333334 0.91866527633250394 0.05787413316483548
decision_type=2 2 2 2 2 2 2 2 2 2 2 2 2 2 2 2 2 2
left_child=4 2 6 -4 13 8 -2 -8 9 10 16 -12 -5 -1 -15 17 -3 -16
right_child=1 5 3 12 -6 -7 7 -9 -10 -11 11 -13 -14 14 15 -17 -18 -19
leaf_value=0.00029626425903711237 -8.2731703701174024e-05 0.00011770889395238968 -0.0012514736851515305 -0.00036439812575432773 -0.00047812460582633953 -0.00022788902449028781 0.00021748540883736106 -8.5289815129190765e-05 -3.6643473713438188e-05 0.00038770139769023589 -4.7012772686500676e-05 0.00019953343089936261 0.00013270419028771956 4.5152134508543969e-06 0.00022214216142858422 0.00022649279201069445 0.00026199047137430269 0.00030678624890369721
leaf_weight=55 61 40 78 40 55 50 62 44 41 61 50 59 52 60 93 46 48 53
leaf_count=55 61 40 78 40 55 50 62 44 41 61 50 59 52 60 93 46 48 53
internal_value=0 0.00014556 -0.00284763 -0.00672515 0.00592287 0.00310714 0.000967262 0.00373832 0.004375 0.00540541 0.00347222 0.000340909 -0.000268817 0.00734578 0.0062253 0.00790155 0.00702247 0.00918367
internal_weight=0 686 337 170 362 349 167 106 299 258 197 109 92 307 252 192 88 146
internal_count=1048 686 337 170 362 349 167 106 299 258 197 109 92 307 252 192 88 146
is_linear=0
shrinkage=0.05


Tree=23
num_leaves=17
num_cat=0
split_feature=0 0 2 5 9 9 4 9 2 14 9 2 2 14 14 0
split_gain=3.04552 1.7395 2.39253 1.60895 2.40142 1.16172 1.34793 1.5109 1.2803 0.818582 0.781195 0.668708 0.458635 0.326109 0.266374 0.0280028
threshold=0.0068091645731430421 0.019468393222297747 0.037943165065313318 0.692296549021713 -0.0018072033702395405 -0.0077826556382557524 0.005441061794935643 0.0017352849246961013 0.016248412317833933 0.35342586929573055 -0.0016037213586955199 0.015577521065195632 0.017054090410237248 0.22396604379622645 0.55264210987900142 0.003059698394141734
decision_type=2 2 2 2 2 2 2 2 2 2 2 2 2 2 2 2
left_child=3 2 5 4 -1 -2 7 8 10 -10 -7 -9 -8 -4 15 -6
right_child=1 -3 13 -5 14 6 12 11 9 -11 -12 -13 -14 -15 -16 -17
leaf_value=-3.0986084652023013e-05 -0.00066688566759199165 -0.0005390510813487098 0.00043740217838454963 -0.00045421837553502251 0.00021329978091469645 0.00019538968785895772 -0.00019877630295885587 -0.00043068530970388183 -0.00050972651026145359 0.00043251379035268281 0.00027619448256696301 1.3389866230688201e-05 4.0631481852865943e-06 8.2649952737058653e-05 0.0001378486589773159 0.00029988277013825494
leaf_weight=54 42 76 55 55 65 59 75 46 56 64 70 48 44 51 40 148
leaf_count=54 42 76 55 55 65 59 75 46 56 64 70 48 44 51 40 148
internal_value=0 0.000218341 0.00114566 0.00592287 0.00734578 -0.000247525 0.000431965 0.00207122 0.00415 0.000206612 0.00759615 -0.00315789 -0.0040625 0.00794393 0.00939961 0.010222
internal_weight=0 686 610 362 307 504 462 343 249 120 129 94 119 106 253 213
internal_count=1048 686 610 362 307 504 462 343 249 120 129 94 119 106 253 213
is_linear=0
shrinkage=0.05


Tree=24
num_leaves=20
num_cat=0
split_feature=0 9 3 1 1 1 1 13 0 1 4 7 9 3 0 7 0 7 4
split_gain=2.59891 2.00621 1.71242 1.87175 1.00202 0.974479 0.957205 0.908671 0.904852 0.840106 0.792058 0.74378 0.628059 1.42743 1.04636 0.338268 0.334804 0.0227491 0.0159165
threshold=0.0068091645731430421 -0.0018072033702395405 0.50416666666666676 1.4569879659934761 1.7130596589465676 0.81181411221334543 0.82114257033659321 -0.199843507839253 0.011077730459331832 1.1377137254845369 -0.00033161168509582278 0.46743122575036183 0.00034741588059838962 0.72083333333333344 0.0086476397153101101 0.31658826165500842 0.020332485609116092 0.5114105483022694 0.0023345020959929523
decision_type=2 2 2 2 2 2 2 2 2 2 2 2 2 2 2 2 2 2 2
left_child=1 -1 5 7 -5 10 18 -4 -7 11 -2 -8 14 -14 -9 -15 -16 -11 -3
right_child=2 6 3 4 -6 8 9 12 -10 17 -12 -13 13 15 16 -17 -18 -19 -20
leaf_value=-2.506244864683132e-05 -0.0010147857282893956 0.00029188567855769628 -0.0001608760792127512 -0.00056085487985463995 2.2102984567865428e-05 0.00019283229628186483 0.00017890267499050388 -0.00012811653859326616 -0.0012162418232966106 0.00025738876882924527 -2.5815898350921992e-05 -6.5100362891905108e-05 -0.00031551142557700927 0.00027204167639386067 0.00030355032269553537 4.0628123792303688e-06 9.640907931457977e-05 0.00021745483147000887 0.00027435781538162661
leaf_weight=60 47 88 50 51 40 77 49 43 40 42 43 40 52 50 130 41 50 54 40
leaf_count=60 47 88 50 51 40 77 49 43 40 42 43 40 52 50 130 41 50 54 40
internal_value=0 0.00518048 0 0.00159941 -0.00475543 -0.00378606 0.00680732 0.00305755 -0.000529661 0.00423387 -0.00769231 0.000416667 0.00395095 0.00112847 0.00563616 0.00502717 0.00732044 0.00747423 0.0102713
internal_weight=0 373 714 507 91 207 313 416 117 185 90 89 366 143 223 91 180 96 128
internal_count=1087 373 714 507 91 207 313 416 117 185 90 89 366 143 223 91 180 96 128
is_linear=0
shrinkage=0.05


Tree=25
num_leaves=18
num_cat=0
split_feature=14 9 13 12 14 6 12 13 12 9 12 7 2 13 7 6 9
split_gain=1.62932 1.86174 1.97609 1.31845 1.09344 1.9088 1.92232 0.877588 0.671363 1.35791 0.557064 0.464774 0.328473 0.312388 0.29657 0.172724 0.167236
threshold=1.7789918829206777 -0.0015698724380093785 -0.20614332121839005 0.35027371671539981 -1.0129480240815474 0.85974316752962487 -0.11088675056516756 0.07649973639900666 -0.58960802945220891 0.0013053461465126761 0.84806215356327075 0.55837846258671209 0.012906202951634754 -0.19148344311745744 0.42445345886958746 0.66862364671709418 0.0012163456670327701
decision_type=2 2 2 2 2 2 2 2 2 2 2 2 2 2 2 2 2
left_child=1 2 -1 8 -4 6 -6 14 9 -3 12 13 -5 -10 -7 -15 -17
right_child=-2 3 4 10 5 7 -8 -9 11 -11 -12 -13 -14 15 -16 16 -18
leaf_value=-0.00057218430948488075 -0.00038412638511633112 0.00021389253866068965 0.00015589440654779929 3.1223049591392356e-05 9.3495034620738783e-05 4.6431670352906556e-05 -0.000636577297224945 -0.00032864435026575461 0.00018486722376018832 -0.00015413832439643431 0.00010202952152338131 2.3850749099212545e-05 -0.00013657472812083683 0.00031517975568081752 0.00032820843720193576 0.00020534434735972851 0.00027893223794314692
leaf_weight=45 78 69 66 54 43 54 73 57 44 59 66 48 43 98 68 77 45
leaf_count=45 78 69 66 54 43 54 73 57 44 59 66 48 43 98 68 77 45
internal_value=0 0.00231436 -0.0002457 0.00407699 0.00093232 -0.000295608 -0.00534188 0.00284722 0.00549887 0.00213178 7.62195e-05 0.00678914 -0.00216837 0.00764151 0.00528455 0.00848416 0.00650407
internal_weight=0 1009 406 603 361 295 116 179 440 128 163 312 97 264 122 220 122
internal_count=1087 1009 406 603 361 295 116 179 440 128 163 312 97 264 122 220 122
is_linear=0
shrinkage=0.05


Tree=26
num_leaves=19
num_cat=0
split_feature=14 13 13 4 6 13 2 7 6 6 2 3 3 12 3 6 4 14
split_gain=1.58508 0.899779 1.23191 0.84865 1.13195 1.16087 1.34886 0.717039 1.07393 0.799984 1.09941 0.712797 1.39603 0.401677 0.278286 0.26972 0.238658 0.0746062
threshold=1.7789918829206777 0.21960982372178808 0.12148478707174228 -0.001029410391538532 0.56662859448932712 -0.0071566947268502648 0.019795640081481436 0.46197859273633352 1.495473347754831 0.80037252730528863 0.018022445347785191 0.69583333333333341 0.24583333333333338 0.25399868829990474 0.20416666666666669 0.99743686733768977 -0.010963856282070748 -0.23791327497974044
decision_type=2 2 2 2 2 2 2 2 2 2 2 2 2 2 2 2 2 2
left_child=1 2 3 4 -1 11 -7 9 13 10 14 12 -6 -9 -5 -11 -13 -4
right_child=-2 -3 17 7 5 6 -8 8 -10 15 -12 16 -14 -15 -16 -17 -18 -19
leaf_value=-0.000525004349163487 -0.00036492006586051466 -6.8953019844563305e-05 0.00027362112462688096 6.2272300117615333e-05 0.00016830866348082219 0.00020940538475815054 -0.00071753324291042486 5.622440799587566e-05 0.00013270604087853736 0.0002767847953029412 -0.00013619767664824575 0.00028019076230752677 -0.00026827357696849964 -5.0852883994001365e-05 0.00018935250048806272 0.0002488748922057038 8.7115870086916085e-05 6.5918110198031555e-05
leaf_weight=74 78 57 50 49 59 54 41 41 40 44 78 48 78 40 76 74 40 66
leaf_count=74 78 57 50 49 59 54 41 41 40 44 78 48 78 40 76 74 40 66
internal_value=0 0.00221535 0.00259706 0.00188172 0.000126582 0.00147975 -0.00299479 0.003386 0 0.00461957 0.00251225 0.00348451 0.000996377 -0.00320122 0.00545635 0.00798319 0.00702247 0.00747863
internal_weight=0 1009 952 836 394 320 95 442 121 321 203 225 137 81 125 118 88 116
internal_count=1087 1009 952 836 394 320 95 442 121 321 203 225 137 81 125 118 88 116
is_linear=0
shrinkage=0.05


Tree=27
num_leaves=19
num_cat=0
split_feature=9 6 14 14 6 6 2 2 2 14 9 9 1 6 13 7 14 1
split_gain=2.11862 2.75909 1.48185 1.47304 1.21316 1.77714 1.80021 2.02888 1.77764 1.56383 0.89201 1.30095 0.669608 0.705986 0.684742 0.500949 0.274545 0.0215549
threshold=-0.0015698724380093785 0.51860567309658012 1.6754373888828638 -0.99150677862579428 1.3989624213283547 1.0416858907817639 0.014105123216524565 0.029560704309810695 0.011221738227022963 -0.26299774453859726 -0.011625201538223327 -0.0080627579479926586 0.76130105196887754 0.73430541823004225 0.070082887344786529 0.46197859273633352 0.36759866424288051 1.3223532647527259
decision_type=2 2 2 2 2 2 2 2 2 2 2 2 2 2 2 2 2 2
left_child=1 3 4 -1 5 6 15 9 -7 -8 -3 -12 13 -13 16 -2 -14 -6
right_child=2 10 -4 -5 17 8 7 -9 -10 -11 11 12 14 -15 -16 -17 -18 -19
leaf_value=-1.4698580626169379e-06 0.00023266676187386085 0.00063220971393933463 -0.00024387003035594127 -0.00068384806815325206 0.00019573884963602916 -0.00043191993281695005 -0.00037239315211520639 0.00041181308847188696 0.00026531870519210492 4.7708099506008771e-05 -0.001681891394875789 2.2602517224020142e-05 -6.3169446328278232e-07 0.00036350002878695199 -0.00041650514715294495 6.6391083470917442e-05 0.00016554350970512951 0.0003286845082135776
leaf_weight=46 166 56 55 45 40 65 50 42 52 60 44 44 66 40 40 52 64 59
leaf_count=46 166 56 55 45 40 65 50 42 52 60 44 44 66 40 40 52 64 59
internal_value=0 -0.000252242 0.00418614 -0.0080163 0.00494037 0.0038166 0.00552561 0.00114379 -0.00137712 -0.00225225 0.00169014 0.000501672 0.00196078 0.00558824 0 0.00844749 0.0019084 0.010125
internal_weight=0 445 641 91 586 487 370 152 117 110 354 298 254 84 170 218 130 99
internal_count=1086 445 641 91 586 487 370 152 117 110 354 298 254 84 170 218 130 99
is_linear=0
shrinkage=0.05


Tree=28
num_leaves=19
num_cat=0
split_feature=9 14 14 0 3 3 7 0 3 9 7 14 0 0 9 7 9 12
split_gain=2.61706 1.56938 1.35886 1.85978 2.51198 1.88707 1.17128 0.93275 1.42082 1.39039 1.42531 0.734528 0.469516 1.06562 2.11503 0.429426 0.361517 0.101088
threshold=-0.0015698724380093785 1.7562432044260843 -1.410073289442773 0.0081439560090803189 0.22916666666666671 0.57916666666666672 0.42445345886958746 0.0067299400776340626 0.68750000000000011 0.0017983410518341849 0.34411840223737361 -0.27348420910185128 0.0043966514534785383 0.0028259400419065064 0.0010818945298972651 0.16546473665427688 -0.0071180961444339266 -0.52777251350036225
decision_type=2 2 2 2 2 2 2 2 2 2 2 2 2 2 2 2 2 2
left_child=2 7 -1 4 -4 6 -5 12 9 10 -9 -10 13 -2 -15 -7 -17 -13
right_child=1 -3 3 5 -6 15 -8 8 11 -11 -12 17 -14 14 -16 16 -18 -19
leaf_value=0.00016489706399664346 0.0003128452105537672 -0.00033864597997195709 1.7899409540077238e-06 -0.0010861995482943211 -0.0010206783403865164 -3.7649459774076055e-05 0.00010042162289659141 -0.00046577253775175918 2.8795935186962325e-05 -0.00045101159315672873 0.00020800125962578097 0.00017324985328530647 0.0002851977278135939 -0.00016300207750782946 0.00022014850423191261 0.00042784234169210967 3.8836160440139119e-05 0.00023806725296207114
leaf_weight=52 46 43 49 54 44 44 47 46 54 46 56 44 119 65 45 79 76 77
leaf_count=52 46 43 49 54 44 44 47 46 54 46 56 44 119 65 45 79 76 77
internal_value=0 0.00457555 -0.00036435 -0.00142766 -0.00757979 0.000415282 -0.00502451 0.00525876 0.00327932 -0.000167785 0.00291262 0.00632102 0.00747283 0.00525478 0.00225225 0.0033125 0.00456731 0.0085041
internal_weight=0 641 445 393 93 300 101 598 323 148 102 175 275 156 110 199 155 121
internal_count=1086 641 445 393 93 300 101 598 323 148 102 175 275 156 110 199 155 121
is_linear=0
shrinkage=0.05


Tree=29
num_leaves=20
num_cat=0
split_feature=0 4 3 0 4 13 13 3 6 6 4 6 12 12 12 6 14 13 13
split_gain=1.83027 1.3453 1.27561 0.973855 1.44167 1.53884 1.1529 0.680161 0.67891 0.672079 1.77587 0.742748 0.634462 1.3606 0.623064 0.372115 0.324631 0.249892 0.10679
threshold=0.0028259400419065064 -0.016973377832952604 0.88750000000000007 0.01784944484169709 0.012298676929813903 0.21690219371946254 -0.093334097748162911 0.73750000000000016 1.5674167152071876 0.60328043188107439 -0.00015496458044805814 1.035829058056253 0.15196574522355968 0.53911487875174069 0.32809997185114831 1.1192650602332586 -0.45474533562603975 0.05787413316483548 0.033173888665308689
decision_type=2 2 2 2 2 2 2 2 2 2 2 2 2 2 2 2 2 2 2
left_child=-1 2 -2 4 5 6 9 -6 12 10 -3 16 15 14 -14 17 -11 -8 -15
right_child=1 3 -4 -5 7 -7 8 -9 -10 11 -12 -13 13 18 -16 -17 -18 -19 -20
leaf_value=0.00026881367301334407 -0.00039004089520174609 -0.00043884481482274256 6.3358608576862162e-05 -0.00035950233880798702 -0.00027531206152748975 -0.00018228049220238242 0.00029610645835939078 2.5519908477853598e-05 0.00030638309894260581 8.4376013719196481e-05 0.00023023549439154395 -3.2368113936422477e-05 0.00017587773390071159 0.00011972912285254402 -4.6449180679913192e-05 4.8618297206381827e-05 0.00027896308533188589 8.3557765071818764e-05 0.00038161920727957304
leaf_weight=56 74 51 41 72 40 47 102 44 57 40 44 54 56 42 52 45 51 59 59
leaf_count=56 74 51 41 72 40 47 102 44 57 40 44 54 56 42 52 45 51 59 59
internal_value=0 0.00164888 -0.00334052 0.00230622 0.00279917 0.00350329 0.00410238 -0.00323529 0.00554968 0.00114108 -0.00195312 0.00333904 0.00471755 0.00255952 -0.00114679 0.00676329 0.00611413 0.00794753 0.0067402
internal_weight=0 1030 115 915 843 759 712 84 472 240 95 145 415 209 108 206 91 161 101
internal_count=1086 1030 115 915 843 759 712 84 472 240 95 145 415 209 108 206 91 161 101
is_linear=0
shrinkage=0.05


Tree=30
num_leaves=20
num_cat=0
split_feature=5 7 6 5 13 2 3 1 2 5 3 6 7 5 1 1 5 12 3
split_gain=1.53051 2.01843 2.10505 1.7414 1.67839 1.36914 3.24139 1.70253 1.23645 1.14566 1.09881 2.30448 0.863696 0.984006 0.69759 0.468432 0.409092 0.368938 0.203056
threshold=0.63466352292214567 0.39210558845129467 0.94973489419837087 0.82343757666120987 -0.10846383111834056 0.01527806498865982 0.69583333333333341 0.87540857147325157 0.0092117175767158117 0.4475407739227108 0.44583333333333336 0.59789436692223774 0.62806009108560268 0.21798436809672286 0.85399417039640924 0.90206195175465198 0.86696770638521692 -0.21603871755786627 0.23750000000000002
decision_type=2 2 2 2 2 2 2 2 2 2 2 2 2 2 2 2 2 2 2
left_child=1 9 4 5 -3 -2 -7 -8 -6 10 17 -12 15 -14 -13 -4 -5 -1 -19
right_child=3 2 12 16 8 6 7 -9 -10 -11 11 14 13 -15 -16 -17 -18 18 -20
leaf_value=0.00011129822048764574 6.8756581037201551e-05 4.6046095241321475e-05 5.0135721751495314e-05 0.0003395865294939198 -1.9256939411873557e-05 -0.0014941714846470979 0.00015885075506978546 -0.00050027932208396167 -0.00079462485460591703 0.00031163783353780797 -0.00043080199331036638 0.00043019262650992172 6.695995302251085e-05 -0.00027743138880926128 9.1910427416940551e-06 0.00021906018014582106 1.5916977995164736e-05 4.5241416107645772e-05 0.00025605914964983056
leaf_weight=46 59 40 43 44 40 42 72 54 40 124 56 41 81 42 40 76 41 67 42
leaf_count=46 59 40 43 44 40 42 72 54 40 124 56 41 81 42 40 76 41 67 42
internal_value=0 0.0021181 -0.000550964 -0.00199681 -0.00599174 -0.00433114 -0.0066568 -0.0023622 -0.0101852 0.0044964 0.00264505 -0.000452899 0.00205761 -0.000705645 0.00472561 0.00510417 0.00392442 0.00552885 0.00715909
internal_weight=0 778 362 312 120 227 168 126 80 416 292 137 242 123 81 119 85 155 109
internal_count=1090 778 362 312 120 227 168 126 80 416 292 137 242 123 81 119 85 155 109
is_linear=0
shrinkage=0.05


Tree=31
num_leaves=19
num_cat=0
split_feature=9 6 7 9 0 2 9 3 2 6 0 2 9 0 6 3 2 12
split_gain=2.09241 2.61551 1.48671 1.84621 1.3755 1.61933 1.7919 1.49308 1.20194 1.1251 1.60509 1.46904 0.920446 0.786242 0.58278 0.719072 0.219867 0.191336
threshold=-0.0016037213586955199 0.85974316752962487 0.33904300823851724 -0.0033670115987255995 0.0068091645731430421 0.028350833893254743 0.0015121237636951392 0.69583333333333341 0.015577521065195632 0.83416852918184226 0.004517608503001258 0.0040102449827615376 -0.0086082979530890929 0.0081439560090803189 1.7744702643915928 0.50416666666666676 0.0088584711331755103 -0.13691440773713057
decision_type=2 2 2 2 2 2 2 2 2 2 2 2 2 2 2 2 2 2
left_child=1 2 3 12 9 6 8 -8 17 16 11 -11 -1 -3 15 -15 -2 -6
right_child=4 13 -4 -5 5 -7 7 -9 -10 10 -12 -13 -14 14 -16 -17 -18 -19
leaf_value=-0.00025511666785181433 0.00022977633691347672 -0.00011999664277497505 -0.0010371613425509947 -0.00033233341172328153 0.00021974757043380453 0.00030559535499857218 -0.0006620524648357337 1.0025129839972853e-06 -1.5828116662658722e-05 0.00018962567827433038 0.00032144885168570677 -0.0010825648883967865 0.00016459109530427452 2.4599811181922346e-05 -1.0818139704658231e-05 0.00027097815959988041 7.1001279823850906e-05 9.7304813986871276e-05
leaf_weight=41 88 52 41 62 48 72 68 71 65 46 72 50 60 40 52 78 40 44
leaf_count=41 88 52 41 62 48 72 68 71 65 46 72 50 60 40 52 78 40 44
internal_value=0 -0.00187354 -0.00597561 -0.00358232 0.00259398 0.000474255 -0.00109428 -0.00526786 0.00245253 0.00513468 0.00221893 -0.00180412 0.000367647 0.00179372 0.00350877 0.00546218 0.00872093 0.0061828
internal_weight=0 426 204 163 664 368 296 139 157 296 168 96 101 222 170 118 128 92
internal_count=1090 426 204 163 664 368 296 139 157 296 168 96 101 222 170 118 128 92
is_linear=0
shrinkage=0.05


Tree=32
num_leaves=20
num_cat=0
split_feature=0 3 1 1 3 4 2 1 4 1 13 4 3 14 4 2 4 0 0
split_gain=2.09023 1.84041 2.1048 1.50781 1.17872 1.1718 1.02332 1.01363 1.28484 0.867924 0.698681 0.655716 0.654981 0.950481 0.752318 0.472162 0.357695 0.224371 0.17813
threshold=0.0068091645731430421 0.69583333333333341 1.0947286587997207 0.63616814967015844 0.62916666666666676 0.0025484012633681945 0.014105123216524565 0.75093665326032755 -0.0035344557584857657 1.1331727210889295 -0.085675247856696432 0.0016129604632542096 0.4958333333333334 0.49806293227922444 -0.0016891185797504591 0.032237477458103563 0.00032601355292394279 0.013076372087299499 0.010640429208431572
decision_type=2 2 2 2 2 2 2 2 2 2 2 2 2 2 2 2 2 2 2
left_child=7 3 5 6 12 17 -2 16 -9 11 -4 -10 13 14 -5 -12 -1 -3 -7
right_child=1 2 10 4 -6 18 -8 8 9 -11 15 -13 -14 -15 -16 -17 -18 -19 -20
leaf_value=0.0002203741334325447 -2.5593752972182537e-05 0.00021723087886947793 7.5926540950876356e-05 -0.00053452617037645894 -0.00036038188715154223 -4.6552494863600758e-05 -0.0010629485307880905 -0.00040962005291601703 5.1811894408397262e-05 0.00022521043464043987 -1.0625039910744806e-05 -3.0089786830257781e-05 0.00020239665522656265 -0.00045998429902122627 0.0001521238984502666 -0.00046605080318938585 0.00010766475466858514 5.5156064899935549e-05 8.4984835827229231e-05
leaf_weight=66 43 111 40 43 41 46 53 46 57 86 45 44 76 40 43 44 78 46 42
leaf_count=66 43 111 40 43 41 46 53 46 57 86 45 44 76 40 43 44 78 46 42
internal_value=0 -0.000507703 0.00186667 -0.00319853 -0.000973361 0.00462398 -0.00850515 0.00406746 0.00186966 0.00378989 -0.00317308 0.000367647 0.000492611 -0.0015748 0.00114943 -0.00569444 0.00741379 0.00719937 0
internal_weight=0 713 374 339 243 245 96 377 233 187 129 101 202 126 86 89 144 157 88
internal_count=1090 713 374 339 243 245 96 377 233 187 129 101 202 126 86 89 144 157 88
is_linear=0
shrinkage=0.05


Tree=33
num_leaves=20
num_cat=0
split_feature=2 3 1 0 1 1 3 5 13 0 3 5 5 4 0 4 4 4 3
split_gain=2.28577 1.2842 1.89422 1.67587 2.9814 0.776742 0.801735 0.746585 0.704871 0.670111 0.649615 0.688804 0.62597 0.60409 0.516498 0.569349 0.442612 0.418243 0.34266
threshold=0.0075707179426332981 0.69583333333333341 1.4745946900989224 0.0076443154330371734 0.48299530706345595 0.72953770873526791 0.41250000000000003 0.43626338914251345 0.045841050768247966 0.0027693387921314638 0.22916666666666671 0.38954934949279724 0.85636255277549611 0.0025484012633681945 0.010351194892149354 -0.0011484365688924079 1.0000000180025095e-35 -0.00015496458044805814 0.045833333333333344
decision_type=2 2 2 2 2 2 2 2 2 2 2 2 2 2 2 2 2 2 2
left_child=9 3 7 5 -5 -2 -7 17 14 -1 11 18 13 -9 15 -6 -10 -3 -11
right_child=1 2 -4 4 8 6 -8 12 16 10 -12 -13 -14 -15 -16 -17 -18 -19 -20
leaf_value=0.00025453474065862438 9.1193019325086188e-05 -1.6795764989699717e-05 -0.00023415637732430213 -0.00096178663900877781 -0.00096780335467404875 0.00031186784829136842 -0.00013292137038007363 0.00037119369798225421 0.00028687676514249085 3.9117362980176269e-05 0.00022456085284762816 -0.00037302651168365252 6.7659388809768538e-06 0.00015347023416579996 -6.0956227144353772e-05 -0.00011560725026089239 -2.2081505673897602e-05 9.0319470928310183e-05 0.00015749328853564224
leaf_weight=47 71 56 71 50 40 64 50 126 42 41 46 41 41 49 71 48 51 55 42
leaf_count=47 71 56 71 50 40 64 50 126 42 41 46 41 41 49 71 48 51 55 42
internal_value=0 0.000380926 0.00250627 -0.00130635 -0.00363036 0.00235215 0 0.00415396 -0.00128458 0.00613532 0.00438596 0.0022 0.00587558 0.0071733 -0.00335937 -0.00589888 0.00199468 0.000558036 0.00491071
internal_weight=0 885 398 487 302 185 114 327 252 217 170 124 216 175 159 88 93 111 83
internal_count=1102 885 398 487 302 185 114 327 252 217 170 124 216 175 159 88 93 111 83
is_linear=0
shrinkage=0.05


Tree=34
num_leaves=19
num_cat=0
split_feature=2 13 2 3 6 12 14 7 2 14 6 7 2 13 12 7 13 7
split_gain=2.11093 1.26028 0.750376 2.44194 2.53017 0.915627 0.947019 0.818028 0.888666 0.676532 1.0254 0.641913 1.03402 0.576795 1.10524 0.417592 0.348696 0.139722
threshold=0.0063520061895053345 0.21960982372178808 0.014105123216524565 0.57083333333333341 0.74722940303440699 -0.021027897932582047 1.1459353107734678 0.29481978530017944 0.031159405110200825 0.25774846758765474 0.50868936640184848 0.6511213691899268 0.011099028948587436 -0.085675247856696432 0.16157265064327511 0.40099879545610434 -0.13242318995131083 0.55837846258671209
decision_type=2 2 2 2 2 2 2 2 2 2 2 2 2 2 2 2 2 2
left_child=16 2 11 4 -4 6 7 8 -5 10 -7 12 13 -2 -15 -11 -1 -18
right_child=1 -3 3 5 -6 9 -8 -9 -10 15 -12 -13 -14 14 -16 -17 17 -19
leaf_value=5.2683252189726401e-05 -1.362298432753929e-05 -0.00016386873223191313 -0.0011025335806351241 -0.00036184673612310592 2.786754395490889e-05 0.00033658805946097073 -0.00022130433441813117 0.00035493563169903115 0.00012254941510020625 0.00031236719806675866 -7.642977132258551e-05 -8.2151727961238618e-05 0.00030165364961731419 0.0001645696142044012 -2.2314676412579977e-06 0.00015123906488385269 0.00021067992736491307 6.830838824598538e-05
leaf_weight=40 74 53 47 44 57 48 41 71 55 46 67 72 79 68 59 57 84 40
leaf_count=40 74 53 47 44 57 48 41 71 55 46 67 72 79 68 59 57 84 40
internal_value=0 0.000638978 0.00111456 -2.34082e-05 -0.00690476 0.00159884 -0.000648585 0.000877193 -0.001875 0.00388128 0.000969828 0.00290368 0.00400356 0.00191832 0.00400391 0.00685096 0.00681818 0.0082
internal_weight=0 938 885 533 104 429 211 170 99 218 115 352 280 201 127 103 164 124
internal_count=1102 938 885 533 104 429 211 170 99 218 115 352 280 201 127 103 164 124
is_linear=0
shrinkage=0.05


Tree=35
num_leaves=20
num_cat=0
split_feature=9 0 3 5 9 2 4 1 9 0 4 5 4 5 4 1 0 5 1
split_gain=2.31695 1.95467 2.60938 1.57222 1.20524 1.57626 1.06873 2.42625 1.35077 1.34266 0.983498 0.777085 0.900999 0.844586 0.427377 0.397387 0.316705 0.0486221 0.0997621
threshold=-0.001478081125870889 0.0076897291750701981 0.74583333333333346 0.692296549021713 0.0021444213030636932 0.015382281421253271 0.00060698152416993622 0.36519118465190437 -0.0045161144712854142 0.0081439560090803189 0.005441061794935643 0.64425434257417169 -0.016441946535511783 0.30580477825531222 0.0050525726733980933 0.74646464794570189 0.0094327641245658782 0.11889422068742063 0.92529147183156824
decision_type=2 2 2 2 2 2 2 2 2 2 2 2 2 2 2 2 2 2 2
left_child=6 3 4 10 5 -3 7 -1 15 -9 17 13 -13 -11 -10 -8 -4 18 -2
right_child=1 2 16 -5 -6 -7 8 9 14 11 -12 12 -14 -15 -16 -17 -18 -19 -20
leaf_value=-0.000892315720313572 0.00015824573392187336 8.1570536179483564e-05 3.4635892170792759e-05 -0.00034565835319242939 -0.0004705566906837242 -0.00036212354969829036 0.00029829717233241298 -0.00062277524502113088 8.8498321740500445e-05 -8.6185086986338233e-05 5.184718971447573e-06 -0.00040822214482714433 0.00021972414192711622 0.0004345398809793902 -0.00041612158346195717 0.00037355959498781621 0.00021338572297490275 0.00024023888553576607 0.00020423534291866892
leaf_weight=42 58 70 49 56 46 41 42 71 41 40 53 41 43 56 42 40 80 149 42
leaf_count=42 58 70 49 56 46 41 42 71 41 40 53 41 43 56 42 40 80 149 42
internal_value=0 0.00352713 0.000348432 0.00598886 -0.00387658 -0.00078125 -0.00108932 -0.00293367 0.00203313 -0.00094246 0.00742574 0.00124309 -0.00205882 0.00438144 -0.00223214 0.00662651 0.00567308 0.00875 0.00668317
internal_weight=0 644 286 358 157 111 458 293 165 251 302 180 84 96 83 82 129 249 100
internal_count=1102 644 286 358 157 111 458 293 165 251 302 180 84 96 83 82 129 249 100
is_linear=0
shrinkage=0.05


end of trees

feature_importances:
bb_width=78
vol_ma_ratio=77
ma60_slope=77
atr_pct=67
bb_width_rank=67
momentum_5=59
range_ratio=42
vol_ratio=39
trend_r2=39
volume_surprise=37
taker_imbalance=32
basis_z=26

parameters:
[boosting: gbdt]
[objective: quantile]
[metric: quantile]
[tree_learner: serial]
[device_type: cpu]
[data: ]
[valid: ]
[num_iterations: 150]
[learning_rate: 0.05]
[num_leaves: 20]
[num_threads: -1]
[deterministic: 0]
[force_col_wise: 0]
[force_row_wise: 0]
[histogram_pool_size: -1]
[max_depth: -1]
[min_data_in_leaf: 40]
[min_sum_hessian_in_leaf: 0.001]
[bagging_fraction: 0.75]
[pos_bagging_fraction: 1]
[neg_bagging_fraction: 1]
[bagging_freq: 3]
[bagging_seed: 400]
[feature_fraction: 0.7]
[feature_fraction_bynode: 1]
[feature_fraction_seed: 30056]
[extra_trees: 0]
[extra_seed: 12879]
[early_stopping_round: 0]
[first_metric_only: 0]
[max_delta_step: 0]
[lambda_l1: 0.5]
[lambda_l2: 1]
[linear_lambda: 0]
[min_gain_to_split: 0]
[drop_rate: 0.1]
[max_drop: 50]
[skip_drop: 0.5]
[xgboost_dart_mode: 0]
[uniform_drop: 0]
[drop_seed: 17869]
[top_rate: 0.2]
[other_rate: 0.1]
[min_data_per_group: 100]
[max_cat_threshold: 32]
[cat_l2: 10]
[cat_smooth: 10]
[max_cat_to_onehot: 4]
[top_k: 20]
[monotone_constraints: ]
[monotone_constraints_method: basic]
[monotone_penalty: 0]
[feature_contri: ]
[forcedsplits_filename: ]
[refit_decay_rate: 0.9]
[cegb_tradeoff: 1]
[cegb_penalty_split: 0]
[cegb_penalty_feature_lazy: ]
[cegb_penalty_feature_coupled: ]
[path_smooth: 0]
[interaction_constraints: ]
[verbosity: -1]
[saved_feature_importance_type: 0]
[linear_tree: 0]
[max_bin: 255]
[max_bin_by_feature: ]
[min_data_in_bin: 3]
[bin_construct_sample_cnt: 200000]
[data_random_seed: 175]
[is_enable_sparse: 1]
[enable_bundle: 1]
[use_missing: 1]
[zero_as_missing: 0]
[feature_pre_filter: 1]
[pre_partition: 0]
[two_round: 0]
[header: 0]
[label_column: ]
[weight_column: ]
[group_column: ]
[ignore_column: ]
[categorical_feature: ]
[forcedbins_filename: ]
[precise_float_parser: 0]
[parser_config_file: ]
[objective_seed: 16083]
[num_class: 1]
[is_unbalance: 0]
[scale_pos_weight: 1]
[sigmoid: 1]
[boost_from_average: 1]
[reg_sqrt: 0]
[alpha: 0.25]
[fair_c: 1]
[poisson_max_delta_step: 0.7]
[tweedie_variance_power: 1.5]
[lambdarank_truncation_level: 30]
[lambdarank_norm: 1]
[label_gain: ]
[lambdarank_position_bias_regularization: 0]
[eval_at: ]
[multi_error_top_k: 1]
[auc_mu_weights: ]
[num_machines: 1]
[local_listen_port: 12400]
[time_out: 120]
[machine_list_filename: ]
[machines: ]
[gpu_platform_id: -1]
[gpu_device_id: -1]
[gpu_use_dp: 0]
[num_gpu: 1]

end of parameters

pandas_categorical:[]
