tree
version=v4
num_class=1
num_tree_per_iteration=1
label_index=0
max_feature_idx=79
objective=binary sigmoid:1
feature_names=Column_0 Column_1 Column_2 Column_3 Column_4 Column_5 Column_6 Column_7 Column_8 Column_9 Column_10 Column_11 Column_12 Column_13 Column_14 Column_15 Column_16 Column_17 Column_18 Column_19 Column_20 Column_21 Column_22 Column_23 Column_24 Column_25 Column_26 Column_27 Column_28 Column_29 Column_30 Column_31 Column_32 Column_33 Column_34 Column_35 Column_36 Column_37 Column_38 Column_39 Column_40 Column_41 Column_42 Column_43 Column_44 Column_45 Column_46 Column_47 Column_48 Column_49 Column_50 Column_51 Column_52 Column_53 Column_54 Column_55 Column_56 Column_57 Column_58 Column_59 Column_60 Column_61 Column_62 Column_63 Column_64 Column_65 Column_66 Column_67 Column_68 Column_69 Column_70 Column_71 Column_72 Column_73 Column_74 Column_75 Column_76 Column_77 Column_78 Column_79
feature_infos=[-0.13990747928619385:0.11523159593343735] [-0.1613134890794754:0.17420066893100739] [-0.19377079606056213:0.18514171242713928] [-0.22931079566478729:0.27487564086914062] [-0.27331456542015076:0.3759579062461853] [-0.31101766228675842:0.37448489665985107] [-0.35643285512924194:0.4067198634147644] [-0.15071530640125275:0.10906209796667099] [-0.26047009229660034:0.24284863471984863] [-0.22931079566478729:0.27487564086914062] [-0.305154949426651:0.38221833109855652] [-0.33515191078186035:0.49883362650871277] [-880.72998046875:1076.800048828125] [0.01666666753590107:1] [-0.14346177875995636:0.11607580631971359] [-0.13426944613456726:0.14761564135551453] [-0.19355377554893494:0.1928742378950119] [-0.090847685933113098:0.080454908311367035] [-0.2421269416809082:0.23090292513370514] [-0.055533260107040405:0.05062558501958847] [-0.38601487874984741:0.32219865918159485] [-0.030736520886421204:0.021019438281655312] [-0.1815120130777359:0.15877372026443481] [-0.1815120130777359:0.15877372026443481] [-0.29107972979545593:0.23471814393997192] [-0.12983277440071106:0.064910389482975006] [-0.12337220460176468:0.060460258275270462] [-0.068104520440101624:0.070275649428367615] [-61.456783294677734:54.967689514160156] [-1:1] [-1:1] [0.0029386822134256363:0.13725012540817261] [0.0017824579263105989:0.20235474407672882] [0.0033029264304786921:0.9959028959274292] [-0.80294430255889893:0.78834062814712524] [0.014891853556036949:0.97318321466445923] [-0.58239114284515381:0.54683727025985718] [0.069739237427711487:0.94854933023452759] [0.10259909927845001:0.91577088832855225] [-0.14996735751628876:1.1968874931335449] [-2.1946117877960205:2.2107014656066895] [-2.7150888442993164:2.4131894111633301] [0.0019008091185241938:0.43145531415939331] [0.0075474865734577179:0.27666449546813965] [0.053991317749023438:2.1297078132629395] [0:1] [-0.55344218015670776:0] [5.0721255320240743e-06:0.40194836258888245] [0.27160820364952087:2.8730316162109375] [-0.99863296747207642:932.35565185546875] [-0.99122083187103271:0.99293690919876099] [-1:1] [0.25217664241790771:0.7022736668586731] [-0.49564674496650696:0.40454733371734619] [-0.18958930671215057:0.15714059770107269] [0.0057640546001493931:0.22933100163936615] [-53.538478851318359:1.1198668479919434] [-172.4044189453125:98.128990173339844] [0:0.69999998807907104] [-0.19946905970573425:0.1740073561668396] [0:0.99350219964981079] [0:0.95437079668045044] [0:0.98875981569290161] [0:1] [0:12] [0:11] [4.8814938054420054e-05:0.087687544524669647] [0.0018005840247496963:0.36573565006256104] [-0.86602538824081421:0.86602538824081421] [-1:1] [-0.97492790222167969:0.97492790222167969] [-0.90096884965896606:1] [0.01666666753590107:1] [0.01666666753590107:1] [-24.644557952880859:20.715032577514648] [-13.612420082092285:18.211671829223633] [-0.0035633200313895941:0.0020966299343854189] [-0.0021839099936187267:0.0018525200430303812] none none
tree_sizes=3732 3867 3856 3838 3851 3854 3846 3851 3847 3842 3849 3862 3847 3838 3834 3846 3855 3870 3864 3858 3853 3851 3846 3859 3864 3871 3844 3865 3882 3860 3871 3872 3863 3851 3860 3848 3873 3883 3856 3847 3857 3865 3850 3872 3867 3887 3847 3853 3852 3862 3842 3856 3850 3854 3872 3858 3837 3845 3852 3855 3872 3856 3865 3856 3862 3861 3836 3844 3849 3838 3865 3853 3872 3869 3835 3866 3868 3860 3853 3850 3842 3869 3863 3847 3854 3860 3861 3865 3850 3854 3860 3857 3849 3872 3843 3868 3852 3853 3837 3836 3852 3867 3855 3866 3866 3848 3851 3862 3854 3856 3863 3860 3862 3867 3874 3847 3854 3858 3850 3859 3847 3863 3873 3852 3854 3869 3855 3857 3841 3831 3841 3856 3865 3854 3851 3862 3862 3875 3875 3880 3874 3866 3861 3873 3841 3845 3875 3845 3852 3859 3845 3869 3843 3856 3861 3851 3863 3862 3862 3875 3868 3850 3838 3874 3857 3862 3852 3868 3855 3842 3866 3864 3853 3878 3865 3848 3880 3851 3859 3857 3869 3866 3873 3869 3876 3847 3855 3847 3863 3870 3877 3869 3856 3867 3845 3850 3844 3856 3870 3850 3876 3854 3876 3858 3856 3851 3847 3860 3847 3851 3864 3854 3860 3888 3874 3879 3881 3871 3866 3852 3863 3846 3823 3848 3839 3853 3862 3850 3878 3873 3858 3872 3867 3842 3869 3866 3865 3889 3859 3863 3863 3872 3853 3893 3864 3870 3871 3850 3850 3855 3847 3867 3881 3865 3878 3852 3860 3845 3846 3855 3870 3865 3866 3839 3870 3851 3872 3873 3880 3861 3878 3872 3871 3865 3842 3846 3846 3855 3859 3860 3862 3870 3866 3874 3872 3858 3846 3860 3861 3854 3842 3869 3858 3833 3857 3868 3873 3855 3869 3850 3859 3862 3865 3844 3847 3823 3870 3845 3854 3851 3858 3843 3868 3839 3854 3856 3877 3865 3852 3873 3855 3859 3851 3883 3853 3861 3851 3876 3868 3877 3860 3868 3853 3860 3873 3864 3852 3863 3873 3850 3865 3867 3850 3828 3863 3882 3846 3854 3857 3846 3866 3850 3860 3871 3849 3853 3847 3848 3866 3856 3889 3872 3873 3863 3860 3869 3867 3849 3873 3884 3867 3865 3843 3869 3862 3863 3874 3868 3865 3857 3844 3865 3872 3889 3874 3865 3868 3866 3850 3856 3861 3870 3862 3859 3858 3866 3868 3883 3850 3857

Tree=0
num_leaves=34
num_cat=0
split_feature=3 24 56 67 21 20 11 74 59 27 77 20 53 31 27 24 31 11 4 4 27 47 39 73 56 16 74 70 33 20 67 5 75
split_gain=44.594 25.2353 24.3509 15.6692 15.2517 11.1589 17.0735 12.4501 12.3349 12.7216 19.4984 10.6397 12.0825 20.5396 16.0003 14.3254 10.5133 10.0341 11.5618 9.99183 9.86406 9.7043 9.49251 9.40357 13.2481 14.5523 9.87443 12.0923 9.39392 7.9019 7.81764 14.5556 9.6988
threshold=-0.0076329708099365226 -0.071299191564321504 -4.950187921524047 0.0076970073860138663 -0.0053341852035373441 -0.052028764039278023 -0.06040325574576854 0.86079427599906932 0.050331383943557746 0.004153007874265314 6.515250061056578e-05 0.03969873674213887 0.009022148326039316 0.028701260685920719 -0.0074929308611899606 0.0039096276741474876 0.029036482796072963 -0.10259029269218443 -0.070434313267469392 -0.0032123553100973363 0.010445971041917803 0.0649741366505623 0.56414026021957409 0.84166666865348827 -7.3886742591857901 0.024205342866480354 3.2294917106628422 1.0000000180025095e-35 0.32127028703689581 0.076957859098911299 0.023733683861792091 -0.044612960889935487 -5.2190136909484854
decision_type=2 2 2 2 2 2 2 2 2 2 2 2 2 2 2 2 2 2 2 2 2 2 2 2 2 2 2 2 2 2 2 2 2
left_child=1 17 3 -2 -4 6 7 -5 23 -10 -11 12 13 14 30 -16 -14 18 -1 -17 22 -8 -6 -7 26 -26 27 -25 -13 -24 -3 32 -32
right_child=2 11 4 5 20 8 21 -9 9 10 -12 28 16 -15 15 19 -18 -19 -20 -21 -22 -23 29 24 25 -27 -28 -29 -30 -31 31 -33 -34
leaf_value=-0.17925666312068561 -0.199373631068651 -0.20233022885567006 -0.19644295214810609 -0.18692032891504143 -0.18069788757807237 -0.19399254748781583 -0.17984180114114778 -0.19976129760290195 -0.18336342010553833 -0.18317213926554671 -0.19810899886729239 -0.17917727064305281 -0.18437961096842267 -0.18433823579971326 -0.1865480106571521 -0.19688221700180639 -0.19407164211422423 -0.17550690072378208 -0.19140945770571025 -0.18705149574453975 -0.17984180114114778 -0.19041749487750811 -0.19521421343494086 -0.18331972623102447 -0.20074414008165914 -0.18873245416965695 -0.19434509894147914 -0.19152920664892881 -0.18774345956807584 -0.1863758758794474 -0.19326179209299113 -0.18552146253005475 -0.20420809614626254
leaf_weight=18.084663242101669 32.205564677715302 15.855047225952147 14.864106774330137 14.368636548519136 15.11184188723564 362.18873506784439 24.278041064739227 16.845987677574158 28.737273097038269 14.616371661424635 23.287100613117218 21.057484596967697 68.37489116191864 43.601379871368408 62.429248452186584 34.682915806770325 13.873166322708128 20.562014371156693 14.616371661424635 15.359577000141142 24.278041064739227 14.368636548519133 17.836928129196167 41.124028742313385 24.52577617764473 18.084663242101669 25.516716629266739 33.939710468053818 36.417061597108841 25.021246403455734 21.305219709873196 14.368636548519133 13.873166322708132
leaf_count=73 130 64 60 58 61 1462 98 68 116 59 94 85 276 176 252 140 56 83 59 62 98 58 72 166 99 73 103 137 147 101 86 58 56
internal_value=-0.190315 -0.187618 -0.191766 -0.192454 -0.186996 -0.192104 -0.188262 -0.19386 -0.192574 -0.188456 -0.192335 -0.188588 -0.189353 -0.190595 -0.192134 -0.189801 -0.18602 -0.181076 -0.18466 -0.193859 -0.185278 -0.183746 -0.187589 -0.193118 -0.190906 -0.195658 -0.188886 -0.187024 -0.184571 -0.19006 -0.196137 -0.194112 -0.197636
internal_weight=1185.66 414.461 771.199 674.087 97.1122 641.882 69.8613 31.2146 572.02 66.6407 37.9035 361.198 303.723 221.475 177.874 112.472 82.2481 53.263 32.701 50.0425 82.2481 38.6467 57.97 505.38 143.191 42.6104 100.58 75.0637 57.4745 42.8582 65.4021 49.547 35.1784
internal_count=4786 1673 3113 2721 392 2591 282 126 2309 269 153 1458 1226 894 718 454 332 215 132 202 332 156 234 2040 578 172 406 303 232 173 264 200 142
is_linear=0
shrinkage=1


Tree=1
num_leaves=34
num_cat=0
split_feature=3 43 43 52 26 26 4 26 5 46 54 31 11 10 3 71 38 25 59 22 59 43 28 18 28 31 45 47 27 3 49 25 60
split_gain=43.6791 23.3021 18.3564 15.9816 13.3667 17.7289 12.8624 12.9546 14.1651 11.5157 10.7858 12.3391 14.4698 13.3435 12.1141 9.95352 9.59063 12.7798 16.8696 11.1705 10.2723 18.0927 10.149 9.72338 9.45718 9.67786 9.42315 8.95216 8.69622 10.3361 8.18923 7.87661 10.7806
threshold=-0.0076329708099365226 0.099848538637161269 0.030008081346750263 0.50454023480415355 -0.0025831538951024409 -0.00029397651087492699 -0.0036852852208539839 -0.012255663983523844 -0.046864818781614297 -0.073370896279811845 0.051377622410655029 0.022259727120399479 -0.065722048282623277 0.058809297159314163 0.016212784685194496 -0.56174489110708226 0.80251219868659984 -0.0027631109114736314 -0.031501078978180878 -0.0079468199983239157 -0.0220836978405714 0.044658195227384574 0.93480128049850475 0.0071685912553220996 2.8490984439849858 0.014034678228199484 0.6986621916294099 0.0649741366505623 0.0048449449241161355 0.04227519407868386 -0.17510573565959928 0.0048962873406708249 0.35599030554294592
decision_type=2 2 2 2 2 2 2 2 2 2 2 2 2 2 2 2 2 2 2 2 2 2 2 2 2 2 2 2 2 2 2 2 2
left_child=1 3 4 6 -2 -6 7 -1 -9 -10 11 13 14 16 -13 27 17 18 -4 -19 21 -21 31 -24 25 -20 -26 -3 -12 -30 -5 -22 -33
right_child=2 15 10 30 5 -7 -8 8 9 -11 28 12 -14 -15 -16 -17 -18 19 24 20 22 -23 23 -25 26 -27 -28 -29 29 -31 -32 32 -34
leaf_value=0.0050673065019187684 -0.010749351553395093 0.0090830891661621421 -0.0065683024540204278 0.0082725270433315987 0.0068042602586313129 -0.0061742602462494618 0.0054022541075289705 -0.0068868095271185318 0.0086306139986460327 -0.001139422355739906 0.0086818698281867657 0.00098961118168884826 0.002010994302259731 -0.0090674978216524135 -0.0098486177965440569 0.010856165265454342 0.0056932014599210242 -0.011565939406878523 -5.6838086581655799e-05 0.0090824101275808148 -0.010023018182420735 -0.0041131080048117984 0.0070108918720930367 -0.0025146434762669334 -0.0063616923474460853 0.010017747061739208 0.0051436577728356048 -0.0023237074928443039 -0.0057412291952543115 0.0062550785703216405 0.0022505904062925762 -0.007415210750304599 0.00055426128705630571
leaf_weight=35.192621991038322 30.212342739105225 13.882426962256433 21.301218464970589 53.293250203132629 15.601134762167929 35.414807364344597 47.83397088944912 41.105066016316414 14.12703877687454 100.33327859640121 23.793889671564102 21.304457187652588 229.67501813173294 24.771679103374481 21.292635887861252 52.056624263525009 18.825650319457054 14.860287189483641 14.859340131282805 19.814987480640411 29.969107463955879 23.283229485154152 13.870476767420767 53.255689308047295 15.109048157930376 29.479180708527565 14.118289619684218 14.377460926771162 14.366415917873384 15.110990568995474 42.383910894393921 38.394479766488075 32.448118343949318
leaf_count=142 122 56 86 215 63 143 193 166 57 405 96 86 927 100 86 210 76 60 60 80 121 94 56 215 61 119 57 58 58 61 171 155 131
internal_value=0.00061947 0.00328859 -0.000815899 0.00209992 -0.00539569 -0.00219117 0.00068524 -0.000501719 -0.00176756 7.93056e-05 -0.000275002 -0.000644564 0.000997427 -0.00187174 -0.00444749 0.00821548 -0.0013411 -0.00175784 0.00138084 -0.00307653 -0.00246704 0.00196597 -0.00360644 -0.000528558 0.00369652 0.00665479 -0.000803092 0.00330192 0.00412423 0.000405279 0.0056171 -0.00564925 -0.00377266
internal_weight=1185.72 414.586 771.132 334.269 81.2283 51.0159 238.592 190.758 155.565 114.46 689.904 636.633 272.272 364.361 42.5971 80.3165 339.589 320.763 94.8671 225.896 211.036 43.0982 167.938 67.1262 73.5659 44.3385 29.2273 28.2599 53.2713 29.4774 95.6772 100.812 70.8426
internal_count=4786 1673 3113 1349 328 206 963 770 628 462 2785 2570 1099 1471 172 324 1371 1295 383 912 852 174 678 271 297 179 118 114 215 119 386 407 286
is_linear=0
shrinkage=0.0102


Tree=2
num_leaves=34
num_cat=0
split_feature=3 24 56 35 58 67 5 67 54 20 47 73 32 27 54 46 16 48 40 31 74 20 55 56 14 62 24 62 26 40 42 24 56
split_gain=42.7873 24.3866 23.7105 15.9872 16.5611 15.2738 13.8426 13.7907 11.5606 13.0825 24.1965 17.8937 11.6233 13.9366 10.5477 9.96313 13.0695 9.87217 9.78984 9.19915 8.95219 8.44913 8.20042 8.17552 12.9217 8.24203 9.2416 8.99197 8.46752 10.3325 11.2604 7.91864 7.90181
threshold=-0.0076329708099365226 -0.069403085857629762 -4.950187921524047 0.26883624494075781 1.0000000180025095e-35 0.0076970073860138663 0.042069487273693092 0.021019789390265945 0.051377622410655029 -0.03175412863492965 0.12469430640339853 0.35833333432674414 0.021697867661714557 0.0048449449241161355 -0.047252947464585297 -0.078533776104450212 -0.051002185791730874 0.9274083971977235 -0.46483834087848658 0.032458873465657241 0.20851665735244754 -0.032380931079387658 0.056406510993838317 -6.0017755031585684 0.0011252069380134346 0.26063621044158941 -0.0099218119867145998 0.47452494502067571 -0.00047767221985850478 -0.21898271143436429 0.050668163225054748 0.0060648315120488414 -38.783353805541985
decision_type=2 2 2 2 2 2 2 2 2 2 2 2 2 2 2 2 2 2 2 2 2 2 2 2 2 2 2 2 2 2 2 2 2
left_child=1 18 5 4 21 -2 -4 14 9 10 11 17 13 -10 -5 16 -6 -7 -1 23 -13 -3 -8 25 -25 -11 27 -27 -28 -30 -31 -16 -9
right_child=2 3 6 7 15 8 22 32 12 19 -12 20 -14 -15 31 -17 -18 -19 -20 -21 -22 -23 -24 24 -26 26 28 -29 29 30 -32 -33 -34
leaf_value=0.013350886673773776 -0.0083232358878260713 0.0099359327401337804 7.7873988364137689e-05 -0.0072088941161642679 -0.0011379403774928322 -0.0057872306761224688 0.010441990514999075 0.010027133640102232 0.012220621178019654 -0.003559327675628826 -0.010618218186806111 0.00053250535111458539 -0.0034753666679270142 -0.00072890401816700257 0.0062928522963579692 0.0016618793424041207 -0.012517324360880617 0.0043429486742998322 0.0045722501733772404 0.0044076489888857052 0.0098225080910521977 -0.00094816635493335025 0.0011267763174323871 -0.01471815792556962 -0.0029047354424625942 -0.0013103410622014812 0.0064044591757003522 -0.010564083297824548 -0.0070742091220749219 0.0030510541849184565 -0.0035437064699186636 -0.0014261627492476109 0.0041078443567521272
leaf_weight=31.017155811190605 32.168118357658386 15.613398864865305 49.053891256451607 17.096143633127213 19.823048070073128 24.01778906583786 34.215855807065964 27.269638001918793 20.33855128288269 208.27422887086868 14.363277375698088 14.869125962257383 16.85152505338192 14.858377277851103 24.043010726571083 19.076083481311798 22.28653322160244 16.842011362314224 23.566360965371132 20.315965592861176 39.656335294246674 13.871341943740843 13.882021903991697 14.110528483986853 29.962472334504128 30.707682967185974 21.549181550741196 16.836794555187225 20.548434898257256 76.27887499332428 41.362068489193916 31.971454367041588 169.07070590555668
leaf_count=125 130 63 198 69 80 97 138 110 82 841 58 60 68 60 97 77 90 68 95 82 160 56 56 57 121 124 87 68 83 308 167 129 682
internal_value=0.000613129 0.00325431 -0.000807749 0.00228769 -0.00141373 -0.00148725 0.0038974 0.00353379 -0.00114173 -0.00154889 0.00162519 0.00348974 0.0034564 0.00677941 -0.000246086 -0.00443641 -0.00719617 -0.00160796 0.00959559 -0.00227534 0.00730326 0.00484165 0.00777279 -0.00257291 -0.00674257 -0.00212715 -0.000685376 -0.00462252 0.000490376 -0.000439524 0.000729146 0.00189636 0.00494061
internal_weight=1185.77 414.705 771.063 360.121 90.6704 673.911 97.1518 269.451 641.743 589.695 109.749 95.3853 52.0485 35.1969 73.1106 61.1857 42.1096 40.8598 54.5835 479.946 54.5255 29.4847 48.0979 459.63 44.073 415.557 207.283 47.5445 159.739 138.189 117.641 56.0145 196.34
internal_count=4786 1673 3113 1453 366 2721 392 1087 2591 2381 443 385 210 142 295 247 170 165 220 1938 220 119 194 1856 178 1678 837 192 645 558 475 226 792
is_linear=0
shrinkage=0.0102


Tree=3
num_leaves=34
num_cat=0
split_feature=32 66 37 16 40 31 43 75 26 22 35 77 16 66 36 48 62 44 72 75 6 31 32 47 74 51 32 31 48 16 25 69 48
split_gain=38.3868 18.2735 20.166 18.7061 17.1205 21.1103 18.7807 15.9929 13.7953 14.3315 12.3033 12.4438 11.6306 11.1032 10.8627 14.0645 10.6676 15.3459 10.7105 13.7021 12.9672 11.8983 11.1432 10.0854 10.0756 9.83304 12.6 10.9439 10.7041 11.1592 10.4885 11.8262 9.62212
threshold=0.019743939861655239 0.0042927607428282508 0.3352275043725968 -0.018701651133596894 -0.44153878092765803 0.028863333165645603 0.18643710017204287 5.4664466381073007 -0.012869049794971941 -0.017570382915437218 0.32753865420818334 5.3492500228458091e-05 0.063726533204317107 0.012551439926028253 -0.045609621331095689 1.1262866258621218 0.13591173291206363 0.64000606536865245 0.44166666269302374 0.92869949340820324 0.04978210665285588 0.020710553973913196 0.013231213204562666 0.080204848200082793 -2.5915520191192623 -0.40000001341104502 0.022438015788793567 0.021889824420213703 1.1783783435821535 0.0041320289019495257 0.020770487375557426 1.0000000180025095e-35 0.89282479882240307
decision_type=2 2 2 2 2 2 2 2 2 2 2 2 2 2 2 2 2 2 2 2 2 2 2 2 2 2 2 2 2 2 2 2 2
left_child=1 7 3 -3 5 8 12 14 -2 -10 11 -7 25 -11 -1 -16 17 -4 20 21 24 22 -20 -21 -18 30 -27 -28 -29 -30 31 -6 -19
right_child=4 2 16 -5 6 10 -8 -9 9 13 -12 -13 -14 -15 15 -17 18 32 19 23 -22 -23 -24 -25 -26 26 27 28 29 -31 -32 -33 -34
leaf_value=-0.0020955741103835107 0.00858249170454853 -0.0034060292562410198 -0.013597500497892384 0.0083510258277279415 0.0070278956141115127 -0.00024966858677249093 -0.010003641243601145 0.0037599314974891738 -0.0056052588080301178 0.010141963236025908 0.015059366385463594 0.01045908497237851 0.0097854046650315777 -0.0013675821834329951 -0.0082394939032738278 0.0019658147028789241 0.0015097242109870202 0.002347641280034638 0.00097486873604955176 -0.0037059281290445067 0.0050786598629908898 -0.0030974372133923114 0.011942769347175882 0.0050635927397573669 -0.008048098342207927 0.0033464494968661524 -0.0067646206800006407 -0.0017486315537539399 0.0096502730921025747 -9.9509168380105878e-05 0.011445120395900654 -0.0020745242344680954 -0.005799512783361856
leaf_weight=71.802257999777794 20.089122876524925 20.811562761664391 16.844146847724915 42.618657842278481 26.521564126014709 20.350866392254829 16.842667549848557 22.292940407991409 34.66543360054493 15.124527022242544 21.591489359736443 25.055230930447578 14.621804386377333 20.073664471507072 117.59963573515415 15.848385900259016 15.122843116521834 24.278427615761757 15.604030579328535 58.208256900310516 14.126277282834051 13.868215605616568 25.26835834980011 17.591341063380241 46.338436007499695 79.77455797791481 32.930723488330841 163.33697400987148 19.340952768921852 32.458245173096657 15.127797201275824 33.212511166930199 39.131280481815338
leaf_count=290 81 84 68 172 107 82 68 90 140 61 87 101 59 81 475 64 61 98 63 235 57 56 102 71 187 322 133 659 78 131 61 134 158
internal_value=-0.00029502 -0.00216537 -0.00070055 0.00449321 0.00153171 0.0044165 0.000486936 -0.00441401 0.0011806 -0.000965901 0.00874173 0.00567831 0.000915523 0.00360623 -0.00530538 -0.00702542 -0.00185382 -0.00500373 -0.000622936 0.00114557 -0.00367329 0.00502478 0.0077853 -0.00166064 -0.00569739 0.000588137 -0.00017394 -0.00130843 -0.000466802 0.00356346 0.00391799 0.00197565 -0.00268089
internal_weight=1168.47 577.355 349.812 63.4302 591.118 156.95 434.168 227.543 89.9527 69.8636 66.9976 45.4061 417.325 35.1982 205.25 133.448 286.382 80.2539 206.128 130.54 75.5876 54.7406 40.8724 75.7996 61.4613 402.703 327.841 248.067 215.136 51.7992 74.8619 59.7341 63.4097
internal_count=4716 2331 1412 256 2385 633 1752 919 363 282 270 183 1684 142 829 539 1156 324 832 527 305 221 165 306 248 1625 1323 1001 868 209 302 241 256
is_linear=0
shrinkage=0.0102


Tree=4
num_leaves=34
num_cat=0
split_feature=32 35 6 32 24 21 5 40 23 24 75 39 27 19 17 24 24 46 43 19 70 70 73 22 36 42 21 3 36 32 45 42 59
split_gain=37.6167 16.8471 16.6436 14.7041 13.5587 19.5158 13.0713 14.8555 12.6264 11.6549 21.8332 14.3543 18.6973 13.1847 10.9331 11.525 11.0537 10.875 11.2213 11.4465 8.84956 8.76026 9.57956 8.3794 8.22288 14.4102 12.7061 9.68277 7.59179 7.35486 8.36662 7.19679 6.86233
threshold=0.019743939861655239 0.40228617191314703 -0.094829596579074846 0.008161014877259733 -0.0415586270391941 0.0050807083025574693 -0.040753416717052453 -0.84437131881713856 0.0039865060243755588 0.0060648315120488414 5.4664466381073007 0.36781519651412969 -0.0078834788873791677 -0.0022199404193088408 0.029080819338560108 -0.056414239108562463 -0.095998480916023241 -0.06540821865200995 0.032728644087910659 0.0018014505039900543 0.6078576147556306 0.6078576147556306 0.24166666716337207 0.017613502219319347 0.20529361814260486 0.10028148069977762 0.011867807246744634 -0.026365442201495167 -0.036531919613480561 0.022438015788793567 0.87996441125869762 0.11772801727056505 -0.0027771649183705445
decision_type=2 2 2 2 2 2 2 2 2 2 2 2 2 2 2 2 2 2 2 2 2 2 2 2 2 2 2 2 2 2 2 2 2
left_child=3 4 -3 8 -2 6 7 -6 -1 11 13 12 -5 -11 15 16 -4 -13 -19 28 -9 22 -15 -21 26 -26 27 -17 -20 -29 31 -31 -14
right_child=1 2 14 9 5 -7 -8 20 -10 10 -12 17 32 21 -16 24 -18 18 19 23 -22 -23 -24 -25 25 -27 -28 29 -30 30 -32 -33 -34
leaf_value=-0.0092712328462778437 0.0071729714607958626 -0.0078859680458302616 -0.0024421581712621714 -0.0072980831568069081 -0.010629546620318822 0.012036854164456491 0.0044508724232675753 -0.0031620033364195685 0.0011201857293709834 0.0037760351126496917 0.0021139768224505118 -0.0085398338491576142 0.003475849322249468 0.002251471540616726 0.0064027027065620698 0.0049787677260706093 0.0079637841060413422 -0.0063088805308358416 0.0084991119702606983 -0.0069484004915511162 0.0067650714632113227 -0.0096942992415167718 -0.005584586634473406 0.0026846770645441408 0.0079172060931666129 -0.0043782307118244278 0.0058712553586628084 0.00028715835184534027 0.0010761086005034275 -0.0059819489092349139 0.0016882724577388501 0.001530098738560943 0.010633451817013048
leaf_weight=48.963056802749634 80.413500040769577 24.01364104449749 15.118823722004889 14.607827946543692 18.31584820151329 16.128558680415154 40.426502004265785 25.763076275587082 16.081596612930298 16.349245220422745 60.9421546459198 21.538520231842995 57.994679629802704 19.064885497093201 33.229260265827179 18.854401543736458 34.716311931610107 30.939010754227638 18.33589594066143 28.221569329500198 14.374149709939955 43.827561676502228 104.48363274335861 13.867434337735174 27.990535244345665 15.110674753785132 23.563751697540283 62.447552502155304 63.662538826465607 102.55670261383057 23.044547230005264 15.119679868221281 18.346539109945297
leaf_count=198 324 97 61 59 74 65 163 104 65 66 246 87 234 77 134 76 140 125 74 114 58 177 422 56 113 61 95 252 257 414 93 61 74
internal_value=-0.000291947 0.00151611 0.000305221 -0.00214381 0.00396476 0.00171139 3.57491e-06 -0.00307525 -0.00670505 -0.00156176 -0.00316963 -8.94123e-05 0.00319777 -0.00492327 0.000838895 0.0002887 0.0048076 -0.00178513 -0.000835414 0.000536899 0.000407321 -0.00577745 -0.00437265 -0.00377424 -0.000493971 0.00360358 -0.0012161 -0.00197376 0.00275525 -0.00262411 -0.00391533 -0.00501475 0.00522249
internal_weight=1168.41 591.188 395.766 577.226 195.422 115.008 98.8796 58.4531 65.0447 512.181 244.667 267.514 90.949 183.725 371.752 338.523 49.8351 176.565 155.026 124.087 40.1372 167.376 123.549 42.089 288.688 43.1012 245.587 222.023 81.9984 203.168 140.721 117.676 76.3412
internal_count=4716 2385 1597 2331 788 464 399 236 263 2068 988 1080 367 742 1500 1366 201 713 626 501 162 676 499 170 1165 174 991 896 331 820 568 475 308
is_linear=0
shrinkage=0.0102


Tree=5
num_leaves=34
num_cat=0
split_feature=67 40 57 4 26 50 17 11 26 77 15 35 41 21 15 17 48 55 5 38 21 74 5 5 48 14 67 21 41 39 50 67 59
split_gain=34.7571 25.6762 20.6884 17.375 16.6904 22.8493 16.5282 13.3341 19.3961 18.995 12.8702 12.1705 12.1438 11.2953 14.4327 11.6517 10.9738 9.31733 9.29565 9.24471 11.9309 8.34714 8.1165 7.71571 7.68947 10.9134 11.2064 10.3163 8.92309 8.71553 8.52072 7.93271 12.0319
threshold=0.015722112730145458 -0.30645023286342615 0.2454088777303696 0.011786367744207384 -0.013248512055724858 -0.78645828366279591 0.029080819338560108 -0.069639891386032091 -0.01195241045206785 6.3916249928297489e-05 -0.0043725664727389804 0.63344299793243419 -0.095717687159776674 0.0051627170760184535 -0.0098439878784120066 -0.017463658004999157 0.60143879055976879 0.044656964018940933 -0.00067336807842366387 0.30159793794155126 0.0013828083174303176 -2.3968170881271358 -0.026886355131864544 -0.012044220697134731 0.90118971467018139 0.013159307651221754 0.04511936008930207 0.00098664424149319551 0.64658793807029735 1.0122324824333193 0.44681704044342047 0.021300920285284523 -0.0092795519158244116
decision_type=2 2 2 2 2 2 2 2 2 2 2 2 2 2 2 2 2 2 2 2 2 2 2 2 2 2 2 2 2 2 2 2 2
left_child=3 4 6 12 -2 -6 7 10 9 17 -3 -5 18 15 -15 -7 -14 -9 -1 -17 22 -10 -21 -24 31 26 -26 28 -27 30 -29 -23 -33
right_child=1 2 -4 11 5 13 -8 8 21 -11 -12 -13 16 14 -16 19 -18 -19 -20 20 -22 24 23 -25 25 27 -28 29 -30 -31 -32 32 -34
leaf_value=-0.0062971497889027029 0.0068562918854143291 0.0015338259427223593 0.010988988926138022 0.0067504422250930949 -0.0071214035646506475 -0.0044859609486283935 0.0062365671856207889 0.0023270747080353115 0.0047780926244960055 -0.0033346366160646431 -0.010121319589248451 -0.0038388460359611788 -0.01204951222688499 0.014199534258721518 0.00039805097616095919 0.0074981790640957589 -0.0051527821460724899 0.011644543007812985 0.0014719881649191326 -0.00096126203936954349 -0.0042042078265052078 0.0028339925480092504 0.010015569549742106 0.0020639368834753464 -0.005174943645620985 -0.010588834541556657 0.0028124460436910461 0.0048445289976666462 6.6695773179492149e-05 0.0089034118835248383 -0.0040941713828699811 0.0036801096473933499 -0.003724855979893246
leaf_weight=28.456323176622391 83.192879393696785 14.123904645442961 15.372234389185904 23.277607545256615 27.72907979786396 26.752923741936684 31.75694665312767 18.850367844104767 20.337629914283752 23.30177429318428 31.907762512564659 21.53613406419754 37.077847674489021 18.122114136815071 13.881001219153402 33.456549465656281 69.520571857690811 27.777802228927612 36.136518001556396 28.250090762972832 28.993684008717537 59.436720997095108 24.054305538535118 27.016717657446861 168.87398642301559 14.358475700020788 20.333772331476212 20.80883401632309 18.572948753833771 15.854945406317709 23.277623325586319 30.981895178556442 84.963018789887428
leaf_count=115 335 57 62 94 112 108 128 76 82 94 129 87 150 73 56 135 281 112 146 114 117 240 97 109 682 58 82 84 75 64 94 125 343
internal_value=-0.000288968 0.000549009 -0.00061846 -0.00398092 0.00295054 0.00152139 -0.000907573 -0.00129198 -0.000847311 0.00416149 -0.00655213 0.00166492 -0.00545978 0.00272344 0.00825943 0.00166228 -0.00757213 0.00790817 -0.00195842 0.00282833 0.00137285 -0.00158217 0.0034187 0.00583764 -0.0018673 -0.00290943 -0.00431373 -4.3884e-05 -0.00461421 0.00247259 0.000125306 -0.000188978 -0.00174201
internal_weight=1168.34 952.34 640.891 216.005 311.449 228.256 625.518 593.761 547.73 69.9299 46.0317 44.8137 171.191 200.527 32.0031 168.524 106.598 46.6282 64.5928 141.771 108.315 477.8 79.3211 51.071 457.462 282.081 189.208 92.8728 32.9314 59.9414 44.0865 175.382 115.945
internal_count=4716 3843 2587 873 1256 921 2525 2397 2211 282 186 181 692 809 129 680 431 188 261 572 437 1929 320 206 1847 1139 764 375 133 242 178 708 468
is_linear=0
shrinkage=0.0102


Tree=6
num_leaves=34
num_cat=0
split_feature=15 24 66 56 59 56 35 13 45 56 6 24 25 6 61 72 24 38 6 59 61 77 24 57 57 47 73 37 27 33 4 75 19
split_gain=42.8677 16.2536 16.1858 22.1068 14.6278 14.611 12.8722 13.8714 12.5959 12.0423 14.3429 15.7258 11.6845 10.8761 11.9227 10.2536 10.5175 10.0997 11.2047 10.6269 10.3363 9.46852 8.89546 8.76961 8.56055 8.30533 8.46059 7.99791 7.68777 14.9491 12.8642 10.3384 7.91298
threshold=-0.0052232202142477027 -0.075891464948654161 0.010755679570138456 -30.828336715698239 -0.0096896882168948633 -13.166172504425047 0.26883624494075781 0.22500000149011615 0.15908522903919223 -33.50440597534179 0.02600126434117556 0.048903750255703933 0.023088907822966579 -0.011233572848141192 0.23432379215955737 0.92500001192092907 0.1028154417872429 0.56428831815719616 0.0998671129345894 0.015232808887958528 0.22431416809558871 2.7132499781146183e-05 0.0264175133779645 -0.0030705661047250028 -0.0030705661047250028 0.10153768584132196 0.77500000596046459 0.50984609127044689 -0.0030963061144575472 0.43580573797225958 -0.0045688576065003863 -0.40784297883510584 -0.00066433902247808863
decision_type=2 2 2 2 2 2 2 2 2 2 2 2 2 2 2 2 2 2 2 2 2 2 2 2 2 2 2 2 2 2 2 2 2
left_child=1 4 3 9 -1 21 8 -8 -3 10 24 22 13 14 -9 16 28 23 19 25 -20 -5 -12 -4 -2 26 -19 -25 32 31 -31 -30 -7
right_child=2 6 17 5 -6 15 7 12 -10 -11 11 -13 -14 -15 -16 -17 -18 18 20 -21 -22 -23 -24 27 -26 -27 -28 -29 29 30 -32 -33 -34
leaf_value=0.011861789335885711 0.0061646673082086491 0.0061970049213431579 0.0074682064181652618 -0.0036547115504624141 -0.00046606973210156855 -0.0034359610025689082 0.0071136744664421353 0.0099629447851736479 -0.0031408081968531277 0.0040340401641345445 -0.0048934035309936945 0.0022239871107307373 0.010527337546546301 -0.00082579060895097143 -0.00075881156901446822 0.004393533598302332 0.0049368533310417823 -0.0065316080849928933 0.0081408858348537803 0.00094952559961219236 -0.0016529992176573141 -0.01223300029940703 -0.014462867229697293 0.0043997467283058535 -0.00050006338810326418 -0.01181415689882454 0.0033777832954689476 -0.0043878325047694055 -0.0025492164345723429 0.0047735795653566053 -0.0053028607546871057 0.008016423786101538 -0.011353742101809035
leaf_weight=35.297370746731758 26.259876638650894 18.828160166740417 38.168015360832214 23.484433546662331 13.899832785129545 26.986555814743042 71.214817062020302 24.063764348626137 71.100879922509193 63.127080172300339 28.462725952267647 21.540523797273636 14.152523398399351 108.56005911529064 19.33803679049015 18.575085639953613 14.626065239310263 24.530161574482918 24.562165915966034 51.531030163168907 20.335010945796967 31.866355523467064 15.83607469499111 26.024709016084671 82.429723858833313 15.357757508754728 13.870947897434233 18.067690208554268 19.073194205760956 14.36034409701824 141.05787579715252 19.073472529649734 25.977335929870605
leaf_count=142 106 76 154 95 56 109 287 97 287 255 115 87 57 438 78 75 59 99 99 208 82 129 64 105 333 62 56 73 77 58 570 77 105
internal_value=9.39197e-05 0.00293433 -0.00123437 -0.00215551 0.00838951 -0.00384233 0.00210892 0.00335347 -0.00117439 0.000223652 -0.00115716 -0.00490638 0.00173363 0.000900202 0.00520288 -0.00288994 -0.00341162 0.00103466 -0.000538777 -0.0023579 0.00371566 -0.00862364 -0.00837017 0.00390271 0.00111807 -0.00552159 -0.00295032 0.000792435 -0.00391125 -0.00296215 -0.00436577 0.0027459 -0.00735175
internal_weight=1181.64 376.455 805.184 572.737 49.1972 335.081 327.258 237.329 89.929 237.656 174.529 65.8393 166.114 151.962 43.4018 279.73 261.155 232.447 150.187 105.29 44.8972 55.3508 44.2988 82.2604 108.69 53.7589 38.4011 44.0924 246.529 193.565 155.418 38.1467 52.9639
internal_count=4770 1518 3252 2314 198 1354 1320 957 363 960 705 266 670 613 175 1130 1055 938 606 425 181 224 179 332 439 217 155 178 996 782 628 154 214
is_linear=0
shrinkage=0.0102


Tree=7
num_leaves=34
num_cat=0
split_feature=31 32 50 48 13 52 13 16 4 73 31 32 70 16 40 21 77 26 73 24 20 37 54 1 76 23 67 2 24 24 31 25 70
split_gain=34.4757 18.8839 17.6178 27.9971 14.5734 13.095 11.7672 11.5329 11.6728 11.312 10.9519 10.2962 9.73517 9.66873 9.1835 9.1034 11.5543 9.0633 9.05695 9.05532 20.0256 15.1585 8.30722 8.22826 8.71687 8.13843 10.111 7.96118 8.82919 12.8373 8.68473 7.8273 7.27822
threshold=0.022151906043291095 0.0059041462372988471 0.18217647075653079 1.0538237094879153 0.65416666865348827 0.50356566905975353 0.77500000596046459 -0.010584864299744366 -0.046420743688940995 0.29166667163372045 0.029881593771278862 0.030133966356515888 -1.0000000180025095e-35 -0.0231023421511054 0.35632079839706426 -0.010921979788690804 0.00010644562644301915 0.012652201112359764 0.058333335444331176 0.048903750255703933 0.064680770039558425 0.6635834574699403 0.051377622410655029 0.0037499016616493468 9.1450001491466554e-06 -0.021290614269673821 0.026309804059565071 0.030255139805376533 0.025201513431966308 -0.034553794190287583 0.028863333165645603 -0.0058927747886627904 -1.0000000180025095e-35
decision_type=2 2 2 2 2 2 2 2 2 2 2 2 2 2 2 2 2 2 2 2 2 2 2 2 2 2 2 2 2 2 2 2 2
left_child=1 -1 7 10 5 23 -5 8 15 11 -4 -9 -12 -10 25 -2 18 -8 -17 22 -21 -22 32 24 -3 -7 -27 28 29 30 -11 -15 -6
right_child=2 4 3 6 19 14 17 9 13 27 12 -13 -14 31 -16 16 -18 -19 -20 20 21 -23 -24 -25 -26 26 -28 -29 -30 -31 -32 -33 -34
leaf_value=-0.010334296327111582 0.010483048962130634 0.0046052379310872393 -0.0086276436428685717 -0.0029861891587390529 -0.0023225366291204936 -0.0016464274092232336 0.014182521446178107 0.0013509642956525394 0.014021853894217456 0.0087713196864851635 0.0041457066584619376 -0.0076671763584315825 -0.0067502521987562319 0.010319196349068202 -0.0025642553174062633 -0.0046615580403118568 0.0092079321316248103 0.0036378069007981153 0.0031422118694699568 0.0067582722538767929 -0.009222871491182465 0.00080631833032893552 0.0021449167761990193 -0.0052690421948636927 -0.0012792715961552526 0.0035729848511543171 0.01192482853751666 0.007602940670097519 0.0052291389172822072 -0.0054000411875119716 -0.00055546736366282471 0.0012345132881990887 -0.0064705259806856191
leaf_weight=23.425677269697189 14.424540087580679 31.190991029143333 40.885140851140022 14.371383056044577 78.169990882277489 21.565499782562256 14.141304016113279 32.688799664378166 23.110319674015045 17.359238892793655 18.614041432738304 21.769394651055336 15.383305624127386 19.124671742320061 27.471227064728737 27.535907685756683 16.636381655931473 21.338931754231453 34.754048183560371 29.713225409388542 26.479626059532166 37.877017855644226 20.565966382622719 42.321046441793442 157.44580098986626 74.324663400650024 18.854309320449829 32.481765732169151 49.827536940574646 30.214525148272514 25.289488434791565 20.348587155342102 101.90236267447472
leaf_count=95 58 126 165 58 316 87 57 132 93 70 75 88 62 77 111 111 67 86 140 120 107 153 83 171 636 300 76 131 201 122 102 82 412
internal_value=9.29765e-05 -0.00137405 0.00216138 -0.00114651 -0.00105638 0.000282423 0.00476277 0.00329039 0.00538984 0.00172423 -0.00508443 -0.00226781 -0.000792574 0.00879392 0.00271538 0.00309153 0.00171442 0.00790385 -0.000309824 -0.00275101 -0.00013778 -0.00333534 -0.0039742 -0.00121633 -0.000301528 0.00398282 0.0052877 0.0031272 0.00193012 -0.000333062 0.00326299 0.00567094 -0.00467542
internal_weight=1181.61 691.307 490.299 124.734 667.882 373.174 49.8516 365.565 155.934 209.631 74.8825 54.4582 33.9973 62.5836 142.216 93.3509 78.9263 35.4802 62.29 294.708 94.0699 64.3566 200.638 230.958 188.637 114.744 93.179 155.173 122.691 72.8633 42.6487 39.4733 180.072
internal_count=4770 2793 1977 503 2698 1507 201 1474 628 846 302 220 137 252 574 376 318 143 251 1191 380 260 811 933 762 463 376 626 495 294 172 159 728
is_linear=0
shrinkage=0.0102


Tree=8
num_leaves=34
num_cat=0
split_feature=31 32 16 11 9 66 48 24 21 25 24 54 73 24 21 31 21 5 37 44 27 48 54 11 73 21 75 71 21 33 76 33 54
split_gain=33.7803 18.5326 15.0231 16.7463 13.9366 11.9 11.5518 11.4701 11.6601 11.6287 11.3959 10.5753 10.4756 16.7232 14.2497 12.429 10.3417 9.55391 9.2803 9.15764 21.2044 14.3301 11.6241 11.3381 14.3546 9.87541 9.04034 8.94981 18.0887 8.62829 8.43678 8.51966 8.25692
threshold=0.022151906043291095 0.0059041462372988471 -0.010584864299744366 -0.073430947959423051 -0.0082373935729265196 0.0026889924192801122 0.86869391798973095 -0.075891464948654161 0.0066378135234117517 -0.035238077864050858 0.0051432694308459767 -0.069049999117851243 0.94166666269302379 -0.034553794190287583 -0.00025530626589898015 0.033152600750327117 0.0068710027262568482 0.027625568211078647 0.55897450447082531 0.64000606536865245 -0.0046117147430777541 0.91070571541786205 0.033019313588738448 -0.017727250233292576 0.4083333313465119 0.0068710027262568482 -0.22091214358806607 -0.56174489110708226 0.0029022740200161938 0.4679666012525559 0.00018412499775877225 0.57886096835136425 -0.043220566585659974
decision_type=2 2 2 2 2 2 2 2 2 2 2 2 2 2 2 2 2 2 2 2 2 2 2 2 2 2 2 2 2 2 2 2 2
left_child=1 -1 7 18 5 -3 -7 9 32 -2 -8 -6 13 17 -14 27 -16 -5 -4 20 -13 -21 -22 -23 -25 26 -26 28 -15 -29 31 -31 -9
right_child=2 4 3 12 11 6 10 8 -10 -11 -12 19 14 15 16 -17 -18 -19 -20 21 22 23 -24 24 25 -27 -28 29 -30 30 -32 -33 -34
leaf_value=-0.01024239177400337 0.0047760050302691386 -0.0074886375663509412 -0.0010968904483168039 0.0075420516997998684 -0.010280961812093507 0.0060488964590357666 0.003025303065396793 -0.0033892067433786153 0.010033643523226913 0.015597683516162914 -0.0029979786075095471 -0.013115336306533226 -0.00069292025674378734 -0.0067965940317508897 0.01520059940458519 0.00498227288764168 0.003443443384256656 -0.0012788874929562778 -0.011332432727639246 0.0023731691616285101 -0.0035619322846623721 0.0046849560975611246 0.0053584738431990808 -0.0094215154191797275 0.0045974326620138771 0.0058987403929311065 -0.0035106628852701618 -0.010847418710184065 0.0061073805912395824 0.0019065049977525733 0.0037916559589823719 -0.0075018709975139247 0.0031854207809426803
leaf_weight=23.396862030029297 26.869836255908012 14.856229349970816 21.038660615682602 45.65323181450367 15.319968104362486 51.063684865832329 73.14127442240715 25.294738471508026 20.637763395905495 16.925479426980019 58.716716691851616 21.740567579865456 21.56258536875248 18.319408535957336 17.614411875605587 28.283092394471169 14.150961920619009 17.599327936768532 16.29695700109005 102.23492023348808 96.439704775810242 21.803685590624809 17.828109502792358 30.659952431917191 15.833353251218794 15.352339848875998 132.80998378992081 17.340676501393318 28.750520080327988 13.874001473188398 15.371315658092497 34.933822184801102 89.854868873953819
leaf_count=95 108 60 85 184 62 206 295 102 83 68 237 88 87 74 71 114 57 71 66 413 390 88 72 124 64 62 537 70 116 56 62 141 362
internal_value=9.21055e-05 -0.0013603 0.00213926 0.000780582 -0.00104574 0.00122454 0.00194077 0.00448623 0.00301229 0.00901654 0.000341726 -0.00200141 0.00165684 0.000671325 0.00570366 -0.00111405 0.0100249 0.00508986 -0.00560702 -0.00171748 -0.00393138 -0.000770287 -0.00216172 -0.00225637 -0.00303878 -0.00183403 -0.00264083 -0.0024619 0.0010747 -0.00450282 -0.00275632 -0.00482846 0.00173656
internal_weight=1181.57 691.197 490.372 310.789 667.8 197.778 182.922 179.583 135.787 43.7953 131.858 470.023 273.453 220.125 53.328 156.873 31.7654 63.2526 37.3356 454.703 136.008 318.694 114.268 216.459 194.656 163.996 148.643 128.59 47.0699 81.5198 64.1791 48.8078 115.15
internal_count=4770 2793 1977 1254 2698 798 738 723 547 176 532 1900 1103 888 215 633 128 255 151 1838 550 1288 462 875 787 663 601 519 190 329 259 197 464
is_linear=0
shrinkage=0.0102


Tree=9
num_leaves=34
num_cat=0
split_feature=15 32 19 57 31 56 27 50 47 75 56 52 22 13 56 12 15 14 73 44 43 17 75 72 47 14 22 39 75 4 73 56 42
split_gain=43.6121 23.2802 19.5565 18.3002 13.5606 16.2782 13.5424 21.7088 12.8485 12.7615 16.8081 16.6068 13.6375 12.6018 11.9485 13.1009 11.7101 11.701 10.3301 10.1134 12.0217 15.5311 15.8067 11.6366 10.0867 16.4652 11.3512 11.7799 9.91521 9.50655 8.48158 7.94697 7.75653
threshold=-0.0053539418149739495 0.0073791255708783874 -0.013218963053077458 0.2454088777303696 0.022259727120399479 -31.54736232757568 0.0062665813602507123 0.12827895581722262 0.069785106927156462 1.2439674139022829 -33.50440597534179 0.5302204191684724 -0.0091201979666948301 0.89166665077209484 -40.232498168945305 -12.614999771118162 0.012026892974972727 0.0076554308179765948 0.60833334922790538 0.5367884933948518 0.088469926267862334 -0.013117471244186161 -2.3372982740402217 0.075000002980232253 0.025011026300489906 -0.0057776868343353263 0.0034046396613121037 0.57511281967163097 5.102339744567872 0.038091823458671577 0.39166666567325598 -29.625921249389645 0.12778551876544955
decision_type=2 2 2 2 2 2 2 2 2 2 2 2 2 2 2 2 2 2 2 2 2 2 2 2 2 2 2 2 2 2 2 2 2
left_child=19 18 -3 4 5 9 7 16 -8 12 11 -11 -4 -12 -14 -16 -6 -15 -2 31 21 -21 23 -23 -7 -26 30 -28 -29 -10 -27 -1 -22
right_child=1 2 3 -5 6 24 8 -9 29 10 13 -13 14 17 15 -17 -18 -19 -20 20 32 22 -24 -25 25 26 27 28 -30 -31 -32 -33 -34
leaf_value=0.0036614128366910881 -0.012499666404433146 -0.0083180874010553955 -0.0038021380085825371 0.009813261339287534 0.0039118090183663254 -0.0071727538786238625 0.011869177587166324 -0.0076464150729161151 -0.0030063343754759336 -0.0068056344673383751 -0.0037742711109554671 0.0044307509670531917 0.011964347490951347 0.013706902743689818 -0.0050106735413423713 0.0063013648582724109 -0.0052473396344763909 0.00054473225271629898 -0.0025582257822287001 -0.0019429608351596308 0.0096251724016063536 -1.0587896488893641e-05 0.0012863328230374826 0.010148745753498792 0.0070912605570308289 -0.0045167634556159001 0.001060124249770299 -0.009584694783702467 -0.0024133616218751089 0.0038767394040291245 0.0046468728466026801 -0.0053135877274183268 0.0037155312910594931
leaf_weight=16.363018721342087 27.339223071932793 36.558243870735168 22.784897863864899 16.636973515152931 58.520029917359352 66.99273207783699 15.879681617021559 39.140268355607986 28.008505821228027 69.985172912478447 17.322992101311684 16.826450332999229 19.571112081408501 14.114802435040476 15.848636567592619 31.455607116222382 19.082988947629929 13.862665772438048 18.241065844893456 69.403983995318413 42.740369737148285 15.354537755250929 101.90937224030495 49.158406436443329 16.594549149274826 17.563487440347672 23.986624732613564 55.602077260613441 31.673219799995422 80.126792177557945 25.481931984424591 26.766775116324425 51.198830470442772
leaf_count=66 111 148 92 67 236 271 64 158 113 283 70 68 79 57 64 127 77 56 74 280 172 62 411 198 67 71 97 225 128 323 103 108 206
internal_value=-0.000148459 -0.00149245 -0.00106287 -0.000690434 -0.00094302 -0.00196992 0.00101712 -0.00147426 0.00336184 1.79869e-05 -0.00199603 -0.00462083 0.00298457 0.00302951 0.00530334 0.00250346 0.00164977 0.00724304 -0.00855431 0.00273092 0.00333839 0.00210511 0.00379433 0.00773694 -0.00382195 -0.00250042 -0.0035411 -0.00525928 -0.00699577 0.00209043 0.000901359 -0.00190461 0.00642134
internal_weight=1172.1 799.201 753.62 717.062 700.425 459.667 240.758 116.743 124.015 221.772 132.112 86.8116 89.6603 45.3005 66.8754 47.3042 77.603 27.9775 45.5803 372.895 329.766 235.826 166.422 64.5129 237.895 170.902 154.307 111.262 87.2753 108.135 43.0454 43.1298 93.9392
internal_count=4732 3229 3044 2896 2829 1858 971 471 500 896 534 351 362 183 270 191 313 113 185 1503 1329 951 671 260 962 691 624 450 353 436 174 174 378
is_linear=0
shrinkage=0.0102


Tree=10
num_leaves=34
num_cat=0
split_feature=15 11 26 47 14 24 37 28 59 45 5 35 56 23 5 43 26 47 55 73 3 56 43 20 56 5 34 58 22 39 47 39 24
split_gain=42.728 21.2437 21.9673 19.9399 11.5448 11.0063 13.1044 10.464 10.4176 10.0049 9.77975 10.8802 9.72743 9.55231 10.1895 10.5368 8.80607 11.9292 8.64792 14.1646 9.07457 8.42827 23.9591 15.3943 11.9664 9.15135 10.4675 10.2093 8.34151 16.6466 14.6276 11.301 8.05409
threshold=-0.0053539418149739495 -0.083174929022788988 -0.014947815798223017 0.085750762373209014 -0.0059479451738297931 -0.034553794190287583 0.20378713309764865 5.8495256900787362 -0.039598656818270676 0.78024321794509899 -0.0018256268231198189 0.26883624494075781 -0.29352763295173639 0.010647808201611044 -0.0064161214977502814 0.041441671550273902 0.0016574304900132122 0.030192537233233455 0.038759825751185424 0.10833333432674409 -0.039592128247022622 -30.828336715698239 0.038263792172074325 0.015705143101513389 -13.763401031494139 0.0027195891598239545 0.13385664671659472 0.15000000223517421 0.05997834540903569 0.8878488838672639 0.099342048168182387 0.9068814516067506 0.052209487184882171
decision_type=2 2 2 2 2 2 2 2 2 2 2 2 2 2 2 2 2 2 2 2 2 2 2 2 2 2 2 2 2 2 2 2 2
left_child=5 -2 -3 4 16 18 8 10 -7 21 11 -8 28 14 -11 -16 -4 -18 20 -20 -1 22 23 -6 -23 26 -26 -27 30 -30 31 -5 -12
right_child=1 2 3 12 9 6 7 -9 -10 13 32 -13 -14 -15 15 -17 17 -19 19 -21 -22 24 -24 -25 25 27 -28 -29 29 -31 -32 -33 -34
leaf_value=0.0065004255886474197 -0.0094243498245248185 0.0042579872656670461 0.0047571103888270948 -0.00020169698022425684 -0.001574107311076485 -0.0094634176474343371 5.1059734738049753e-05 -0.0058503848291654717 0.0010676783764225959 -0.0049410225015723503 -0.0024154754890857123 0.0065169889140472819 0.0069941496935306234 -0.0058443916964694611 -0.0014640147534037576 0.0071889361510059325 -0.0097086850832054424 0.0017598609688321977 0.0023873407355072475 0.011041597093416221 -0.0038296743629935145 -0.010308549674315253 -0.0046289584407657753 0.011424682030057238 0.0020486112852944171 -0.0077129205023467838 -0.0062476043782431238 0.0011898168990639602 0.012846769578301814 -0.002567372222654902 -0.00389555340081211 0.011050911754150768 0.0048589278145375007
leaf_weight=16.669391199946404 33.323286727070808 71.204099431633949 35.194142252206802 25.505506560206413 19.294924661517143 18.299688294529915 37.650756746530533 14.380005985498427 20.579893380403519 20.296702951192856 47.087268859148026 96.544779926538467 27.082478016614914 25.960428044199944 25.931827828288078 33.17529521882534 14.103362455964087 27.493473321199417 35.787598684430122 44.009436845779419 18.373007580637932 41.626149475574493 110.10327482223511 18.306049197912216 39.790423259139061 78.314977437257767 25.962724909186363 16.068940386176109 14.397388458251955 14.406456142663954 67.137716352939606 14.362570062279699 23.589159339666367
leaf_count=67 135 287 142 103 78 74 152 58 83 82 190 389 109 105 105 134 57 111 144 177 74 169 445 74 161 317 105 65 58 58 271 58 95
internal_value=-0.000146941 -0.00147756 -0.00112902 -0.00168263 -0.00263915 0.00270263 0.001531 0.00249939 -0.00391082 -0.00325662 0.00309154 0.00470671 0.00143778 -0.000498974 0.00125825 0.00339914 0.00101547 -0.00215563 0.0053274 0.00717858 0.00109063 -0.0040869 -0.00222943 0.0047802 -0.00544231 -0.00416455 -0.00123507 -0.00619673 0.000319615 0.00517129 -0.000993013 0.00388664 1.81682e-05
internal_weight=1172.01 799.042 765.719 694.515 531.623 372.971 258.132 219.252 38.8796 454.832 204.872 134.196 162.892 105.364 79.4038 59.1071 76.791 41.5968 114.839 79.797 35.0424 349.467 147.704 37.601 201.763 160.137 65.7531 94.3839 135.81 28.8038 107.006 39.8681 70.6764
internal_count=4732 3229 3094 2807 2150 1503 1041 884 157 1840 826 541 657 426 321 239 310 168 462 321 141 1414 597 152 817 648 266 382 548 116 432 161 285
is_linear=0
shrinkage=0.0102


Tree=11
num_leaves=34
num_cat=0
split_feature=15 32 11 32 77 42 46 72 77 75 20 43 72 26 45 26 5 5 5 46 10 38 40 77 34 20 19 1 48 25 48 54 71
split_gain=41.8612 22.5703 23.2062 19.5024 16.7168 14.0346 10.9593 13.8443 13.2397 10.4984 13.3071 11.5042 10.0912 14.5449 13.4316 9.91754 11.4859 16.5542 9.69742 14.6964 9.14228 8.90121 12.6881 10.9238 9.34916 9.03263 14.1873 8.57095 14.2428 8.56577 8.53839 8.02362 7.80433
threshold=-0.0053539418149739495 0.0073791255708783874 -0.083174929022788988 0.025666696019470695 2.6492500182939697e-05 0.082165628671646132 -0.048918195068836205 0.70833331346511852 0.00010302625014446677 5.5676124095916757 -0.041703080758452409 0.067263349890708937 0.32500000298023229 0.0028397083515301351 0.78024321794509899 -0.012255663983523844 -0.067697063088417039 -0.090286530554294572 -0.0064161214977502814 -0.023311557248234745 0.0018383328570052984 0.23988056182861331 -0.41605868935585016 0.00014509812172036621 0.019727305509150032 0.044217048212885864 -0.00060814464814029623 0.012324925977736713 0.90118971467018139 -0.018824329599738118 1.2558612227439883 -0.035733969882130616 -0.56174489110708226
decision_type=2 2 2 2 2 2 2 2 2 2 2 2 2 2 2 2 2 2 2 2 2 2 2 2 2 2 2 2 2 2 2 2 2
left_child=15 -2 -3 5 32 9 20 8 -8 10 11 -4 13 -12 31 29 17 -17 -16 -20 -6 -18 23 24 -23 26 -24 28 -11 -1 -9 -14 -5
right_child=1 2 3 4 6 -7 7 30 -10 27 12 -13 14 -15 18 16 21 -19 19 -21 -22 22 25 -25 -26 -27 -28 -29 -30 -31 -32 -33 -34
leaf_value=0.0040454363443879413 -0.0084228080300475933 -0.0093387976315619202 -0.0020260136443620543 0.0030824871414312253 -4.7624644268723891e-05 -0.007230383967577839 -0.012171517119227043 0.005258821666411285 0.00048203842021844111 0.0089988328196166263 0.0076980894657234702 0.0086102017023002853 -0.0087191713180049101 -0.002321314139667316 -0.0061085790044638011 0.0040935363425363674 -0.0045098000001652806 -0.0096104317812316827 0.011360105028086183 -0.00032905182033280084 0.011065929975835963 0.0019026441825174881 0.0037686876074870565 0.012711628855736673 0.0088180455256016907 0.0053745700170855729 -0.0053160392430353651 -0.0027651056741026521 -0.00066515295912387788 0.01201086041342651 -0.0026893950809271923 -0.0034559107289379456 0.012898833184416831
leaf_weight=87.788681894540787 45.496850520372391 33.287695944309235 19.585022658109665 14.886017397046087 14.144665703177454 41.574699953198433 17.831453964114189 34.251092374324799 16.378163158893585 31.232110381126404 23.537535220384598 22.589800044894218 35.06363932788372 41.04828442633152 16.571196034550667 16.100423023104668 17.346064388751984 20.784452214837074 14.865595787763594 43.270901814103127 16.631180822849274 67.484323263168335 30.75442761182785 17.638538137078285 29.046285703778267 27.30916129052639 42.123696401715279 26.488434463739395 31.927533611655235 16.662999704480171 23.556084290146828 214.81725190579891 19.851183712482452
leaf_count=353 185 135 79 60 57 168 72 138 66 126 95 91 142 166 67 65 70 84 60 175 67 272 124 71 117 110 170 107 129 67 95 869 80
internal_value=-0.00014546 -0.00146281 -0.00104006 -0.000653612 0.00251603 -0.00154199 0.000742109 -0.00102149 -0.0061449 -0.00108506 -0.00174527 0.00368299 -0.00233554 0.00134175 -0.00306799 0.00267463 0.0016345 -0.00363637 0.000723866 0.00268868 0.0059894 0.00247666 0.0030465 0.00536795 0.00399965 0.000394105 -0.0014809 0.00208691 0.00412609 0.00533928 0.00202 -0.00420177 0.00874029
internal_weight=1171.93 798.886 753.39 720.102 157.53 562.572 122.793 92.0168 34.2096 520.997 431.349 42.1748 389.174 64.5858 324.589 373.039 268.587 36.8849 74.7077 58.1365 30.7758 231.702 214.356 114.169 96.5306 100.187 72.8781 89.6481 63.1596 104.452 57.8072 249.881 34.7372
internal_count=4732 3229 3044 2909 635 2274 495 371 138 2106 1744 170 1574 261 1313 1503 1083 149 302 235 124 934 864 460 389 404 294 362 255 420 233 1011 140
is_linear=0
shrinkage=0.0102


Tree=12
num_leaves=34
num_cat=0
split_feature=19 44 31 41 75 21 72 17 20 72 73 77 67 56 70 26 3 72 26 26 20 18 50 31 56 52 75 20 17 51 17 10 38
split_gain=35.7592 26.397 19.6653 18.9818 13.4239 14.9386 12.8274 12.3395 11.5985 10.998 11.4645 13.3893 16.4496 11.2162 11.1937 10.7118 10.6402 12.519 10.357 11.4653 21.1494 10.1759 10.1303 10.0142 10.0113 9.79544 12.4302 16.8914 11.2151 9.64502 12.1013 8.61493 8.54418
threshold=-0.0010340134613215921 0.59949675202369701 0.021889824420213703 0.082638479769229903 5.3807902336120614 -0.0017679093289189038 0.60833334922790538 0.0065161457750946292 0.0303792292252183 0.94166666269302379 0.4083333313465119 1.3909375411458315e-05 0.02387721557170153 -6.2376077175140372 -1.0000000180025095e-35 -0.0028867993969470258 -0.024825660511851307 0.94166666269302379 -0.00021382710110628975 0.013533283956348898 0.062024222686886794 -0.010065190028399227 0.64040529727935802 0.017186703160405162 -35.301567077636712 0.5104825794696809 -4.6129488945007315 -0.010081394109874962 -0.024291588924825188 -0.40000001341104502 0.011575249023735525 -0.009795509744435547 0.72160175442695629
decision_type=2 2 2 2 2 2 2 2 2 2 2 2 2 2 2 2 2 2 2 2 2 2 2 2 2 2 2 2 2 2 2 2 2
left_child=1 3 4 -1 5 7 32 23 9 10 11 14 -13 24 -3 -7 -4 29 -17 -20 -21 -5 -8 -2 -12 26 28 -28 -14 30 -18 -15 -6
right_child=2 8 16 21 6 15 22 -9 -10 -11 13 12 25 31 -16 18 17 -19 19 20 -22 -23 -24 -25 -26 -27 27 -29 -30 -31 -32 -33 -34
leaf_value=0.0019624870268252822 5.2205943465848516e-05 0.00027902946920267972 0.0052150549752087447 -0.010803324757335919 0.010331061752552814 -0.013292549767639616 -0.0054379893341098013 -0.0073638821808896873 0.011644099923360109 -0.0047023009134518744 0.0022309673553423015 -0.0032120842773630956 0.011083253865006385 0.0069759614115786099 0.010787341818417407 0.001627703890019564 -0.0021116994017762445 0.0063066269051597684 -0.0062011866243008367 0.0093690273616429901 -0.0060242103450769361 -0.0020824473688596393 0.0036924562789876496 0.010124446335602454 0.01194965974297197 0.0076837121747163652 -0.0060435912564054412 0.0069056568881489411 0.0016730714324587812 -0.0022340456400160484 0.010935814205827619 -0.0040519450562392706 -0.00010143648485258206
leaf_weight=52.97917765378952 36.334394678473473 16.105665728449821 43.26445859670639 28.403709843754768 17.845610529184341 15.032158941030501 37.591286674141884 15.815272659063337 16.36434830725193 18.542304515838623 15.400116130709646 62.901633620262146 18.892027035355568 14.424396678805353 30.531824022531509 25.933918476104736 15.373821035027506 25.83214907348156 188.20452903211117 14.860963135957716 23.966047435998917 27.427017077803612 18.798071190714836 14.115961119532583 39.962526947259903 35.258224591612816 35.447688534855843 14.634199753403662 42.899298995733261 158.41864283382893 13.913882896304129 14.631216943264006 14.863451927900313
leaf_count=214 147 65 174 115 72 61 152 64 66 75 62 254 76 58 123 105 62 104 762 60 97 111 76 57 161 142 143 59 173 639 56 59 60
internal_value=-0.000102078 0.00201401 -0.00161071 -0.00240628 -0.00296102 -0.00389826 0.0005548 0.000435543 0.00329416 0.00290717 0.00332388 0.00224735 0.00114557 0.00658163 0.00717881 -0.00496978 0.000615551 -0.000320099 -0.0044639 -0.00516114 -0.000110386 -0.00654562 -0.00238973 0.00290365 0.00926738 0.00301131 0.00152581 -0.00224412 0.00458041 -0.00123885 0.00411738 0.00142979 0.0056171
internal_weight=1164.97 484.805 680.165 108.81 423.362 334.263 89.0984 66.2656 375.995 359.631 341.089 256.671 210.033 84.4183 46.6375 267.998 256.803 213.538 252.965 227.032 38.827 55.8307 56.3894 50.4504 55.3626 147.131 111.873 50.0819 61.7913 187.706 29.2877 29.0556 32.7091
internal_count=4704 1956 2748 440 1713 1353 360 268 1516 1450 1375 1035 847 340 188 1085 1035 861 1024 919 157 226 228 204 223 593 451 202 249 757 118 117 132
is_linear=0
shrinkage=0.0102


Tree=13
num_leaves=34
num_cat=0
split_feature=15 43 74 70 75 35 33 62 42 59 31 12 66 35 56 75 43 75 45 21 41 44 57 75 14 1 52 24 12 56 56 20 20
split_gain=33.0277 17.0774 13.7293 13.7262 17.4699 13.3865 13.1191 12.4627 11.7749 15.6043 10.5118 10.098 8.22592 8.17799 8.15343 10.6557 14.3872 14.2612 12.5292 10.8755 10.5836 11.3016 9.8936 9.46018 11.221 15.299 11.1123 10.201 9.2019 8.28935 18.4492 11.4022 8.73487
threshold=-0.0085834097117185575 0.030008081346750263 -1.5441741347312925 0.6078576147556306 -4.5347266197204581 0.29781651496887213 0.39020016789436346 0.44061577320098883 0.11772801727056505 0.022518199868500236 0.026699828915297989 -87.284999847412095 0.013881844002753498 0.31243678927421575 -0.29352763295173639 1.198907256126404 0.038263792172074325 -4.0583040714263907 0.79321980476379406 0.0015953974798321726 -0.055514171719551079 0.70215240120887767 0.026766175404191021 6.3336129188537607 -0.0071282153949141494 0.0077686877921223649 0.50424078106880199 0.058310190215706832 -14.52999973297119 -6.4323322772979727 -7.0368795394897452 -0.054740386083722108 0.033342992886900909
decision_type=2 2 2 2 2 2 2 2 2 2 2 2 2 2 2 2 2 2 2 2 2 2 2 2 2 2 2 2 2 2 2 2 2
left_child=3 2 -2 4 13 -6 10 -5 14 -10 11 -7 -8 -1 15 17 19 20 22 -17 -3 -22 29 24 -18 -26 -25 -28 -16 30 31 -19 -33
right_child=1 8 -4 7 5 6 12 -9 9 -11 -12 -13 -14 -15 28 16 23 18 -20 -21 21 -23 -24 26 25 -27 27 -29 -30 -31 -32 32 -34
leaf_value=0.0036457965917522967 0.0017498016535923845 0.0027013055299755268 -0.0079048073490055049 0.0085700419070488185 -0.0072142519577478269 -0.0062542903510055857 4.5916469911104249e-05 0.00011477429109362149 0.00013744932326539272 0.010933470149561428 0.0090322073628135349 0.0051562499966338968 -0.008706167911086719 0.012114562756428939 0.0097582963762511722 -0.0018746011018922284 0.0013912529542867503 0.00771997382975439 0.0059535545839848672 0.007693135385895669 -0.011497013613343937 -0.0011795323018142755 -0.0077464696269451813 0.004396346000310177 -0.0074408979412283801 -0.0017807503524502858 0.0019637777806802564 -0.0077063021730913797 -0.00040968618811267163 -0.0033067533472355016 0.012609353741715731 -0.0015993323739676294 0.0063693556548144788
leaf_weight=56.878973960876465 20.240473195910454 16.121089920401573 61.783543929457664 64.083402439951897 26.76184518635273 13.900130957365034 31.279336154460907 25.309724435210228 44.35310360789299 20.109961047768593 25.156564831733704 18.622309282422066 17.142164796590805 14.929362267255781 14.894229978322981 25.937885940074921 31.471660166978836 20.136813580989838 45.853376239538193 23.258151113986969 24.635250434279442 20.030477106571198 15.33268181979656 32.215737193822861 122.01557020843029 84.101405009627342 20.303728431463242 25.275467857718468 23.825045719742775 42.081883698701859 14.610706672072409 105.90620362758636 16.326405733823776
leaf_count=229 82 65 251 258 108 56 126 102 179 81 101 75 69 60 60 105 127 81 185 94 100 81 62 130 494 340 82 102 96 170 59 428 66
internal_value=-0.000100948 -0.00109914 -0.00552265 0.00285327 0.00139326 -0.000797701 0.000830954 0.00618342 -0.000637629 0.00353229 0.00411112 0.00026679 -0.00307485 0.00543897 -0.00100983 -0.00126746 -0.00246018 8.74189e-05 0.00112742 0.0026601 -0.00435156 -0.00690046 8.97732e-05 -0.00326052 -0.00427061 -0.00513622 -0.000170917 -0.00340711 0.0035309 0.000701633 0.00177995 0.000650462 -0.000524721
internal_weight=1164.88 870.821 82.024 294.064 204.671 132.862 106.101 89.3931 788.797 64.4631 57.679 32.5224 48.4215 71.8083 724.334 685.614 364.58 321.035 260.248 49.196 60.7868 44.6657 214.395 315.384 237.589 206.117 77.7949 45.5792 38.7193 199.062 156.98 142.369 122.233
internal_count=4704 3520 333 1184 824 535 427 360 3187 260 232 131 195 289 2927 2771 1474 1297 1051 199 246 181 866 1275 961 834 314 184 156 804 634 575 494
is_linear=0
shrinkage=0.0102


Tree=14
num_leaves=34
num_cat=0
split_feature=15 43 74 20 35 75 47 47 28 36 56 48 33 43 62 51 55 11 25 75 75 50 36 43 56 75 25 12 46 52 31 55 41
split_gain=32.3562 16.7476 13.4716 13.4483 11.1303 17.3236 13.5403 14.782 12.5391 11.074 12.254 11.0291 10.326 9.79858 9.67272 9.34519 9.33869 8.58163 14.3117 12.7907 11.805 10.5105 14.2037 10.9759 16.3829 12.1945 15.3408 13.2948 11.3635 10.3746 9.65464 8.94171 9.4005
threshold=-0.0085834097117185575 0.030008081346750263 -1.5441741347312925 -0.091543380171060548 0.27994024753570562 -0.90672150254249562 0.026280400343239311 0.0649741366505623 4.2185533046722421 0.20840504020452502 -4.950187921524047 1.2610133886337282 0.32935209572315222 0.074160318821668639 0.17290222644805911 -0.40000001341104502 0.040014095604419715 -0.092653553932905183 -0.0011292673880234359 -3.3112347126007076 6.3336129188537607 -0.59031417965888966 -0.21700260788202283 0.038263792172074325 -9.3424782752990705 1.8340605497360232 0.010376884136348965 85.805000305175795 -0.015593249350786207 0.52691593766212474 0.025004182942211631 0.04248862341046334 -0.0058494992554187766
decision_type=2 2 2 2 2 2 2 2 2 2 2 2 2 2 2 2 2 2 2 2 2 2 2 2 2 2 2 2 2 2 2 2 2
left_child=3 2 -2 16 13 8 -7 -8 11 10 17 12 -6 14 -5 -12 -1 -3 19 -19 21 -20 -23 24 28 26 -25 -27 -24 30 -22 32 -21
right_child=1 9 -4 4 5 6 7 -9 -10 -11 15 -13 -14 -15 -16 -17 -18 18 20 31 29 22 23 25 -26 27 -28 -29 -30 -31 -32 -33 -34
leaf_value=0.0019304243506695034 0.0017318101973300202 -0.0077170702286100384 -0.0078322000383731494 0.007769663035209309 0.0011905325008608003 -0.0068400006368010422 0.0068238984782092076 -0.0034013015434742702 0.00023250464381314155 0.0030181936543317552 0.0091146595163247839 0.016758180637208332 0.011451409864741332 -0.0078744365059774148 -0.0020452707050289069 0.00085459817137719925 0.010079770595999404 -0.0030851240534920145 0.0038077088336101786 0.0048366032601759599 0.0055740267679384326 0.0035793671210845785 -0.0015378253073420128 -0.0043530361617465669 -0.0075993718453263642 -0.0086886096028787677 0.006784938711614519 -0.00081297555910213575 0.01144928026010057 -0.0055130099222823643 -0.0034893241256492486 0.0041970693250594103 -0.0054696113728955843
leaf_weight=23.645615756511688 20.244359195232391 22.41961944103241 61.722566723823547 14.140852004289625 20.139893770217896 22.326822891831398 34.023177832365036 25.594564586877823 22.857448175549507 77.74775068461895 17.385915830731392 14.680549725890158 20.643133044242859 19.071584358811378 38.14225172996521 75.38902422785759 38.850662171840668 58.120143577456474 20.038957849144936 14.633780807256697 44.589273884892464 24.764357015490532 13.850716069340708 68.929544985294342 17.271467298269272 116.03805190324783 15.599506899714468 27.693146839737892 13.856611520051954 18.815309956669807 16.634555593132973 100.89927935600281 24.034124091267586
leaf_count=95 82 91 251 57 81 90 137 103 92 314 70 59 83 77 154 304 156 235 81 59 180 100 56 279 70 470 63 112 56 76 67 407 97
internal_value=-9.9866e-05 -0.00108807 -0.00547029 0.00282378 0.00168683 0.00317773 -0.000101425 0.00243571 0.00660098 -0.00063113 -0.00103116 0.00921243 0.00641987 -0.00165966 0.000628039 0.00242124 0.00701546 -0.00155013 -0.00131517 0.000927128 -0.00242888 -0.00330969 -0.00379107 -0.00446179 0.000140719 -0.0053685 -0.00228422 -0.00717547 0.00499102 0.00106912 0.00310603 0.00260096 -0.00156109
internal_weight=1164.79 870.678 81.9669 294.117 231.62 160.266 81.9446 59.6177 78.321 788.711 710.963 55.4636 40.783 71.3547 52.2831 92.7749 62.4963 618.188 595.769 197.687 398.081 318.042 298.003 273.239 44.9788 228.26 84.5291 143.731 27.7073 80.0391 61.2238 139.567 38.6679
internal_count=4704 3520 333 1184 933 645 330 240 315 3187 2873 223 164 288 211 374 251 2499 2408 798 1610 1287 1206 1106 182 924 342 582 112 323 247 563 156
is_linear=0
shrinkage=0.0102


Tree=15
num_leaves=34
num_cat=0
split_feature=15 24 32 34 72 56 18 48 77 26 47 56 56 56 39 56 36 26 45 77 24 43 9 48 67 42 39 27 49 73 13 46 26
split_gain=35.0695 18.0358 17.4716 17.4959 13.9385 13.2493 11.9206 12.5685 16.3692 14.7241 13.3804 13.8751 16.4992 11.1346 11.0826 10.673 15.2147 10.2461 9.69931 9.40554 11.9048 9.80027 9.92117 13.9715 10.5639 9.1322 8.90559 8.58717 8.47678 8.35947 8.30494 7.85889 7.65333
threshold=-0.0053539418149739495 -0.069403085857629762 0.010376065969467165 0.035074453800916679 0.025000001303851608 -29.625921249389645 -0.038290966302156441 0.90118971467018139 -5.5731876273057417e-05 -0.016018391586840149 0.046283558011055 -38.783353805541985 -19.412695884704586 -4.5925779342651358 0.25734701752662664 -8.051076412200926 0.066541690379381194 -0.025825804099440571 0.45371752977371221 6.7349999426369331e-06 0.055389404296875007 0.073235411196947112 -0.016482704319059845 0.98800829052925121 0.037212176248431213 0.14174459129571917 0.16708471626043322 0.0031766486354172234 0.82189473509788524 0.65416666865348827 0.70416665077209484 -0.050869595259428017 0.0030839432729408149
decision_type=2 2 2 2 2 2 2 2 2 2 2 2 2 2 2 2 2 2 2 2 2 2 2 2 2 2 2 2 2 2 2 2 2
left_child=1 17 3 29 -3 -5 -4 10 -9 -10 11 -8 -13 15 19 16 -12 -1 -16 -6 21 22 23 -21 32 28 -24 -17 -11 -2 -29 -14 -25
right_child=2 4 6 5 14 -7 7 8 9 25 13 12 31 -15 18 27 -18 -19 -20 20 -22 -23 26 24 -26 -27 -28 30 -30 -31 -32 -33 -34
leaf_value=0.0053484228832158809 -0.0036282375377110283 -0.0044124316418881777 -0.0082735769029463162 -0.0013520715206248191 0.0072620910637110226 -0.011996384323277959 -0.0034451199081523892 0.0092450373920094728 0.0063412933834002235 -0.0031539025824695779 0.0044267016198294628 0.011834536715618245 -0.0016216857443764887 0.0053963054944970237 0.010726224365969206 -0.0092319560603061571 -0.004675172854105113 0.014660305506232279 0.0033925788751932207 0.010020999042003528 0.0074824735365692672 -0.0047783076519965417 -0.0092614999682307641 0.00090228102396287455 0.0077526765190832243 0.0052579336276928693 0.0017452785417276094 -0.0050036408846633653 0.0016043882713858797 0.0035422865497747279 0.0048470741512008728 0.006821994767894037 -0.008414788638293702
leaf_weight=45.35218745470047 45.553107440471649 32.208901807665825 18.271733984351158 18.017250686883926 23.614580407738686 37.806036397814751 17.572809115052223 14.872458025813101 22.589967951178551 281.65575912594795 53.484591916203499 34.417825475335121 23.504535615444183 32.482626929879189 26.808994889259338 23.47512498497963 29.447852775454521 16.953595593571663 62.79427096247673 21.1031204611063 21.396569043397903 41.962561324238777 15.363087028265001 25.313991278409958 14.141290307044981 16.394715547561646 14.882597252726553 24.019837409257889 45.02833878993988 26.616317912936211 13.864028811454771 22.027958855032921 14.122324481606482
leaf_count=182 185 130 74 73 95 154 71 60 91 1139 216 139 95 131 108 95 119 68 253 85 86 169 62 102 57 66 60 97 182 108 56 89 57
internal_value=0.000352534 0.00292146 -0.000853571 -0.00430467 0.00192247 -0.00858129 -0.000196005 3.18401e-05 -0.00116746 -0.00159645 0.0016957 0.00472424 0.0065257 2.05572e-05 0.00265051 -0.00119503 0.00118966 0.0079257 0.00560846 0.00126404 0.000413502 -0.000624823 0.00104151 0.00303663 0.000254467 -0.00212309 -0.00386758 -0.00441298 -0.00249707 -0.000979457 -0.00138861 0.00247354 -0.00245876
internal_weight=1177.12 376.018 801.103 127.993 313.712 55.8233 673.11 654.838 380.541 365.669 274.297 97.5231 79.9503 176.774 281.503 144.291 82.9324 62.3058 89.6033 191.9 168.286 146.889 104.926 74.6807 53.5776 343.079 30.2457 61.359 326.684 72.1694 37.8839 45.5325 39.4363
internal_count=4754 1514 3240 520 1264 227 2720 2646 1538 1478 1108 394 323 714 1134 583 335 250 361 773 678 592 423 301 216 1387 122 248 1321 293 153 184 159
is_linear=0
shrinkage=0.0102


Tree=16
num_leaves=34
num_cat=0
split_feature=15 24 36 67 48 35 18 46 24 27 33 24 38 26 27 11 24 10 21 27 47 18 46 34 59 48 24 21 61 55 48 67 11
split_gain=34.3578 17.6624 13.3359 15.8433 15.436 15.3166 12.7452 17.3958 13.7679 13.8751 11.0752 10.1529 15.1736 10.0292 9.4328 9.3874 16.6056 9.46532 9.06708 9.03495 11.4626 10.4125 17.6897 10.3061 9.65323 17.0942 10.1354 10.0633 9.0125 8.7683 8.48667 8.1338 8.04247
threshold=-0.0053539418149739495 -0.069403085857629762 -0.044164439663290971 0.011349333450198175 0.88702562451362621 0.58041280508041393 -0.041552746668457978 -0.1650288328528404 0.0097152786329388636 -0.009346413426101206 0.49713808298110967 -0.00031403228058479721 0.69640380144119274 -0.025825804099440571 -0.01478773634880781 -0.0951557122170925 -0.056414239108562463 0.022470531053841118 -0.0051146785262972108 0.011856175959110262 0.045966243371367461 0.0065075703896582135 -0.029503971338272091 0.10312475636601449 -0.03425194509327411 0.88702562451362621 -0.0042452965863049022 0.0018722123932093384 0.1193896345794201 0.040961591526865966 1.1125684976577761 0.031413245946168906 0.0083366106264293211
decision_type=2 2 2 2 2 2 2 2 2 2 2 2 2 2 2 2 2 2 2 2 2 2 2 2 2 2 2 2 2 2 2 2 2
left_child=1 13 4 5 -2 -4 7 -3 -8 -10 28 30 -13 -1 -9 -5 17 31 -18 20 24 -22 -23 -21 -20 26 -26 32 -11 -14 -6 -17 -27
right_child=2 6 3 15 11 -7 8 14 9 10 -12 12 29 -15 -16 16 18 -19 19 23 21 22 -24 -25 25 27 -28 -29 -30 -31 -32 -33 -34
leaf_value=0.0052926382021417648 0.0035978002852947995 0.0083683911718781638 -0.01003057718533895 -0.008844973238835846 -0.0010958460501934338 0.00091501643853762456 0.0053983426631298839 -0.0070803539366619695 0.0053555722864344242 0.0024531940597230222 0.0053407538135433249 -0.0072358566254463992 -0.0061051243135589158 0.014502940969986423 0.00095050281245216001 0.0027701370526338615 -0.0077024075877238779 -0.0014355446731934478 -0.0061720307275010466 -0.00069057162738766413 -0.011329040474119985 0.0064226137741274503 -0.0039697675327067822 0.0086731462529036421 0.0018624976291675209 0.0043898279538915506 0.011440231351386641 -0.007320645829976791 -0.0067699869688810201 0.0029720554134842567 0.0075695848738879037 0.012438221464237894 -0.0046820079085234043
leaf_weight=45.364929065108299 125.95932146906853 14.42682860791683 42.682226195931435 15.72253558039665 26.952953711152077 19.202771857380867 125.21375894546509 38.884254097938538 38.786006256937981 14.878626972436903 15.620796725153921 47.660584390163422 14.845750838518141 16.965016067028046 24.798529431223869 19.34689773619175 23.744745865464211 19.360320821404457 19.479533776640892 33.956918567419052 16.066671460866928 19.071277663111687 146.85780869424343 18.855476900935173 24.982179492712021 27.666076987981796 21.294324114918709 22.228823274374008 41.14218544960022 41.578859329223633 20.5545614361763 17.137372553348541 15.788252502679823
leaf_count=182 509 58 174 64 109 78 504 157 156 60 63 193 60 68 100 78 96 78 79 137 65 77 594 76 101 112 86 90 166 168 83 69 64
internal_value=0.000349031 0.00289142 -0.000844974 -0.00180316 0.000961685 -0.00664089 0.00190277 -0.00166361 0.00308588 0.000457344 -0.00220096 -0.0012299 -0.003012 0.00784253 -0.00395857 -0.00115149 -0.000875796 0.00431535 -0.0016214 -0.00122256 -0.00188051 -0.00353673 -0.00276785 0.00267191 0.000413907 0.00157043 0.0063047 -0.00177297 -0.00431831 0.000567644 0.00266808 0.00736077 0.00108429
internal_weight=1177.08 376.081 800.996 523.444 277.552 61.885 313.751 78.1096 235.641 110.428 71.6416 151.593 104.085 62.3299 63.6828 461.559 445.837 55.8446 389.992 366.247 313.435 181.996 165.929 52.8124 131.439 111.96 46.2765 65.6832 56.0208 56.4246 47.5075 36.4843 43.4543
internal_count=4754 1514 3240 2118 1122 252 1264 315 949 445 289 613 421 250 257 1866 1802 225 1577 1481 1268 736 671 213 532 453 187 266 226 228 192 147 176
is_linear=0
shrinkage=0.0102


Tree=17
num_leaves=34
num_cat=0
split_feature=15 66 24 16 77 72 54 66 54 37 62 25 27 27 48 62 26 76 48 77 44 18 11 33 16 25 77 27 26 25 34 26 75
split_gain=33.6614 17.4662 17.2981 16.2218 15.8295 13.5944 12.7917 10.7603 10.579 14.1208 16.5869 15.6481 10.3058 11.2297 13.6773 9.97228 9.81931 9.6266 9.62182 13.2685 11.8599 12.0701 10.323 9.81282 10.2652 9.36337 13.3442 9.51179 8.22784 11.2072 10.0587 9.3934 8.23939
threshold=-0.0053539418149739495 0.012972677126526834 -0.069403085857629762 -0.0026673463871702548 9.8136250016978024e-05 0.025000001303851608 0.051377622410655029 0.0038486900739371781 0.017984870821237568 0.58908638358116161 0.51279366016387951 -0.0031223676633089776 -0.00011052103945985435 -0.001349406433291733 1.0254026651382449 0.13981155306100848 -0.025825804099440571 0.00047539500519633299 0.95595172047615062 7.6781248026236443e-06 1.5305983424186709 -0.041552746668457978 -0.015901383012533184 0.20872572064399722 -0.0052582295611500731 -0.031368667259812348 -2.7603125090536192e-05 0.002823302056640387 0.026092316955327991 0.0070165519136935481 0.18399764597415927 0.0025623948313295846 3.5894764661788945
decision_type=2 2 2 2 2 2 2 2 2 2 2 2 2 2 2 2 2 2 2 2 2 2 2 2 2 2 2 2 2 2 2 2 2
left_child=2 3 16 12 6 -4 8 -7 9 11 15 -5 13 14 -2 -11 -1 28 23 -20 21 -21 -23 -9 -25 -3 -27 -28 29 31 32 -6 -31
right_child=1 25 5 4 17 7 -8 18 -10 10 -12 -13 -14 -15 -16 -17 -18 -19 19 20 -22 22 -24 24 -26 26 27 -29 -30 30 -32 -33 -34
leaf_value=0.005237524156957234 0.0039668858526667183 -0.0058762320992574411 -0.0043744445408914418 -0.0017817625459649971 0.00082556946753020559 -0.0029071118951745647 0.0031913133866524027 0.01310199428134004 -0.0076059632718293423 -0.0043593879379314002 -0.0083537262539151724 -0.010344897380345672 0.0056243239921007727 -0.0082993111608272423 -0.0070011000210351386 0.0033259284867936841 0.014348869523495148 -0.0065149833332288345 0.0094181866192824173 -0.0065147125110568745 0.0065033363231078141 0.0052420632905260832 -0.0020055199362357958 0.0019958843133129883 0.010626492470487581 0.012041175774720561 -0.0019473825142731285 0.0036364186180488358 0.0079344798859401471 -0.0051925630381149199 -0.0097304802218244751 0.0093439912430379468 0.0022281699723717828
leaf_weight=45.376904770731926 49.4452735632658 14.050160855054854 32.195354044437408 42.634539097547531 64.997047275304794 32.444136321544647 24.266131281852722 16.409249916672707 81.253645986318588 23.964614495635033 23.686165630817413 46.444204494357109 44.078566700220108 15.3083099424839 15.314131349325178 64.017703220248222 16.974531158804893 22.034839391708374 20.650037333369255 28.505318537354469 28.812109813094139 36.053862854838371 46.657002091407776 52.440110817551613 19.617980137467384 14.405836343765257 47.058296382427216 96.462999224662781 14.398719921708105 26.623002558946609 16.785264372825623 16.803782925009727 36.849114701151848
leaf_count=182 200 57 130 173 263 131 98 66 329 97 96 189 178 62 62 259 68 89 83 115 116 145 188 211 79 58 190 389 58 108 68 68 149
internal_value=0.000345511 -0.000836532 0.0028617 -0.00162428 -0.00243663 0.00188326 -0.00389 0.00260193 -0.00450172 -0.0032379 -0.000817237 -0.00626188 0.00167617 -0.000505125 0.00135686 0.00122577 0.00776056 -0.000191767 0.00332167 0.00182914 0.000696447 -0.000816492 0.00115771 0.00602018 0.00437177 0.00204196 0.00275417 0.0018046 0.000604134 -5.6076e-05 -0.00276107 0.00259674 -0.000889595
internal_weight=1177.02 800.882 376.137 628.905 504.759 313.785 306.267 281.59 282.001 200.747 111.668 89.0787 124.146 80.0677 64.7594 87.9823 62.3514 198.492 249.146 160.678 140.028 111.216 82.7109 88.4673 72.0581 171.977 157.927 143.521 176.457 162.058 80.2574 81.8008 63.4721
internal_count=4754 3240 1514 2546 2044 1264 1241 1134 1143 814 452 362 502 324 262 356 250 803 1003 647 564 448 333 356 290 694 637 579 714 656 325 331 257
is_linear=0
shrinkage=0.0102


Tree=18
num_leaves=34
num_cat=0
split_feature=15 31 11 31 13 18 42 70 2 5 55 39 18 14 57 27 24 55 27 57 52 55 16 55 70 58 77 2 57 59 52 50 40
split_gain=26.2924 18.9242 18.831 23.5635 11.556 13.4495 11.2055 11.7561 16.2745 15.5409 13.2152 12.4616 13.9951 11.8794 11.0484 10.6962 12.5927 12.2909 11.7986 9.31045 9.03893 9.62894 9.51138 11.6067 9.0261 15.4914 14.8814 12.4181 8.97226 8.80013 11.3085 9.03351 8.53617
threshold=-0.0039730456192046395 0.032884409651160247 -0.06803636252880095 0.022259727120399479 0.26250000298023229 0.013357639312744142 0.017716462723910812 1.0000000180025095e-35 -0.006644719745963811 -0.011606486514210699 0.057477345690131194 0.42734222114086157 0.020260062068700794 0.020844534970819954 0.0070534241385757932 -0.016154953278601166 0.0012835782254114749 0.029287232086062435 -0.019056351855397221 -0.019704003818333145 0.52280652523040783 0.072160392999649062 -0.021751667372882363 0.053758729249238975 -1.0000000180025095e-35 1.0000000180025095e-35 9.6525000117253529e-06 -0.0084560750983655435 -0.008075700141489504 0.0068008932285010823 0.53755152225494396 0.11659530177712442 0.047798279672861106
decision_type=2 2 2 2 2 2 2 2 2 2 2 2 2 2 2 2 2 2 2 2 2 2 2 2 2 2 2 2 2 2 2 2 2
left_child=1 15 -2 6 32 28 -4 8 10 -9 -8 -10 14 -11 29 18 17 -17 -1 -3 21 22 -18 -24 25 27 -26 -19 -6 -13 31 -31 -5
right_child=2 19 3 4 5 -7 7 9 11 13 -12 12 -14 -15 -16 16 20 24 -20 -21 -22 -23 23 -25 26 -27 -28 -29 -30 30 -32 -33 -34
leaf_value=0.00030400774932087528 -0.0082854051601173942 -0.001270047486870666 -0.0060225671957602877 0.0027506003815550256 0.0021658756328704876 0.0021326684641287106 -0.0021174299231936657 0.0036636383042395779 -0.0093703718747961996 -0.0061936375484231013 0.0095402700159923828 0.006965812357474766 -0.0042512926533073321 0.0029760432371472253 -0.0045509083535218821 -0.005453537319720151 0.0060670062063485908 0.011771387005200081 -0.01145857543672524 0.0077851823720403194 0.0046953719180517313 -0.0075158220355109788 -0.0045349668119754848 0.004161705984231474 0.015794582337227647 -0.0076966579871191546 0.0044786416785008616 -0.00018911495267508882 -0.007457688188670035 -0.0066117176129166849 0.0085116221950645148 0.0026984540975693041 0.013141613366211292
leaf_weight=22.041149884462357 38.38291335105896 14.194797098636625 70.277958393096924 19.638919666409492 15.119085952639578 158.48516035079956 15.579965874552725 24.743365362286568 18.493704438209534 121.34494040906429 28.214785546064377 36.828075900673866 69.905378252267838 16.573507934808731 24.64365528523922 14.409912273287771 18.639624238014221 14.692819878458975 14.601699039340017 68.00988881289959 26.034735158085823 24.999599382281303 54.771195650100708 22.295194566249847 14.441636979579924 14.878727361559866 71.577401250600815 22.848636031150818 29.457413122057915 21.729329779744148 13.857852712273596 21.236817136406898 14.172403708100317
leaf_count=89 156 57 286 79 61 639 63 100 75 492 114 149 283 67 100 58 75 59 59 273 105 101 221 90 58 60 288 92 119 88 56 86 57
internal_value=-0.000211556 0.00184044 -0.00134364 -0.000971216 0.00166306 0.000739782 -0.00226238 -0.00161968 -0.000231913 -0.00375293 0.0054003 -0.0014302 -0.000639552 -0.00508797 0.00149761 0.000765832 0.00140315 0.00345019 -0.0044195 0.00622091 -0.000730247 -0.0019077 -0.000428045 -0.00201296 0.00438481 0.00103959 0.00641439 0.00452916 -0.00419631 0.00309723 0.000571157 -0.00201676 0.00716494
internal_weight=1177.12 418.437 758.685 720.302 236.873 203.062 483.429 413.151 250.49 162.662 43.7948 206.695 188.201 137.918 118.296 336.232 299.589 152.849 36.6428 82.2047 146.74 120.706 95.706 77.0664 138.439 52.4202 86.019 37.5415 44.5765 93.6521 56.824 42.9661 33.8113
internal_count=4755 1685 3070 2914 955 819 1959 1673 1014 659 177 837 762 559 479 1355 1207 615 148 330 592 487 386 311 557 211 346 151 180 379 230 174 136
is_linear=0
shrinkage=0.0102


Tree=19
num_leaves=34
num_cat=0
split_feature=66 15 11 19 31 17 56 56 44 47 33 66 24 18 73 31 49 44 70 44 17 33 49 56 16 10 70 52 10 69 43 14 6
split_gain=32.339 18.9276 21.103 16.7933 15.5835 11.7902 11.1671 10.8207 10.9593 9.16055 12.2077 10.5501 9.60841 12.1093 8.8245 8.77149 8.76901 9.83691 15.9884 9.3693 8.59275 8.58828 8.19448 7.96799 10.8237 9.45568 6.82132 6.3277 6.18016 6.17422 6.08194 6.03027 5.91474
threshold=0.003133999765850604 -0.0039730456192046395 -0.06803636252880095 -0.0077736170496791593 0.032884409651160247 0.034748496487736709 -3.0577652454376216 -31.728215217590328 0.52792289853096019 0.069785106927156462 0.23945449292659762 0.0061210300773382196 -0.025371336378157135 -0.043832711875438683 0.058333335444331176 0.025843660347163681 0.10130444914102556 0.6749238669872285 1.0000000180025095e-35 1.0779747962951662 0.0012171739945188167 0.3975586891174317 0.035651041194796569 -14.803286552429197 0.00028052655397914355 -0.0090511725284159166 0.6078576147556306 0.51215213537216198 -0.011901607271283863 -0.74999999999999989 0.046693956479430206 -0.0006456100963987409 -0.03737958520650863
decision_type=2 2 2 2 2 2 2 2 2 2 2 2 2 2 2 2 2 2 2 2 2 2 2 2 2 2 2 2 2 2 2 2 2
left_child=7 4 28 -4 9 16 14 8 -1 10 12 27 -2 -14 -6 -11 19 18 20 22 -18 -16 26 -9 25 -25 -5 31 -3 -19 -13 -12 -15
right_child=1 2 3 5 6 -7 -8 23 -10 15 11 30 13 32 21 -17 17 29 -20 -21 -22 -23 -24 24 -26 -27 -28 -29 -30 -31 -32 -33 -34
leaf_value=-0.0045812693422635255 0.0038015878910645381 -0.0045693294393514272 0.0084587236916263409 0.0012568555492082298 0.0031048463588934597 0.0075811531445188381 0.0006366090341092315 -0.011017299927063405 0.0051074123226795987 0.0011290119967945554 0.00093790637536626191 0.010676395634261262 -0.0089251013220992825 0.0052309446886465334 0.016605587625150769 -0.0097540042847858791 -0.0045774087865795097 -0.00093673725348486752 -0.010022865568456172 -0.0042032625721433372 0.0056292818752787088 0.0066145134629627235 -0.0071110297006300501 -0.0055450831147572073 -0.0081252433891987243 0.0051126072281943115 -0.0029685987833161119 0.0044761513515775625 -0.013121903680038694 0.0032074503815660844 0.0042198708148533711 -0.0079163166673919816 -0.0021277683184325758
leaf_weight=29.623062133789062 33.321711733937263 21.884382352232933 22.336399927735329 137.52220721542835 19.441586032509804 17.910049229860306 26.144903883337975 28.421507641673088 20.269825085997581 15.87244473397732 17.601027294993404 18.136756435036659 22.949181869626045 15.150218695402144 18.21338152885437 14.656489402055739 14.816956877708433 53.913661748170853 20.76070499420166 114.41943061351776 19.78646132349968 18.432108104228973 18.045877665281296 17.741041570901871 42.040541753172874 16.514922097325325 55.656997054815292 17.867598280310631 14.990705892443655 121.04486207664013 93.718131482601166 14.368956983089445 43.417574256658554
leaf_count=120 134 89 90 556 78 72 105 116 82 64 71 73 93 61 73 59 60 218 84 463 80 74 73 72 171 67 225 72 61 489 377 58 175
internal_value=-0.000209405 0.00044829 -0.000639858 -0.000175195 0.00221757 -0.000514483 0.00615557 -0.00455382 -0.000637743 0.00115902 0.00174539 0.00354983 -0.000796137 -0.00268202 0.00871392 -0.0041236 -0.000778311 0.000744134 -0.00299479 -0.00185525 0.00125423 0.0116512 -0.000579815 -0.00641341 -0.00467079 -0.000403758 3.69124e-05 -0.000350983 -0.00810512 0.00193017 0.00528624 -0.00306427 -0.000210103
internal_weight=1176.99 1022.38 633.089 596.214 389.292 573.877 82.232 154.611 49.8929 307.06 276.531 161.692 114.839 81.517 56.0871 30.5289 555.967 230.323 55.3641 325.645 34.6034 36.6455 211.225 104.718 76.2965 34.256 193.179 49.8376 36.8751 174.959 111.855 31.97 58.5678
internal_count=4755 4127 2560 2410 1567 2320 330 628 202 1237 1114 651 463 329 225 123 2248 931 224 1317 140 147 854 426 310 139 781 201 150 707 450 129 236
is_linear=0
shrinkage=0.0102


Tree=20
num_leaves=34
num_cat=0
split_feature=66 15 19 31 51 31 21 56 56 44 27 48 55 55 58 57 48 13 14 28 51 48 57 24 57 27 56 56 75 6 76 21 52
split_gain=31.7052 18.5454 17.6684 15.2653 11.1753 12.1769 13.3724 10.9358 10.6193 10.7392 9.49393 12.9141 10.904 9.09649 9.30381 9.25806 12.9656 8.15734 8.1348 7.90704 12.0191 10.1175 12.0225 10.8614 7.87596 7.82832 7.78124 7.72391 7.6409 7.58839 7.55461 9.37227 7.87307
threshold=0.003133999765850604 -0.0039730456192046395 -0.013218963053077458 0.032884409651160247 -0.40000001341104502 0.021794551983475689 0.00068982774973846983 -3.0577652454376216 -31.728215217590328 0.52792289853096019 -0.01478773634880781 1.5635159611701968 0.038217110559344299 0.071368530392646803 1.0000000180025095e-35 -0.0015708393184468148 0.82606571912765514 0.69166666269302379 -0.0067919455468654624 8.9544630050659197 1.0000000180025095e-35 0.7184608280658723 0.0082396036013960856 -0.053422003984451287 0.0096834357827901858 0.00031222903635352855 -15.421599388122557 -31.54736232757568 1.2439674139022829 -0.087470460683107362 1.0435000149300324e-05 -0.0033215578878298397 0.50520309805870067
decision_type=2 2 2 2 2 2 2 2 2 2 2 2 2 2 2 2 2 2 2 2 2 2 2 2 2 2 2 2 2 2 2 2 2
left_child=8 3 -3 10 5 27 -7 -5 9 -1 29 12 17 15 18 -14 -17 -12 -15 21 -21 22 -6 -23 26 -26 -10 28 -4 -2 -18 -32 -33
right_child=1 2 4 7 19 6 -8 -9 24 -11 11 -13 13 14 -16 16 30 -19 -20 20 -22 23 -24 -25 25 -27 -28 -29 -30 -31 31 32 -34
leaf_value=-0.0045371742257071818 0.0020132659804351582 -0.008716412325959785 0.007917974427914953 0.0086228603873983768 0.003890015552873531 0.0016893653397334939 0.014046871689976446 0.00063014457353436585 -0.015360494042558417 0.0050532238094998672 -0.00029378701723310844 0.010602482594718007 0.0095688803374208362 0.0086998363662847775 -0.0050618829344141426 0.0089681527947037439 0.0069393703286298007 -0.0093579621824832412 -0.0008765688803649077 -0.0047142648954434799 0.006235910918252931 0.0043610609465674025 -0.0063005932408511031 -0.0024290462560000452 -0.0071179108545098907 0.0018637640061960133 -0.0066633785692402732 -0.0045323167597371662 -0.0017867763546313708 -0.0064287851711222069 0.0057809263893912636 -0.006352421291286655 0.0025047720119739832
leaf_weight=29.608028680086136 18.102974116802216 26.725471645593643 16.839176580309868 56.108112767338753 65.324905574321747 19.350773230195045 17.156927183270454 26.145901158452034 13.698941886425017 20.280466467142105 35.518965661525726 16.409149557352066 24.863088309764862 14.184602618217466 28.27376788854599 25.091281950473785 15.176808819174765 14.376384511590002 25.555256396532059 14.626634314656256 34.977042973041534 26.104874342679977 14.547865658998488 357.8666617423296 20.632769957184792 19.409122139215469 50.887085184454918 22.949953138828278 16.554271399974823 27.935273662209511 15.432278007268904 30.501242056488991 15.651240289211271
leaf_count=120 73 109 68 225 264 78 69 105 56 82 143 66 100 57 114 101 61 58 103 59 141 105 59 1448 84 79 207 93 67 113 62 123 63
internal_value=-0.000207325 0.000443738 -0.000633484 0.00219493 -0.000274042 0.00297799 0.00754814 0.00609189 -0.00451044 -0.000631259 0.00114716 0.00190087 0.00130792 0.00239813 -0.000608592 0.00401118 0.0026361 -0.00293667 0.00256706 -0.000863359 0.0029983 -0.00127777 0.00202056 -0.00196493 -0.00635392 -0.00277469 -0.00855462 0 0.00312285 -0.00311278 0.000545581 -0.00104683 -0.00334857
internal_weight=1176.87 1022.35 633.025 389.326 606.299 92.8511 36.5077 82.254 154.516 49.8885 307.072 261.034 244.625 194.73 68.0136 126.716 101.853 49.8954 39.7399 513.448 49.6037 463.844 79.8728 383.972 104.628 40.0419 64.586 56.3434 33.3934 46.0382 76.7616 61.5848 46.1525
internal_count=4755 4127 2560 1567 2451 375 147 330 628 202 1237 1051 985 784 274 510 410 201 160 2076 200 1876 323 1553 426 163 263 228 135 186 309 248 186
is_linear=0
shrinkage=0.0102


Tree=21
num_leaves=34
num_cat=0
split_feature=66 17 31 75 56 14 24 44 39 50 24 43 28 56 75 31 17 6 18 4 42 28 1 21 24 6 6 42 5 56 54 70 33
split_gain=26.6463 21.2533 16.0877 14.2087 14.3224 16.7889 14.2084 13.1151 13.7386 12.9193 12.5974 11.2233 11.1987 10.7383 10.3626 14.1176 9.52256 9.18166 18.0932 12.5708 9.08963 10.9404 12.4445 10.9404 9.58186 7.84214 7.70795 8.64068 7.70607 7.65762 7.45046 6.79009 6.69617
threshold=0.0044289561919868001 -0.033958848565816872 0.05866550654172898 6.6419618129730233 -32.40099906921386 -0.0018486967892386017 -0.036027314141392701 0.97631940245628368 0.57187095284461986 -0.78645828366279591 0.0056424725335091361 0.095173954963684096 5.4317705631256112 -33.50440597534179 -2.3892133235931392 0.03029116336256266 -0.012802890501916407 -0.021239182911813256 -0.029246068559586998 -0.013883706647902725 0.027192603796720508 5.3264436721801767 -0.018162359483540055 0.0011932835914194586 -0.014023890253156422 0.15669198334217074 0.027851261198520664 0.022929001599550251 -0.019751346670091149 -0.29352763295173639 -0.037361754104495042 -1.0000000180025095e-35 0.26160760223865515
decision_type=2 2 2 2 2 2 2 2 2 2 2 2 2 2 2 2 2 2 2 2 2 2 2 2 2 2 2 2 2 2 2 2 2
left_child=3 -2 6 4 13 10 7 8 30 -8 -6 17 25 26 -10 -16 31 18 -11 -20 23 22 32 -19 -24 -13 27 -1 -18 -26 -3 -9 -22
right_child=1 2 -4 -5 5 -7 9 16 14 11 -12 12 -14 -15 15 -17 28 20 19 -21 21 -23 24 -25 29 -27 -28 -29 -30 -31 -32 -33 -34
leaf_value=-0.0045310958523024176 0.010960061834442288 -0.001755441780437078 -0.0094063782096053868 0.0068616974040419726 0.0036912893030605393 -0.0071269254710755632 -0.0065476210392713379 -0.0022355699417382718 -0.0072156106932032222 -0.0028758234648993538 -0.0060444564147745595 0.0066104583022451955 -0.0029758331441622691 0.0082063985841216627 0.0079201961494220399 -0.0055428374664758112 0.015122528796167571 0.010859153770950696 0.011517880225792015 0.0021248185899000725 -0.00063430186687509914 0.0025251325015193593 -0.0083150100509725711 -0.0012257251737041806 -0.0024056659034317018 -0.0014520025631867084 -0.007510657344493207 0.0039829005478691643 0.0062078750046307496 0.0048433282304581647 0.0068203638965765563 0.0063173820599444399 0.0077107677927702508
leaf_weight=20.725531101226807 21.411854833364487 13.941524639725683 15.796760916709898 15.113446414470671 33.09864042699337 116.30932888388634 27.976781949400902 16.399908095598221 25.655567571520805 36.888667583465576 23.42332935333252 70.332770124077797 21.846858873963356 14.36557601392269 16.64158821105957 15.393868044018744 16.696522787213326 14.837329372763636 25.873779490590096 34.701161473989487 20.108778774738312 71.316178932785988 27.193124309182167 16.050446048378944 262.08469530940056 15.156969100236891 16.268476158380508 30.194799199700356 26.594667077064514 15.885144069790838 41.801890343427658 22.923170983791351 19.58779975771904
leaf_count=84 86 56 64 61 134 474 113 66 104 149 95 283 88 58 67 62 67 60 104 140 81 288 110 65 1060 61 66 122 107 64 168 92 79
internal_value=0.000136295 0.000968249 0.000725608 -0.00268057 -0.00325325 -0.00491411 0.000910732 0.00332835 0.00107176 0.000212552 -0.000348864 0.000504924 0.00351597 0.000268703 -0.0024122 0.00145342 0.00641456 -8.95489e-05 0.0027434 0.00616535 -0.000708435 -0.00110565 -0.00185793 0.00461053 -0.00255724 0.0051796 -0.00144745 0.000510797 0.00970638 -0.00198757 0.00467496 0.00275461 0.00349988
internal_weight=1182.6 913.098 891.686 269.499 254.386 172.831 875.889 196.049 113.434 679.84 56.522 651.864 107.337 81.5544 57.691 32.0355 82.6143 544.527 97.4636 60.5749 447.063 416.176 344.86 30.8878 305.163 85.4897 67.1888 50.9203 43.2912 277.97 55.7434 39.3231 39.6966
internal_count=4778 3684 3598 1094 1033 703 3534 789 457 2745 229 2632 432 330 233 129 332 2200 393 244 1807 1682 1394 125 1234 344 272 206 174 1124 224 158 160
is_linear=0
shrinkage=0.0102


Tree=22
num_leaves=34
num_cat=0
split_feature=66 77 44 75 56 72 33 47 57 75 31 57 57 25 56 49 77 36 56 57 56 55 50 25 54 39 31 56 70 55 31 50 57
split_gain=26.1148 14.4011 17.636 13.9236 14.0469 18.4842 11.5616 17.6485 11.5147 11.2699 11.7515 10.9969 10.9629 14.4298 10.517 9.27775 9.05855 8.75612 9.73982 8.14588 10.1121 20.192 13.0179 15.0337 8.91914 13.7334 11.032 9.07764 8.77461 16.3085 14.5609 13.5082 15.5404
threshold=0.0044289561919868001 3.6957500924472704e-05 0.97631940245628368 6.6419618129730233 -32.40099906921386 0.32500000298023229 0.42347894608974462 0.017284759320318702 0.2454088777303696 -2.8029577732086177 0.026699828915297989 0.013353656511753799 0.018364176154136661 -0.0005269549146760254 -33.50440597534179 -0.43864946067333216 1.594562490936369e-05 0.056157669052481658 -33.83955001831054 -0.30344288051128382 -3.3808672428131099 0.031423294916749007 -0.78645828366279591 -0.0044430366251617661 0.013175620697438719 0.59907054901123058 0.026290044188499454 -33.444961547851555 -1.0000000180025095e-35 0.0397883988916874 0.021889824420213703 0.30155639350414282 0.0058695827610790738
decision_type=2 2 2 2 2 2 2 2 2 2 2 2 2 2 2 2 2 2 2 2 2 2 2 2 2 2 2 2 2 2 2 2 2
left_child=3 2 6 4 14 12 7 -2 15 -8 16 -4 13 -6 -1 17 -11 18 -3 -17 22 -22 -21 24 25 26 27 -24 29 -25 -30 32 -31
right_child=1 8 11 -5 5 -7 9 -9 -10 10 -12 -13 -14 -15 -16 19 -18 -19 -20 20 21 -23 23 28 -26 -27 -28 -29 30 31 -32 -33 -34
leaf_value=-0.0014332485329655422 -0.0049037047508215447 0.0058784834963122399 0.0042774625092629115 0.0067884956062306779 0.0046868244103244472 -0.0068292878246365594 -0.0094370240149937359 0.0088461899365912255 0.0082113204040517463 -0.0075232649084056233 0.0050200435236396612 0.011880709289945703 0.0078100155723409151 -0.0095301328799612152 0.0081178233592707569 0.0077974265323475954 0.0028244476324822015 -0.0071751342287357748 -0.0031080602041315551 -0.00654753538794827 0.0072588689391057211 -0.0065445462156767317 0.0069682397100050151 -0.0046334915488174091 0.0097750836674352984 -0.0038700709178576338 0.0096451559432663373 -0.0025246474617759904 -0.0033576173316480357 0.0041035266570285164 0.0022940385174772637 -0.0013204516128511705 0.016084008199485439
leaf_weight=67.175242528319359 13.90143647789955 16.864586248993874 90.069476619362831 15.122863754630087 13.87914727628231 128.25675037503242 16.038759276270866 31.103095144033432 17.898034185171127 23.472793355584145 28.055885970592499 25.389665976166725 15.06781731545925 15.512155026197433 14.376479059457777 15.155387818813322 13.840134605765341 33.154394283890724 47.068627506494522 23.755711793899536 13.916177436709402 50.163177102804184 18.3831677287817 28.686594814062119 24.080322101712227 23.717642977833748 30.873757541179657 23.80784098803997 128.46652381122112 53.540585994720459 74.902339801192284 32.638007178902626 14.159318178892134
leaf_count=272 56 68 363 61 56 523 65 125 72 95 113 102 61 63 58 61 56 134 190 96 56 202 74 116 97 96 124 96 520 216 302 132 57
internal_value=0.000134982 0.000958466 0.00309125 -0.00265434 -0.00322167 -0.00486738 0.000455916 0.0045933 0.000189025 -0.00183599 5.19857e-05 0.00596937 0.000795384 -0.00282737 0.000265942 -3.31911e-05 -0.00368778 -0.00293916 -0.000724002 0.000474747 0.000266422 -0.00353081 0.000778125 0.00116525 0.00424244 0.00284609 0.00503276 0.00162312 4.39714e-05 0.00212293 -0.00127527 0.00406152 0.00665384
internal_weight=1182.49 913.103 241.871 269.39 254.268 172.716 126.412 45.0045 671.232 81.4076 65.3688 115.459 44.4591 29.3913 81.5517 653.334 37.3129 97.0876 63.9332 556.247 541.091 64.0794 477.012 453.256 120.863 96.7824 73.0648 42.191 332.393 129.025 203.369 100.338 67.6999
internal_count=4778 3684 975 1094 1033 703 510 181 2709 329 264 465 180 119 330 2637 151 392 258 2245 2184 258 1926 1830 487 390 294 170 1343 521 822 405 273
is_linear=0
shrinkage=0.0102


Tree=23
num_leaves=34
num_cat=0
split_feature=67 17 24 44 24 73 8 17 27 55 18 33 4 32 56 36 33 10 24 35 62 56 56 10 76 24 50 76 45 22 56 56 1
split_gain=25.9308 22.925 14.3869 13.4751 13.272 12.019 13.0195 11.0862 11.2771 10.1632 8.81202 8.96684 8.73251 8.61868 9.75734 10.0302 8.60152 14.9985 17.0968 11.5852 10.4287 9.28244 9.51721 9.10079 9.62443 8.97411 12.103 8.90971 8.60052 8.07337 8.06745 8.01593 7.78811
threshold=0.0076970073860138663 -0.033958848565816872 -0.036027314141392701 0.97631940245628368 -0.099674113094806657 0.14166667312383655 -0.004239932168275117 -0.014444649685174225 -0.009346413426101206 0.047808311879634864 0.080534864217042937 0.87048199772834789 0.0030042241560295229 0.012057675980031492 -5.0361239910125724 0.060032993555068977 0.43232689797878271 1.0000000180025095e-35 0.0060648315120488414 0.44917856156826025 0.57982304692268383 -45.536432266235344 -40.813089370727532 0.024923724122345451 9.9974997283425196e-05 0.048154274001717574 -0.19545997679233548 7.3300000167364496e-06 0.56469252705574047 -0.0088581824675202352 -33.188289642333977 -0.29352763295173639 -0.0089087402448058111
decision_type=2 2 2 2 2 2 2 2 2 2 2 2 2 2 2 2 2 2 2 2 2 2 2 2 2 2 2 2 2 2 2 2 2
left_child=-1 -2 3 4 12 9 -7 -4 29 -5 16 -12 -3 -6 15 28 17 18 27 -19 21 -18 -23 24 -21 26 -20 -10 -15 -9 32 -24 -29
right_child=1 2 7 5 13 6 -8 8 10 -11 11 -13 -14 14 -16 -17 20 19 25 23 -22 22 31 -25 -26 -27 -28 30 -30 -31 -32 -33 -34
leaf_value=-0.0089061361610444402 0.010785120071715773 -0.00022557978966511214 -0.0050749683528951151 0.0070053039632343855 -0.005208713594783458 0.013720698396742377 0.0040560494564894226 0.0011165039580551318 0.0090352859404411161 -0.0044297718934303704 0.010745949345847132 -0.00027308404798772083 -0.01150360359860503 0.010078455613589075 -0.0042175955054031241 -0.00010115683636843167 -0.0073515613867412193 0.010027025507869058 -0.0013694201429516979 0.004685469326355488 -0.0058023859138146292 0.0073400144317816865 -0.0012761052897293222 0.0084560374963697643 -0.0062003500414389489 0.0017362283689547674 -0.010718592484018186 -0.00038106714341364312 0.0014463719892004203 0.0085244998148838493 -0.0020334785025080916 0.0045958930896944639 0.0097106573862580977
leaf_weight=31.901783809065819 21.426915973424911 14.638224869966509 49.740824788808823 13.931456357240675 14.803640782833098 25.204029262065887 34.504938095808029 40.204007849097252 15.902690112590788 18.660047888755798 14.195340633392336 16.394753813743591 13.791771769523619 35.071545824408531 15.895530372858046 31.710225284099579 22.233768314123154 26.789441451430321 27.221066758036613 15.32996419072151 51.305293187499046 14.85671980679035 388.80860924720764 14.142001509666441 18.301075160503387 18.845288917422295 30.635165050625801 15.904635399580004 18.378051534295082 24.621043235063553 45.832900673151016 25.574796959757805 15.631780922412871
leaf_count=131 86 59 201 56 60 101 139 162 64 75 57 66 56 141 64 128 90 108 110 62 208 60 1575 57 74 76 124 64 74 99 185 103 63
internal_value=0.000133714 0.000386094 0.00018663 0.00242178 0.000471831 0.00546061 0.00817211 -0.000406204 -0.000129278 0.000468534 -0.000470424 0.00487577 -0.00574595 0.00200638 0.00307327 0.00444269 -0.000690753 0.000877544 -0.000795712 0.00468481 -0.0014538 -0.000956854 -0.000621842 0.00165522 -0.00123661 -0.00435728 -0.00634317 0.00213515 0.00713023 0.00395075 0.000694308 -0.000911227 0.0046493
internal_weight=1182.39 1150.49 1129.06 236.589 144.289 92.3005 59.709 892.471 842.73 32.5915 777.905 30.5901 28.43 115.859 101.055 85.1598 747.315 244.536 169.974 74.5625 502.779 451.474 429.24 47.773 33.631 76.7015 57.8562 93.272 53.4496 64.8251 77.3693 414.383 31.5364
internal_count=4778 4647 4561 953 582 371 240 3608 3407 131 3146 123 115 467 407 343 3023 987 686 301 2036 1828 1738 193 136 310 234 376 215 261 312 1678 127
is_linear=0
shrinkage=0.0102


Tree=24
num_leaves=34
num_cat=0
split_feature=14 31 56 17 43 67 18 77 24 27 15 59 59 27 59 77 75 4 25 47 1 73 73 47 71 24 24 75 70 10 40 27 47
split_gain=25.04 21.9683 16.1697 17.9955 16.8976 15.6359 13.2929 12.6388 22.1965 19.4176 14.0505 13.8776 12.0688 11.1942 11.5185 10.6027 10.5688 9.98008 9.88078 12.8558 11.7009 8.21984 8.73028 13.0861 9.19176 12.3531 10.2242 7.74745 7.45895 11.7683 15.585 7.07008 17.2208
threshold=-0.0023392756702378388 0.021357364021241668 -30.828336715698239 -0.0048953045625239602 0.039616646245121963 0.013622914440929891 -0.035436671227216714 5.9077501646243043e-05 0.010089018382132055 -0.012983303051441906 0.0029287647921592001 -0.061915006488561623 0.048740236088633544 -0.0085696293972432596 -0.040615374222397797 -2.7603125090536192e-05 1.2439674139022829 0.021067234687507156 -0.0005269549146760254 0.039561225101351745 -0.015664982609450814 0.17500000447034839 0.39166666567325598 0.041617220267653472 -0.56174489110708226 0.040908899158239372 0.0045568181667476901 -5.2190136909484854 0.6078576147556306 0.0020630812505260114 0.59448572993278515 0.0050714670214802035 0.033928332850337035
decision_type=2 2 2 2 2 2 2 2 2 2 2 2 2 2 2 2 2 2 2 2 2 2 2 2 2 2 2 2 2 2 2 2 2
left_child=7 2 4 -4 5 -2 27 8 9 -1 -11 -9 31 14 -13 -8 -10 18 19 -15 -20 -6 -23 -24 -25 26 -26 -3 -17 -30 -31 32 -5
right_child=1 6 3 12 21 -7 15 11 16 10 -12 13 -14 17 -16 28 -18 -19 20 -21 -22 22 23 24 25 -27 -28 -29 29 30 -32 -33 -34
