tree
version=v4
num_class=1
num_tree_per_iteration=1
label_index=0
max_feature_idx=37
objective=binary sigmoid:1
feature_names=Column_0 Column_1 Column_2 Column_3 Column_4 Column_5 Column_6 Column_7 Column_8 Column_9 Column_10 Column_11 Column_12 Column_13 Column_14 Column_15 Column_16 Column_17 Column_18 Column_19 Column_20 Column_21 Column_22 Column_23 Column_24 Column_25 Column_26 Column_27 Column_28 Column_29 Column_30 Column_31 Column_32 Column_33 Column_34 Column_35 Column_36 Column_37
feature_infos=[-0.31101766228675842:0.37448489665985107] [-880.72998046875:1076.800048828125] [-0.13426944613456726:0.14761564135551453] [-0.19355377554893494:0.1928742378950119] [-0.055533260107040405:0.05062558501958847] [-0.38601487874984741:0.32219865918159485] [-0.030736520886421204:0.021019438281655312] [-0.1815120130777359:0.15877372026443481] [-0.29107972979545593:0.23471814393997192] [-0.12983277440071106:0.064910389482975006] [-0.12337220460176468:0.060460258275270462] [-0.068104520440101624:0.070275649428367615] [-61.456783294677734:54.967689514160156] [0.0029386822134256363:0.13725012540817261] [0.0017824579263105989:0.20235474407672882] [0.069739237427711487:0.94854933023452759] [0.10259909927845001:0.91577088832855225] [-0.14996735751628876:1.1968874931335449] [-2.1946117877960205:2.2107014656066895] [0.0019008091185241938:0.43145531415939331] [0.0075474865734577179:0.27666449546813965] [0.053991317749023438:2.1297078132629395] [-0.55344218015670776:0] [5.0721255320240743e-06:0.40194836258888245] [0.27160820364952087:2.8730316162109375] [-0.99122083187103271:0.99293690919876099] [-0.18958930671215057:0.15714059770107269] [-172.4044189453125:98.128990173339844] [-0.19946905970573425:0.1740073561668396] [0:0.99350219964981079] [0:0.98875981569290161] [4.8814938054420054e-05:0.087687544524669647] [0.0018005840247496963:0.36573565006256104] [-0.90096884965896606:1] [0.01666666753590107:1] [-13.612420082092285:18.211671829223633] [0.43126145005226135:0.4634130597114563] [0.41664519906044006:0.47509536147117615]
tree_sizes=2694 2753 2729 2744 2742 2746 2763 2751 2753 2756 2759 2752 2765 2737 2752 2738 2740 2750 2747 2756 2748 2744 2749 2754 2749 2719 2753 2748 2755 2732 2764 2743 2725 2761 2753 2760 2757 2754 2760 2723 2763 2767 2769 2761 2751 2750 2746 2759 2759 2757 2777 2752 2763 2747 2742 2754 2759 2753 2752 2751 2756 2755 2745 2758 2729 2756 2746 2746 2757 2748 2745 2745 2752 2759 2727 2767 2755 2769 2758 2733 2753 2753 2756 2746 2756 2749 2741 2749 2730 2759 2754 2759 2728 2748 2748 2765 2752 2749 2748 2756 2743 2747 2756 2759 2738 2755 2756 2755 2745 2723 2758 2744 2752 2719 2747 2762 2768 2753 2764 2733 2769 2763 2754 2753 2754 2755 2774 2761 2740 2757 2753 2760 2763 2764 2764 2760 2758 2754 2755 2766 2757 2755 2743 2732 2737 2767 2766 2759 2744 2758 2765 2752 2768 2749 2754 2754 2746 2770 2735 2764 2740 2756 2767 2756 2771 2765 2760 2756 2749 2756 2767 2730 2760 2768 2755 2761 2742 2764 2734 2754 2730 2762 2755 2753 2753 2744 2749 2744 2755 2754 2745 2754 2749 2761 2762 2758 2737 2766 2764 2769 2756 2762 2750 2768 2744 2763 2760 2775 2773 2762 2770 2741 2764 2759 2755 2744 2762 2746 2748 2754 2754 2769 2753 2753 2757 2752 2741 2756 2756 2766 2749 2762 2756 2764 2735 2757 2756 2757 2761 2762 2769 2754 2770 2763 2754 2761 2751 2736 2757 2767 2760 2762 2751 2767 2756 2763 2754 2755 2741 2748 2750 2779 2732 2767 2743 2759 2746 2751 2732 2719 2729 2735 2747 2765 2770 2760 2757 2753 2757 2756 2758 2734 2758 2770 2750 2759 2766 2760 2761 2760 2752 2734 2758 2729 2756 2755 2769 2763 2766 2768

Tree=0
num_leaves=24
num_cat=0
split_feature=5 23 26 34 6 9 27 18 34 13 17 25 4 23 5 13 6 32 2 11 11 13 6
split_gain=32.7068 30.9595 25.1208 16.9086 14.6643 35.7551 36.2997 20.6421 17.1753 15.3615 14.1329 13.9354 13.3662 17.4405 14.2762 13.7539 13.2164 11.6509 15.3204 11.0299 18.4472 11.5801 14.2576
threshold=-0.060868967324495309 0.15397877991199496 -0.048121159896254533 0.34166666865348821 0.0013357336865738036 0.00040864026232156908 -0.013150103390216826 -0.21268238127231595 0.058333335444331176 0.012471856549382212 0.70514529943466198 -0.5830157697200774 0.0079817171208560484 0.066362988203763976 0.054902303963899619 0.020286982879042629 -0.0025658257072791453 0.054602012038230903 -0.033420691266655915 -0.00063382869120687235 0.0030933077214285736 0.017536472529172901 0.0044915664475411185
decision_type=2 2 2 2 2 2 2 2 2 2 2 2 2 2 2 2 2 2 2 2 2 2 2
left_child=3 2 -2 17 5 6 16 11 -6 10 -10 -8 13 19 -14 -15 -4 -1 -19 21 -21 22 -11
right_child=1 -3 4 -5 8 -7 7 -9 9 12 -12 -13 14 15 -16 -17 -18 18 -20 20 -22 -23 -24
leaf_value=0.034436238372257302 0.015922624865930761 0.039644465370534648 0.023010445718765708 0.041538209764404345 0.041044306233411362 0.016493711854744429 0.035935820012819177 0.034853306198438398 0.025615485114919127 0.025292709433393266 0.047884837745130665 0.020962793674862187 0.015870196593461415 0.0011958374348298682 0.032741443445312352 0.020803248638265468 0.0020665541190603987 0.03259186545683089 0.01087631634373637 0.042054018196519632 0.019129097296392769 0.027408430402927828 0.0031648482189656144
leaf_weight=76.236596941947937 120.47881905734539 56.490068942308426 22.246088996529579 73.98699264228344 37.243451684713364 196.21550361812115 31.494463115930557 154.9727580845356 20.24644011259079 24.995605796575546 24.995605632662773 110.48057687282562 22.995957300066948 21.996133044362068 135.47618234157562 41.492705330252647 26.995253756642342 26.495341882109642 24.4956935942173 35.493759855628014 22.496045082807541 75.736685007810593 21.746176868677139
leaf_count=305 482 226 89 296 149 785 126 620 81 100 100 442 92 88 542 166 108 106 98 142 90 303 87
internal_value=0.0273027 0.0252598 0.0245447 0.0339613 0.0255624 0.0233032 0.0271659 0.0298151 0.028086 0.0269885 0.0379743 0.0243197 0.0257458 0.0228068 0.0302549 0.0138341 0.0113579 0.0294979 0.0221481 0.0260008 0.0331394 0.0225915 0.0148174
internal_weight=1405.5 1204.29 1147.8 201.215 1027.32 542.405 346.189 296.948 484.915 447.671 45.242 141.975 402.429 243.957 158.472 63.4888 49.2413 127.228 50.991 180.468 57.9898 122.478 46.7418
internal_count=5623 4818 4592 805 4110 2170 1385 1188 1940 1791 181 568 1610 976 634 254 197 509 204 722 232 490 187
is_linear=0
shrinkage=1


Tree=1
num_leaves=24
num_cat=0
split_feature=20 8 6 20 20 12 13 6 5 7 22 20 4 9 13 26 10 7 20 28 6 8 12
split_gain=48.555 39.6527 29.3644 49.9929 25.0453 22.0827 18.6438 17.8025 17.1434 17.021 15.1942 22.1272 25.0913 16.9859 15.0992 13.9578 13.427 13.403 11.8222 11.8104 11.2473 11.9624 10.9721
threshold=0.097144298255443587 -0.050922039896249764 0.0013357336865738036 0.052354160696268089 0.032728644087910659 -0.47374998033046717 0.019210857339203361 -0.00089425186160951842 -0.062300665304064744 0.014230667613446714 -0.012647934723645447 0.039616646245121963 0.0085400436073541659 0.0065088609699159869 0.03029116336256266 -0.032116895541548722 0.0079789310693740862 0.009100528899580242 0.08241071924567224 -0.018051629886031147 -0.0080225933343172056 -0.064546171575784669 -0.86715736985206593
decision_type=2 2 2 2 2 2 2 2 2 2 2 2 2 2 2 2 2 2 2 2 2 2 2
left_child=1 6 3 4 7 -2 -1 19 -5 -6 13 -12 -13 -4 -7 -9 -15 -18 -10 -3 -8 -22 -19
right_child=5 2 10 8 9 14 20 15 18 -11 11 12 -14 16 -16 -17 17 22 -20 -21 21 -23 -24
leaf_value=0.026858076996662254 0.014829345835137378 0.009654380594844799 0.0041820946106984353 0.0031614579296728351 0.0063143330464451534 0.016165216519044935 -0.0063650616868229882 -0.025817253932785833 -0.011859412576816773 -0.012120794110775773 0.020925930848498694 -0.0095695152116805279 0.011535485056704611 -0.020085495274518191 -0.00058067016703811742 -0.0070056977033131343 -0.010662878786047774 -0.0023048863226657018 -0.023728857004148531 -0.0088291875021449789 0.01628777781559234 -0.0018902591164149237 0.012166871611946977
leaf_weight=20.493671327829361 107.96961802244186 28.99564765393734 137.9680942595005 25.493218034505844 165.72325052320957 26.243551358580589 22.241925328969955 25.747549593448639 197.72447057068348 22.248175159096718 32.238064825534821 41.743606880307198 47.736543416976929 20.246890440583229 109.4719348102808 41.993200600147247 63.98907595872879 111.97641538083553 41.494171157479286 25.496097639203072 41.237392917275429 21.744122520089149 25.243915021419525
leaf_count=82 432 116 552 102 663 105 89 103 791 89 129 167 191 81 438 168 256 448 166 102 165 87 101
internal_value=0.000778591 -0.00171433 -0.00288615 -0.00593546 -0.000477089 0.00809628 0.00993115 -0.00751306 -0.0123114 0.00409538 0.000755683 0.0068505 0.00166905 -0.0013094 0.00269028 -0.0143219 -0.00474135 -0.00314146 -0.0139718 0.000968105 0.00570449 0.0100149 0.000377414
internal_weight=1405.46 1161.78 1056.06 574.916 310.204 243.685 105.717 122.232 264.712 187.971 481.143 121.718 89.4802 359.424 135.715 67.7408 221.456 201.209 239.219 54.4917 85.2234 62.9815 137.22
internal_count=5623 4648 4225 2300 1241 975 423 489 1059 752 1925 487 358 1438 543 271 886 805 957 218 341 252 549
is_linear=0
shrinkage=0.02


Tree=2
num_leaves=24
num_cat=0
split_feature=8 13 35 34 13 28 34 24 23 10 28 3 0 10 22 34 31 28 5 23 11 5 17
split_gain=34.612 35.7714 22.9218 21.1112 20.5275 15.9718 20.3613 14.7607 14.1667 14.1412 13.7634 27.6739 25.1269 19.3483 16.3419 13.5023 15.7449 12.5286 12.0251 16.1346 13.2128 11.8024 10.9721
threshold=-0.050922039896249764 0.033152600750327117 5.5676124095916757 0.4083333313465119 0.019210857339203361 -0.073308002203702913 0.058333335444331176 1.3169390559196474 0.12935116887092593 0.0017981874989345672 -0.0040646309498697511 0.0083884578198194521 0.027079623192548755 -0.0087005593813955766 -0.063413083553314195 0.67500001192092907 0.004784465767443181 -0.013164051808416842 0.033342992886900909 0.0708926096558571 0.004153007874265314 -0.017306123860180374 0.59907054901123058
decision_type=2 2 2 2 2 2 2 2 2 2 2 2 2 2 2 2 2 2 2 2 2 2 2
left_child=4 2 5 -3 -1 -2 21 9 -6 10 11 14 13 -12 -8 16 -15 -9 -4 -20 -21 -7 -19
right_child=1 3 18 -5 8 6 7 17 -10 -11 12 -13 -14 15 -16 -17 -18 22 19 20 -22 -23 -24
leaf_value=0.026350416193334874 -0.014717047251354127 -0.0014692114648424104 -0.0099102577758977371 0.01827507284823273 0.0076472744387809837 0 -0.01167244606112555 0.011304236000716622 -0.0081352074647807922 -0.0078369161387926902 -0.015712801712875667 0.022182730896530882 -0.019208735372747556 -0.0031731167267991969 0.0027501165170046404 -0.0085306121576023495 0.013927377928317382 -0.014219121417502128 0.020276880179137719 -0.0072847146794949372 0.0073138757913080166 0.016266774548450151 0.0032333472884554359
leaf_weight=20.480483531951904 47.993961542844772 34.737967401742935 19.997905254364014 55.974490255117416 159.18056850135326 39.990773633122444 42.743094876408577 43.491290688514709 25.991162821650505 335.69600223004818 31.994837239384651 22.744611531496048 43.245038390159607 39.741532489657402 114.22827073931694 35.994474679231644 45.739064753055573 20.99729722738266 26.986908704042435 33.739740833640099 88.964953109622002 31.737837374210358 42.991433799266815
leaf_count=82 192 139 80 224 637 160 171 174 104 1343 128 91 173 159 457 144 183 84 108 135 356 127 172
internal_value=0.000773144 -0.00131118 -0.00230192 0.0107255 0.00755973 -0.00352526 -0.00291248 -0.00380926 0.00540529 -0.00485281 -0.00217945 0.00181112 -0.00583066 -0.00199784 -0.00118902 0.00164769 0.00598156 0.00307685 0.00444868 0.00640687 0.00327024 0.0072623 -0.00252835
internal_weight=1405.38 1199.73 1109.02 90.7125 205.652 939.33 891.336 819.607 185.172 712.127 376.431 179.716 196.715 153.47 156.971 121.475 85.4806 107.48 169.69 149.692 122.705 71.7286 63.9887
internal_count=5623 4800 4437 363 823 3758 3566 3279 741 2849 1506 719 787 614 628 486 342 430 679 599 491 287 256
is_linear=0
shrinkage=0.02


Tree=3
num_leaves=24
num_cat=0
split_feature=8 23 23 27 8 13 28 26 10 6 9 4 9 22 13 8 32 6 11 32 21 13 27
split_gain=35.1718 37.4138 30.814 16.7966 27.4574 20.0133 17.8555 16.9555 15.7451 43.1991 17.5642 16.5785 18.0695 15.6061 13.6055 20.409 13.5166 13.0776 12.2487 11.9537 13.7334 11.283 10.9867
threshold=-0.048696894198656075 0.1338404789566994 0.1002355106174946 -0.011445216368883846 0.0086789149791002291 0.0339159443974495 0.018143076449632648 -0.051513936370611184 0.00021469167404575276 0.0013357336865738036 0.0023098777746781711 0.0037741690175607805 -0.0072618334088474503 -0.012647934723645447 0.017536472529172901 0.08921330422163011 0.029681972227990631 -0.010440171696245669 0.0090631367638707178 0.014050493948161604 1.0779747962951662 0.026699828915297989 0.0013036099262535574
decision_type=2 2 2 2 2 2 2 2 2 2 2 2 2 2 2 2 2 2 2 2 2 2 2
left_child=2 3 16 4 6 7 -2 -5 11 10 -10 12 -9 14 19 21 -1 -4 -6 -11 -21 -16 -3
right_child=1 22 17 5 18 -7 -8 8 9 13 -12 -13 -14 -15 15 -17 -18 -19 -20 20 -22 -23 -24
leaf_value=0.019095424531349065 -0.0010647429230787187 0.017270209647174281 0.0040928523151897407 -0.0092532917139775423 0.002844280264474322 0.014534792541032801 -0.022362582773593577 -0.001903446933993585 -0.0019570240115307507 0.0044165253280575838 -0.01677871652677293 -0.011629752790911578 0.0080494777067805674 0.0097440499035481749 0.01037939912299625 -0.011423827394863424 0.0072103268769114137 -0.017875535102858255 -0.014009658719684397 -0.019451963246465163 -2.5332181506269982e-05 -0.0047699346572689528 0.0006287561297514038
leaf_weight=59.193989813327789 21.996386632323265 52.961176261305809 19.992404282093048 102.4905054718256 79.227408736944199 31.233400717377663 57.244373664259911 120.97440215945244 47.992796421051025 23.994336649775505 98.245608314871788 28.996653854846954 181.69768066704273 67.45887778699398 82.482176214456558 31.244585782289505 112.43365183472633 22.493582352995872 21.493619844317436 37.993254020810127 23.741843804717064 25.24225814640522 22.9836236089468
leaf_count=237 88 212 80 410 317 125 229 484 192 96 393 116 727 270 330 125 450 90 86 152 95 101 92
internal_value=0.00106218 -0.00122295 0.00759048 -0.00217746 -0.00775024 -0.00106193 -0.0165194 -0.00163051 -0.00060803 -0.0030961 -0.0119514 0.00267436 0.00406824 0.0013424 -0.0011871 0.00266634 0.0113647 -0.0075641 -0.000783987 -0.00743602 -0.0120733 0.00680545 0.0122971
internal_weight=1373.81 1159.69 214.114 1083.75 179.962 903.788 79.2408 872.555 770.064 438.396 146.238 331.669 302.672 292.157 224.698 138.969 171.628 42.486 100.721 85.7294 61.7351 107.724 75.9448
internal_count=5497 4640 857 4336 720 3616 317 3491 3081 1754 585 1327 1211 1169 899 556 687 170 403 343 247 431 304
is_linear=0
shrinkage=0.02


Tree=4
num_leaves=24
num_cat=0
split_feature=8 20 23 34 6 20 8 13 22 4 20 20 22 23 20 13 13 20 35 8 4 6 23
split_gain=33.7972 42.3918 29.6182 21.3397 17.1724 43.525 32.308 23.043 18.8661 20.031 17.1157 22.725 14.847 24.3089 13.4731 30.9026 22.0303 16.9342 16.1106 13.3714 18.3063 14.9519 13.3176
threshold=-0.048696894198656075 0.093621600419282927 0.1002355106174946 0.24166666716337207 0.0013828083174303176 0.061183480545878417 0.00052019706345163297 0.013929188251495363 -0.071644015610218034 0.001521987665910274 0.04821946099400521 0.030980550684034828 -0.063413083553314195 0.1338404789566994 0.03661699406802655 0.016942312009632591 0.026870671659708027 0.042072817683219917 1.9276416301727297 0.0264175133779645 0.0025840108282864098 0.0047904166858643302 0.020349063910543922
decision_type=2 2 2 2 2 2 2 2 2 2 2 2 2 2 2 2 2 2 2 2 2 2 2
left_child=2 4 22 -3 5 6 7 -2 -9 -10 11 -8 -5 -14 -6 17 19 -16 -18 20 -17 -21 -1
right_child=1 3 -4 12 14 -7 10 8 9 -11 -12 -13 13 -15 15 16 18 -19 -20 21 -22 -23 -24
leaf_value=-0.0011412998194569835 -0.0029303539062569589 -0.0063917401852945348 -0.0074146410678792209 0.023495760460510356 0.009426788383476192 -0.013218479891613497 -0.017745985106673849 -0.0083156375655063283 0.018364780280574179 -0.00078358058180994525 -0.019996582345424986 0.0031206421566990577 -0.0018621132652818929 0.018287194119765534 0.00076214533560574641 0.0063776779828392666 0.0026592892926781209 -0.015072503402461532 -0.019751978695284386 0.019053494151798946 -0.015032515775262718 0.0048366653043865164 0.013647604887270433
leaf_weight=28.96829129755497 130.21529771387577 30.985337316989899 42.488479897379875 32.976681903004646 55.213250607252121 177.47658820450306 31.995752289891243 20.247726380825043 71.72524930536747 30.993664130568504 40.746153175830841 57.744069218635559 49.232144460082054 45.692438960075378 40.976677745580673 40.232370913028717 23.992720276117325 77.229079991579056 26.490333810448647 40.737251564860344 25.74553070962429 108.95835173130035 142.60135389864445
leaf_count=116 521 124 170 132 221 710 128 81 287 124 163 231 197 183 164 161 96 309 106 163 103 436 571
internal_value=0.00105267 -0.00119908 0.00744141 0.0083786 -0.00272517 -0.00504255 -0.00124306 0.00291763 0.00911333 0.0125919 -0.00931163 -0.00435407 0.0119834 0.0078609 0.000230928 -0.00109538 0.00267906 -0.0095864 -0.00913989 0.00546954 -0.00199703 0.00876941 0.0111429
internal_weight=1373.66 1159.61 214.058 158.887 1000.72 561.145 383.668 253.182 122.967 102.719 130.486 89.7398 127.901 94.9246 439.576 384.362 266.157 118.206 50.4831 215.674 65.9779 149.696 171.57
internal_count=5497 4640 857 636 4004 2245 1535 1013 492 411 522 359 512 380 1759 1538 1065 473 202 863 264 599 687
is_linear=0
shrinkage=0.02


Tree=5
num_leaves=24
num_cat=0
split_feature=20 10 34 15 32 23 6 20 10 22 13 20 5 4 4 19 35 34 12 13 6 6 22
split_gain=29.784 38.9264 27.3601 23.4026 17.9751 17.872 15.1874 38.7303 35.1637 20.7698 20.2342 20.1042 19.4787 17.4606 16.9048 15.0154 13.4194 13.2106 13.0386 12.8436 11.2033 14.9686 13.8683
threshold=0.093621600419282927 -0.014273166190832852 0.30833333730697637 0.33247989416122442 0.030017900280654434 0.10558114945888521 0.0013828083174303176 0.061430003494024284 0.0001030244202411268 -0.021340006962418553 0.013929188251495363 0.052078934386372573 0.025041037239134315 -0.0051403183024376622 0.001521987665910274 0.030647604726254944 5.9280214309692392 0.99166667461395275 1.7412501573562624 0.033491671085357673 0.0099142449907958525 0.00749866757541895 -0.024601270444691178
decision_type=2 2 2 2 2 2 2 2 2 2 2 2 2 2 2 2 2 2 2 2 2 2 2
left_child=1 4 5 -4 -1 -2 7 8 10 11 18 15 -11 -12 -15 -10 19 20 -3 -5 21 -8 -22
right_child=2 6 3 16 -6 -7 17 -9 9 12 13 -13 -14 14 -16 -17 -18 -19 -20 -21 22 -23 -24
leaf_value=0.017366261352218523 0.0023711485057469057 0.00083687130147118958 0.030285029113048211 -0.0017868194475757961 0.0013184676202974983 -0.017807808008541037 -0.0010528357996441359 -0.012773474553348589 0.018413336007662543 -0.025736749450379258 -0.0030049064979503293 -0.017701591922111262 -0.0035089581612338739 0.019552530572402173 -0.00015737611761395398 -0.0037450464638322731 0.020297919998205963 0.014260871390039462 -0.015281212993452866 0.011016472168986878 -0.021930851779525952 0.011128758521576526 0.0012251026193651339
leaf_weight=59.140199944376945 70.948241889476776 105.22362521290779 21.221281722187996 57.719120413064957 53.200713187456131 22.745611220598221 328.09974113106728 167.96359193325043 19.998071148991585 41.24146831035614 33.240795537829399 21.495399713516235 25.995858699083328 60.956279933452606 23.993207901716232 29.745768696069717 28.441925153136253 24.724560514092445 24.243429899215698 67.171629354357719 20.497376337647438 45.482565671205521 19.991085693240166
leaf_count=237 284 421 85 231 213 91 1313 672 80 165 133 86 104 244 96 119 114 99 97 269 82 182 80
internal_value=0.00104327 -0.00130495 0.0061181 0.0107896 0.00982383 -0.00257489 -0.00257044 -0.00477024 -0.00127174 -0.00932855 0.00323485 -0.00174504 -0.0172617 0.00920364 0.0139939 0.00521787 0.00798879 0.000205112 -0.00221312 0.00509986 -0.000645534 0.000437784 -0.0105734
internal_weight=1373.48 1105.23 268.248 174.554 112.341 93.6939 992.893 554.097 386.134 138.477 247.657 71.2392 67.2373 118.19 84.9495 49.7438 153.333 438.795 129.467 124.891 414.071 373.582 40.4885
internal_count=5497 4423 1074 699 450 375 3973 2217 1545 554 991 285 269 473 340 199 614 1756 518 500 1657 1495 162
is_linear=0
shrinkage=0.02


Tree=6
num_leaves=24
num_cat=0
split_feature=20 34 22 14 11 10 20 11 24 24 23 25 11 22 10 35 2 19 35 14 20 14 26
split_gain=37.4992 28.2875 27.6791 22.4972 22.0811 18.4759 17.702 16.7678 15.0326 14.9022 14.1668 12.9554 12.0209 20.0769 11.6169 10.4106 20.1188 15.9166 18.64 12.1171 11.0495 17.5531 9.77976
threshold=0.093621600419282927 0.34166666865348821 -0.10037393867969512 0.0071040452457964429 0.01472677616402507 0.023182794451713565 0.087634585797786727 0.00053378863958641898 1.5145148634910586 0.57168707251548778 0.1002355106174946 -0.21497639268636701 0.0085690710693597811 -0.0091179623268544657 0.012431186158210041 -0.31925588846206659 -0.014562692958861588 0.020026070997118953 -2.8556380271911617 0.020390855148434642 0.030398272909224037 0.012057675980031492 -0.036759395152330392
decision_type=2 2 2 2 2 2 2 2 2 2 2 2 2 2 2 2 2 2 2 2 2 2 2
left_child=3 10 -3 7 6 14 8 -1 9 11 -2 -5 13 15 -4 17 -17 -11 22 -20 -18 -22 -19
right_child=1 2 5 4 -6 -7 -8 -9 -10 12 -12 -13 -14 -15 -16 16 20 18 19 -21 21 -23 -24
leaf_value=-0.025552397037217935 0.002805371318158363 0.029310309106189397 0.0072974158536871685 0.020056281158029664 -0.015336260750806824 0.020440054099978393 -0.011376564651226176 -0.0021249427709579606 0.0089343815239891662 -0.012485181134187584 -0.014273393976745931 0.0015277146616718468 -0.0087405811893414582 0.0100446599684486 -0.008056875265279104 -0.022745369374291252 -0.015181104663507312 -0.0097261236692489511 0.0034560483819826228 0.01569139599277318 0.011279395146302384 -0.0033745301560097292 0.00094344068793598415
leaf_weight=25.989542409777641 66.945224523544312 28.685243055224419 89.153165057301521 24.724147588014603 40.215697824954987 35.418401286005974 54.218020528554916 23.241230487823486 74.206505551934242 30.983392894268036 26.745854273438454 38.467243403196335 74.950861319899559 66.949597254395485 24.70891734957695 20.742247432470322 25.240505382418633 47.722143620252609 95.686551436781883 49.217056140303612 36.98377351462841 254.15513072907925 118.40500827133656
leaf_count=104 268 115 357 99 161 142 217 93 297 124 107 154 300 268 99 83 101 191 383 197 148 1017 474
internal_value=0.000948204 0.00677202 0.0114461 -0.00151748 -0.000894132 0.00791362 -0.000311329 -0.0146654 0.000318144 -0.000407331 -0.00209873 0.00890911 -0.00113179 -0.000359404 0.00392727 -0.00139462 -0.00388743 0.00105877 0.00243225 0.00766525 -0.00261082 -0.00149002 -0.00212951
internal_weight=1373.76 271.657 177.966 1102.1 1052.87 149.28 1012.65 49.2308 958.434 884.228 93.6911 63.1914 821.036 746.085 113.862 679.136 337.122 342.014 311.031 144.904 316.379 291.139 166.127
internal_count=5499 1088 713 4411 4214 598 4053 197 3836 3539 375 253 3286 2986 456 2718 1349 1369 1245 580 1266 1165 665
is_linear=0
shrinkage=0.02


Tree=7
num_leaves=24
num_cat=0
split_feature=20 8 6 20 8 32 13 6 7 20 13 15 23 23 8 21 13 13 23 20 13 17 27
split_gain=36.0443 29.8101 23.9406 30.2314 22.6629 21.6661 14.6691 14.2738 20.2395 13.3561 17.0889 14.9212 13.0819 12.9585 14.7559 14.3831 12.8423 17.8911 14.1488 12.1101 21.3946 11.9237 11.7126
threshold=0.093621600419282927 -0.048696894198656075 0.0010785211925394835 0.066894188523292555 0.0012835782254114749 0.021878554485738281 0.019210857339203361 -0.012169393245130776 0.057470174506306655 0.052991751581430442 0.010181270074099304 0.41495311260223394 0.033222183585166938 0.11540542170405389 -0.036027314141392701 1.0053799748420718 0.012471856549382212 0.017920400016009811 0.048750631511211402 0.057277815416455276 0.024881584569811824 0.46555307507514959 0.0051448354497551927
decision_type=2 2 2 2 2 2 2 2 2 2 2 2 2 2 2 2 2 2 2 2 2 2 2
left_child=1 6 3 4 5 -3 -1 21 13 10 -6 -12 -5 15 -15 -9 -4 22 -19 -20 -21 -2 -18
right_child=7 2 16 12 9 -7 -8 8 -10 -11 11 -13 -14 14 -16 -17 17 18 19 20 -22 -23 -24
leaf_value=0.023524032515236885 0.028380764074356853 -0.0040524269854166489 0.0089796022132715616 -0.0055673954291951154 -0.02167738822079485 0.0073568925586283201 0.004813748374148507 0.011084972637956745 0.020627001517457201 -0.021442313736660914 0.011179721571476136 -0.0088441969751787176 -0.019107793224065025 -0.018955032914609794 0.0019565272485673225 -0.001604216000341472 -0.0025534680039598434 0.008886953898534793 -0.013642311233084575 0.0075191067684921833 -0.0084119110584062514 0.0067981290872970957 -0.014878096975900399
leaf_weight=20.67056867480278 19.942487835884094 177.92085842788219 63.938156351447105 46.488300904631615 20.232778340578079 105.69193843007088 84.864656075835228 82.388825222849846 27.406081184744835 31.231955915689468 24.746034041047096 35.739361166954041 77.957644879817963 20.493166834115982 37.180166453123093 62.17612811923027 112.20214688777924 91.698176816105843 24.736776083707809 87.206926643848419 54.231294602155685 21.971626833081245 42.487871438264847
leaf_count=83 80 712 256 186 81 423 340 330 110 125 99 143 312 82 149 249 449 367 99 349 217 88 170
internal_value=0.000944267 -0.00148773 -0.00256088 -0.00552662 -0.00280738 0.000197827 0.00859093 0.00664059 0.00464791 -0.0104055 -0.00600478 -0.000594641 -0.0141081 0.00242712 -0.00553869 0.00562696 0.000673847 -0.000617831 0.00260149 -0.000871186 0.00138851 0.0173277 -0.00598852
internal_weight=1373.6 1102.05 996.51 520.009 395.563 283.613 105.535 271.558 229.644 111.95 80.7182 60.4854 124.446 202.238 57.6733 144.565 476.501 412.563 257.873 166.175 141.438 41.9141 154.69
internal_count=5499 4411 3988 2081 1583 1135 423 1088 920 448 323 242 498 810 231 579 1907 1651 1032 665 566 168 619
is_linear=0
shrinkage=0.02


Tree=8
num_leaves=24
num_cat=0
split_feature=20 34 22 11 10 6 20 10 10 23 7 22 20 34 7 27 32 17 23 27 20 20 7
split_gain=34.6516 26.8507 26.416 19.1064 18.9312 19.7894 27.1539 29.9405 16.836 13.3281 13.2992 14.5557 19.1055 14.1397 12.1053 13.7939 13.9443 13.943 13.9078 14.155 12.0059 30.5802 10.4449
threshold=0.093621600419282927 0.34166666865348821 -0.08978403732180594 0.01472677616402507 -0.013612709008157252 0.0010785211925394835 0.083011217415332808 -0.00010688721522456034 0.023182794451713565 0.1002355106174946 -0.020705350674688813 -0.041809437796473496 0.053566018119454391 0.14166667312383655 -0.018735491670668122 -0.015749470330774781 0.015504397451877596 0.62852615118026745 0.044624589383602149 0.010620478074997665 0.030398272909224037 0.037937378510832793 0.016010543331503872
decision_type=2 2 2 2 2 2 2 2 2 2 2 2 2 2 2 2 2 2 2 2 2 2 2
left_child=3 9 -3 4 -1 6 7 14 -4 -2 -7 12 -12 -14 -6 -16 17 -17 19 -18 -9 -22 -23
right_child=1 2 8 -5 5 10 -8 20 -10 -11 11 -13 13 -15 15 16 18 -19 -20 -21 21 22 -24
leaf_value=0.0066547459660181319 0.0026276549348060859 0.026192516583237849 0.0031417276373892854 -0.014908292576056073 -0.0077054203138082278 0.016287030844201307 -0.022364606957341257 -0.022088556058468187 0.019236459030517711 -0.01393913945863753 -0.021699777783014792 0.0022696059390830466 0.012209528571548254 -0.007123111655403286 -0.012678419721937284 -0.007683094890100356 0.017774918627289648 0.0091044053122117923 -0.0014666374320831267 -0.00047882413069115878 0.012727435496441002 -0.0079421406884880395 -0.021321423171587334
leaf_weight=116.24657090008259 66.926003977656364 36.341127946972847 107.33505316078663 40.21144463121891 57.733102723956108 21.484877750277519 31.971184328198433 27.967821449041367 34.114374741911888 26.74011555314064 24.239414840936661 340.79414939880371 21.228207945823669 49.232077315449715 21.238161727786064 58.482550859451294 62.196630448102951 29.233669862151146 39.224423065781593 22.986041307449341 23.741960451006889 79.954371482133865 33.71809309720993
leaf_count=465 268 146 430 161 231 86 128 112 137 107 97 1364 85 197 85 234 249 117 157 92 95 320 135
internal_value=0.000938744 0.00651235 0.0110696 -0.00145869 -0.000940619 -0.00187966 -0.00467718 -0.00341087 0.00709158 -0.00212955 0.00110798 0.000336719 -0.00657351 -0.00122542 0.000446316 0.00248375 0.00403747 -0.00204567 0.00833356 0.0128519 -0.010193 -0.00768607 -0.0120043
internal_weight=1373.34 271.457 177.791 1101.88 1061.67 945.427 488.448 456.477 141.449 93.6661 456.979 435.494 94.6997 70.4603 291.095 233.361 212.123 87.7162 124.407 85.1827 165.382 137.414 113.672
internal_count=5499 1088 713 4411 4250 3784 1955 1827 567 375 1829 1743 379 282 1165 934 849 351 498 341 662 550 455
is_linear=0
shrinkage=0.02


Tree=9
num_leaves=24
num_cat=0
split_feature=20 14 20 20 4 10 13 34 23 9 20 13 9 27 14 24 27 11 27 24 14 20 11
split_gain=43.2313 28.9579 20.3958 27.1846 18.4583 17.7385 17.6692 17.2866 16.8715 16.5891 25.9791 23.3368 23.1427 20.4638 19.9171 19.0264 16.517 16.3159 16.0211 15.6569 14.7798 14.6273 14.5427
threshold=0.095173954963684096 0.0068731603678315887 0.037937378510832793 0.032728644087910659 -0.0090306703932583315 -0.014273166190832852 0.019210857339203361 0.075000002980232253 0.11540542170405389 0.015339441131800415 0.08241071924567224 0.026870671659708027 0.0020109902834519748 -0.012765815481543539 0.025666696019470695 0.72209423780441295 -0.018582104705274102 0.0090631367638707178 -0.0096155386418104154 1.0790852308273318 0.028097100555896763 0.14013235270977023 0.00053378863958641898
decision_type=2 2 2 2 2 2 2 2 2 2 2 2 2 2 2 2 2 2 2 2 2 2 2
left_child=1 22 3 -3 8 6 -4 -7 21 10 12 15 13 -9 17 -11 -17 18 -14 20 -6 -2 -1
right_child=4 2 5 -5 19 7 -8 9 -10 11 -12 -13 14 -15 -16 16 -18 -19 -20 -21 -22 -23 -24
leaf_value=-0.027823069451017361 -0.0023906238296614851 -0.001782008488202912 0.021185135880392884 0.013420766200106422 0.0037295452418449632 0.0050261023720079125 0.00088323824402310614 -0.015584966566452339 -0.013957916254608545 -0.012778116480780569 -0.019748770872610004 -0.015203415116611736 0.0042055993872235024 0.0016596199153565592 0.0079448691489624277 -0.0075243673856103732 0.012013717863301026 -0.024448820605512008 -0.011635618834413426 0.001150565205148564 0.019335238030055914 0.016146386205954873 -0.0053536029753290968
leaf_weight=24.709325104951859 42.421552240848541 114.16297233104706 20.392238318920135 79.185789376497269 34.940569341182709 78.431917518377304 97.317989364266396 31.229027807712555 25.227261140942574 20.487451523542404 53.186289548873901 28.741214767098427 30.233539715409279 206.84977823495865 23.231800854206085 21.237309366464615 84.432516202330589 32.22305616736412 151.15373010933399 47.359001249074936 83.961254864931107 27.663751542568207 22.235773384571075
leaf_count=99 170 457 82 317 140 314 390 125 101 82 213 115 121 828 93 85 338 129 605 190 337 111 89
internal_value=0.000907872 -0.00209625 -0.00141711 0.00445251 0.0069269 -0.00271207 0.00449201 -0.00383059 -7.26985e-05 -0.00485349 -0.00654066 0.000888357 -0.00503806 -0.000621908 -0.00945819 0.00461573 0.00805121 -0.0113744 -0.00897991 0.0109397 0.0148009 0.00496043 -0.017391
internal_weight=1381.02 1119.44 1072.5 193.349 261.573 879.148 117.71 761.438 95.3126 683.006 528.107 154.898 474.921 238.079 236.842 126.157 105.67 213.61 181.387 166.261 118.902 70.0853 46.9451
internal_count=5531 4482 4294 774 1049 3520 472 3048 382 2734 2114 620 1901 953 948 505 423 855 726 667 477 281 188
is_linear=0
shrinkage=0.02


Tree=10
num_leaves=24
num_cat=0
split_feature=20 14 20 20 5 6 4 10 6 13 20 9 13 37 23 16 13 11 15 11 20 20 34
split_gain=41.5528 27.8542 19.5967 26.1245 17.9388 21.5758 18.6038 17.0533 21.8186 28.6736 26.8587 30.347 17.0186 16.6075 15.8677 15.1847 14.6894 14.2598 14.3221 14.0004 11.5987 13.4152 11.6049
threshold=0.095173954963684096 0.0068731603678315887 0.037937378510832793 0.032728644087910659 0.12612226605415347 -0.011546635068953036 -0.0090306703932583315 -0.014273166190832852 0.0023196713300421838 0.016679745167493824 0.08241071924567224 0.0020109902834519748 0.019210857339203361 0.46239832043647772 0.093937579542398467 0.41636508703231817 0.014358540531247856 -0.0078834788873791677 0.34622485935688024 0.00053378863958641898 0.066689312458038344 0.075843509286642088 0.25833334028720861
decision_type=2 2 2 2 2 2 2 2 2 2 2 2 2 2 2 2 2 2 2 2 2 2 2
left_child=1 19 3 -3 5 -2 14 12 10 -10 11 17 -4 -11 -7 -8 -13 -9 -19 -1 -14 -22 -23
right_child=4 2 7 -5 -6 6 15 8 9 13 -12 16 20 -15 -16 -17 -18 18 -20 -21 21 22 -24
leaf_value=-0.027302999388759821 0.016970212431879197 -0.001746514283662742 0.020803150882646719 0.013157897092710195 0.021783674324117316 -6.4544861637359874e-05 0.022030868618265049 -0.0097185212001186135 -0.010231159072046563 0.00060374610326839487 -0.021296292743137508 0.00061650715463118315 -0.012209916424467702 0.012805532990798894 -0.021037369793344637 0.0032782410102029742 -0.016160655249467148 0.011192474742860604 -0.0014179940654970265 -0.005249117834544955 0.015715765241465281 -0.012731485340943195 0.0065995192023176174
leaf_weight=24.68613401055336 47.044999152421951 114.16360726952553 20.360836341977119 79.162624642252922 28.073669448494911 48.159775659441948 20.682230964303017 57.224709719419479 80.706869572401047 193.10632286965847 44.906351283192635 25.735223576426506 20.714475572109222 57.703828811645508 20.223374396562576 97.266951158642769 104.35692930221558 46.721607401967049 150.87214919924736 22.234776213765144 26.939278155565262 21.219626888632774 28.441250398755074
leaf_count=99 189 457 82 317 113 193 83 229 323 773 180 103 83 231 81 390 418 187 604 89 108 85 114
internal_value=0.000900985 -0.00205538 -0.00138933 0.00436438 0.00679268 0.0049381 0.00185225 -0.00265882 -0.00375555 9.45124e-05 -0.00672641 -0.00499597 0.00440573 0.00343886 -0.00640369 0.00666249 -0.0128368 -0.000967877 0.00157442 -0.0170599 0.000865694 0.00448384 -0.00166514
internal_weight=1380.71 1119.26 1072.34 193.326 261.451 233.377 186.332 879.009 761.334 331.517 429.817 384.911 117.675 250.81 68.3832 117.949 130.092 254.818 197.594 46.9209 97.3146 76.6002 49.6609
internal_count=5531 4482 4294 774 1049 936 747 3520 3048 1327 1721 1541 472 1004 274 473 521 1020 791 188 390 307 199
is_linear=0
shrinkage=0.02


Tree=11
num_leaves=24
num_cat=0
split_feature=20 14 20 20 8 5 13 10 4 33 8 13 13 15 32 11 11 24 26 10 10 8 11
split_gain=39.9461 26.8001 18.8272 25.1082 23.0234 17.2881 15.2923 14.9926 25.5186 20.0538 16.8443 16.1877 18.5306 14.3711 19.8917 19.0422 13.4879 11.7573 12.1778 16.5949 14.7475 10.9429 12.1793
threshold=0.095173954963684096 0.0068731603678315887 0.037937378510832793 0.032728644087910659 -0.047399364411830895 0.12612226605415347 0.019971966743469242 0.013043765444308521 0.0018014505039900543 -0.56174489110708226 -0.013185241259634493 0.025843660347163681 0.016679745167493824 0.32324008643627172 0.083021465688943877 -0.01478773634880781 0.00053378863958641898 1.3731265664100649 -0.0032511106692254539 0.003609080566093326 0.0078283767215907591 -0.0070280875079333774 -0.0002564362075645476
decision_type=2 2 2 2 2 2 2 2 2 2 2 2 2 2 2 2 2 2 2 2 2 2 2
left_child=1 16 3 -3 6 13 -4 8 9 10 -6 12 -9 15 -15 -2 -1 18 19 -10 -21 -5 -23
right_child=5 2 4 21 7 -7 -8 11 17 -11 -12 -13 -14 14 -16 -17 -18 -19 -20 20 -22 22 -24
leaf_value=-0.026802137072245207 0.0022893617584797302 -0.0017117293764898212 0.020381060915717036 0.00086736364855441038 -0.017775600995644753 0.021393074263650131 0.0020591933527327102 -0.0090336322616292007 0.0056685136720296871 0.001260507196538871 -0.0021349403113113735 -0.008786628970411034 0.0082856485710101034 0.0047162530368196611 -0.01468341788141447 0.025969860980421616 -0.0051467385958334179 0.00022292389542031787 -0.016927950735031609 -0.025951003390041069 -0.0046962982396535173 0.0071087262638573822 0.02593355701317036
leaf_weight=24.654158934950829 28.413981437683105 114.16405618190765 22.566029086709023 22.216577485203743 48.705110281705856 28.024142444133759 89.061632305383682 31.232238471508026 28.22462497651577 236.26735459268093 63.683754503726959 49.47102564573288 110.6440085619688 154.84205406904221 23.950658068060875 26.077996224164963 22.233489781618118 33.465152338147163 110.09289902448654 21.216667249798775 34.20635724067688 25.97135029733181 30.945088177919388
leaf_count=99 114 457 91 89 195 113 357 125 113 946 255 198 443 621 96 105 89 134 441 85 137 104 124
internal_value=0.000894064 -0.00201506 -0.0013618 0.00427814 -0.00260629 0.00666232 0.00585524 -0.00384304 -0.00545405 -0.00204273 -0.00897944 0.000996449 0.00444065 0.00484221 0.00207266 0.0137915 -0.0167383 -0.0106641 -0.0125507 -0.00669935 -0.0130279 0.0129012 0.0175152
internal_weight=1380.33 1119.02 1072.13 193.297 878.837 261.309 111.628 767.209 575.862 348.656 112.389 191.347 141.876 233.285 178.793 54.492 46.8876 227.206 193.741 83.6476 55.423 79.133 56.9164
internal_count=5531 4482 4294 774 3520 1049 448 3072 2306 1396 450 766 568 936 717 219 188 910 776 335 222 317 228
is_linear=0
shrinkage=0.02


Tree=12
num_leaves=24
num_cat=0
split_feature=20 4 6 9 4 6 2 20 4 13 23 23 32 23 25 26 33 27 22 20 19 27 18
split_gain=24.9152 25.2342 26.0134 18.5847 15.0191 20.3494 13.954 21.2847 15.8927 13.9007 15.3691 13.8779 13.1189 14.2295 13.0054 14.9852 12.5251 15.0759 12.3606 11.5256 12.4514 12.4852 17.3797
threshold=0.099146209657192244 -0.0005485425645019858 0.001816831936594099 0.00040864026232156908 -0.0083850454539060575 -0.011546635068953036 0.0021337892394512896 0.039318203926086433 0.0099156582728028315 0.017016161233186725 0.064087569713592543 0.092952616512775435 0.035976301878690727 0.070438366383314147 -0.74028918147087086 -0.027607903815805909 -0.56174489110708226 -0.0028111741412430997 -0.018505021929740902 0.080943603068590178 0.021129534579813484 -0.016305245459079739 -0.28107582032680506
decision_type=2 2 2 2 2 2 2 2 2 2 2 2 2 2 2 2 2 2 2 2 2 2 2
left_child=1 14 3 16 5 -2 9 -8 12 -4 -11 -7 13 -9 15 -1 -3 -18 -10 20 -16 -22 -23
right_child=4 2 6 -5 -6 11 7 8 18 10 -12 -13 -14 -15 19 -17 17 -19 -20 -21 21 22 -24
leaf_value=0.0020423775883992856 0.01523880861695192 -0.013516061433531184 -0.013723557342751054 -0.011715474036216993 0.0094040177514805191 0.00012381801232017883 0.020768696123063247 -0.0018005107751510943 -0.0034341403517495102 0.0066470169616462309 -0.0095338849470974971 -0.018894074993129385 0.0091368568137275806 -0.019733659080915695 -0.0061995643299093727 0.024369583058651511 -0.0085849783764947504 0.0086322337969687926 0.012918166153783389 -0.0067495519657825888 -0.0094791905455089125 0.00048289083114735025 0.010570778295010963
leaf_weight=28.966803967952728 22.390136733651161 26.459670647978783 48.710071161389351 212.79256494343281 145.77221520245075 42.906375169754028 23.432103827595711 46.477653384208679 27.969270080327988 51.961884900927544 41.976466804742813 23.21350085735321 20.488383084535599 28.481301665306091 59.426693305373192 20.454076692461967 32.206488639116287 53.170225694775581 52.162301406264305 69.350801363587379 25.458508282899857 152.82302774488926 123.75207111239433
leaf_count=116 90 106 195 853 585 172 94 186 112 208 168 93 82 114 238 82 129 213 209 278 102 612 496
internal_value=0.000433142 -0.00168278 -0.0042014 -0.0082512 0.0054676 -0.00100946 -0.000341185 0.00307175 0.000646357 -0.0051107 -0.000574456 -0.0066147 -0.00484352 -0.00872648 0.0018082 0.0114746 -0.00161906 0.00210196 0.00719982 0.000682646 0.00212149 0.00377285 0.00501481
internal_weight=1380.8 1146.52 666.288 324.629 234.282 88.51 341.659 199.011 175.579 142.648 93.9384 66.1199 95.4473 74.959 480.232 49.4209 111.836 85.3767 80.1316 430.811 361.46 302.034 276.575
internal_count=5534 4593 2669 1301 941 355 1368 797 703 571 376 265 382 300 1924 198 448 342 321 1726 1448 1210 1108
is_linear=0
shrinkage=0.02


Tree=13
num_leaves=24
num_cat=0
split_feature=14 8 9 35 20 34 0 5 32 37 7 20 21 4 33 11 28 32 20 35 4 17 10
split_gain=25.6893 26.6599 21.2373 19.9187 24.2318 20.8867 18.3154 14.5263 22.4552 16.1419 12.6277 12.6972 12.4826 12.3361 12.3001 9.26783 8.93849 13.3965 16.5646 14.9393 11.7723 10.8331 11.3317
threshold=0.0071040452457964429 -0.006594612728804349 0.037558095529675491 -0.50965282320976246 0.097144298255443587 0.42499999701976782 -0.0028269734466448422 0.059099167585372932 0.013906382955610754 0.4707170724868775 -0.002658548415638506 0.052728066220879562 1.0003687739372256 0.0077179244253784427 -1.0000000180025095e-35 0.014978094957768919 -0.036789910867810242 0.024587722495198253 0.061183480545878417 -4.0583040714263907 -0.0054060211405158034 0.67283320426940929 -0.016926479525864121
decision_type=2 2 2 2 2 2 2 2 2 2 2 2 2 2 2 2 2 2 2 2 2 2 2
left_child=1 -1 3 5 7 16 14 8 12 13 11 -10 -5 -9 -7 -12 17 19 -19 -2 21 22 -18
right_child=2 -3 -4 4 -6 6 -8 9 10 -11 15 -13 -14 -15 -16 -17 20 18 -20 -21 -22 -23 -24
leaf_value=0.0022255761578052228 0 -0.027283499026863788 0.019538033580559354 0.0080107018519906641 0.0063481065435026865 0.0089192339624740141 -9.8977680443823138e-05 -0.0096053953144844724 0.011685865082128571 0.015748364537778347 -0.0087805337308675575 -0.0059387704566494851 -0.0098726235481395499 0.0024187769260840594 0.025850949437024345 -0.02259765213343751 0.0076558584628221909 0.013266500062846803 -0.0051350410746480168 -0.022019721305937729 0.0071295743971899151 -0.0097587888747521067 -0.0032900847505900679
leaf_weight=21.220179110765457 22.450765147805214 27.865328431129456 21.540176466107368 62.408654734492302 107.0217107385397 41.319666221737862 43.3975540548563 50.19628943502903 22.722620040178299 24.70404452085495 272.80536675453186 54.656594932079315 20.2221460044384 103.62005841732025 30.632866993546486 20.933187574148178 70.010992929339409 28.963714256882668 57.661616995930672 26.479825958609581 127.82933166623116 40.898279994726181 80.910599008202553
leaf_count=85 90 112 86 250 429 166 174 201 91 99 1093 219 81 415 123 84 281 116 231 106 512 164 324
internal_value=0.000432048 -0.0145923 6.75665e-05 -0.000258429 -0.00242577 0.00254605 0.0101292 -0.0039179 -0.00581825 0.000903851 -0.00791752 -0.000695769 0.00357702 -0.00151063 0.016284 -0.00980873 0.000611065 -0.00367823 0.0010355 -0.0119898 0.00243921 -0.000686474 0.00178293
internal_weight=1380.47 49.0855 1331.39 1309.85 739.291 570.555 115.35 632.269 453.749 178.52 371.118 77.3792 82.6308 153.816 71.9525 293.739 455.205 135.556 86.6253 48.9306 319.649 191.82 150.922
internal_count=5534 197 5337 5250 2963 2287 463 2533 1818 715 1487 310 331 616 289 1177 1824 543 347 196 1281 769 605
is_linear=0
shrinkage=0.02


Tree=14
num_leaves=24
num_cat=0
split_feature=14 8 9 35 13 6 34 20 15 21 33 35 25 9 2 20 13 9 6 13 16 8 22
split_gain=24.7125 25.6892 20.4516 19.1377 23.6937 21.3818 20.0873 19.5618 18.0686 15.187 14.9419 14.0224 13.6034 18.4249 13.248 12.9232 16.6504 12.8565 12.3486 12.1127 16.3539 13.4138 10.8914
threshold=0.0071040452457964429 -0.006594612728804349 0.037558095529675491 -0.50965282320976246 0.033152600750327117 0.0021276406478136782 0.42499999701976782 0.055979873985052116 0.42699550092220312 1.0857663750648501 1.0000000180025095e-35 4.6242971420288095 0.26110535860061651 -0.00066325138323009003 0.0033138648141175513 0.040902921929955489 0.016679745167493824 0.0061255574692040691 0.0083648348227143305 0.016942312009632591 0.5963713824748994 0.030258131213486198 -0.064737223088741289
decision_type=2 2 2 2 2 2 2 2 2 2 2 2 2 2 2 2 2 2 2 2 2 2 2
left_child=1 -1 3 6 5 7 22 8 -5 17 -8 18 13 -9 -12 -13 -17 -10 19 21 -21 -7 -2
right_child=2 -3 -4 4 -6 11 10 12 9 -11 14 15 -14 -15 -16 16 -18 -19 -20 20 -22 -23 -24
leaf_value=0.0021819773835886906 -0.0019353301275263739 -0.026793697082543044 0.019190726945386954 0.0097508313170018568 0.0091386077981012899 0.0034627143845507684 0.0030292193120818895 -0.0061352387602993767 0.0040530569185333451 -0.013982953734126641 0.024908966791238798 0.019283748593577624 -0.002895091922781581 -0.022274507894587556 0.0042366654904696767 -0.012534852236916761 0.0059331550429193008 -0.013281340261330961 -0.012952405818804198 0.012603163384635373 -0.0045405966388660261 -0.016353937753751512 0.0043639726363449731
leaf_weight=21.221281170845032 271.89865003526211 27.816843897104263 21.500845342874527 38.202303811907768 64.61439935863018 23.222890689969063 60.752848222851753 49.638656705617905 64.671886295080185 53.684072658419609 34.596262410283089 20.675980970263481 48.608530417084694 68.251964598894119 19.940310329198837 23.732708424329758 99.554845452308655 22.698339879512787 41.950062826275826 43.46737514436245 44.463178515434265 31.718808963894844 183.25666654109955
leaf_count=85 1090 112 86 153 259 93 244 199 259 215 139 83 195 274 80 95 399 91 168 174 178 127 734
internal_value=0.000428881 -0.0143186 6.64888e-05 -0.000253168 -0.00237781 -0.00348988 0.00249601 -0.00695854 -0.00234892 -0.00566294 0.00993492 0.00015676 -0.0118875 -0.0155505 0.017494 0.00483333 0.00232566 -0.000477519 -0.00347838 -0.000647199 0.00393493 -0.00798603 0.00059854
internal_weight=1380.14 49.0381 1331.1 1309.6 739.156 674.542 570.445 345.756 179.257 141.054 115.289 328.786 166.499 117.891 54.5366 143.964 123.288 87.3702 184.822 142.872 87.9306 54.9417 455.155
internal_count=5534 197 5337 5250 2963 2703 2287 1386 718 565 463 1317 668 473 219 577 494 350 740 572 352 220 1824
is_linear=0
shrinkage=0.02


Tree=15
num_leaves=24
num_cat=0
split_feature=20 8 34 9 14 20 11 37 24 20 20 9 15 15 25 8 24 25 24 14 12 12 11
split_gain=28.9612 33.1178 24.1617 23.7361 18.2264 17.4058 27.154 19.3862 15.4936 14.403 16.913 25.9401 13.3508 13.2063 13.0538 12.9755 12.9194 11.6288 11.3731 10.5341 12.5427 10.3797 10.3743
threshold=0.098246589303016676 -0.048696894198656075 0.22500000149011615 0.01483375020325184 0.018629212863743309 0.052078934386372573 0.00068677467061206709 0.45822055637836462 1.0025027990341189 0.030980550684034828 0.037937378510832793 0.009279601741582157 0.48960503935813909 0.31712715327739721 0.15806396305561068 0.09298014268279077 1.2923288941383364 0.34352985024452215 1.3169390559196474 0.023282342590391639 -4.3267254829406729 -0.24728395044803617 0.00031222903635352855
decision_type=2 2 2 2 2 2 2 2 2 2 2 2 2 2 2 2 2 2 2 2 2 2 2
left_child=1 4 21 5 -1 9 7 14 19 -3 22 17 -9 -4 -7 -15 -8 -12 -6 20 -5 -2 -11
right_child=2 3 13 8 18 6 16 12 -10 10 11 -13 -14 15 -16 -17 -18 -19 -20 -21 -22 -23 -24
leaf_value=0.021584043615359556 0.0048919523728401873 -0.0070503045215633284 0.025450408663507364 0.015553113816681794 -0.00044447653686025159 -0.010795254860677705 -0.015637170967026607 8.1399630786130439e-05 0.010623624384653894 0.00086992394295285489 0.0032599065346117628 -0.017507285657890195 0.017997478919178543 0.0051616286473817885 0.0046000931498983129 0.020243540936431294 0.0013543522919350606 -0.0092074807178819038 0.01618671905805355 -0.012322900205518905 -0.0031295703680384972 -0.010188589817488413 0.013604895929674728
leaf_weight=30.983445435762405 32.682790711522102 126.20225161314011 20.229273155331612 20.480127722024918 64.831934496760368 110.77866096794605 138.57742382586002 85.607177421450615 78.851825088262558 49.154757753014565 152.04049606621265 36.452492788434029 20.220780521631241 115.0036890655756 26.96196623146534 28.389816030859947 20.210704326629639 36.700470462441444 21.42940066754818 25.207670718431473 44.939791932702065 39.915440529584885 53.854655623435974
leaf_count=124 131 506 81 82 260 444 556 343 316 197 609 146 81 463 108 114 81 147 86 101 180 160 216
internal_value=0.00069861 -0.00150419 0.00618086 -0.00265718 0.00853937 -0.00401108 -0.00703911 -0.00282307 0.00416704 -0.00132071 0.000883754 -0.0021808 0.00359201 0.0104348 -0.00776149 0.00822149 -0.0134645 0.000807146 0.00373354 -0.00145613 0.00276243 -0.00338514 0.00758081
internal_weight=1379.71 1143.49 236.221 1026.24 117.245 856.762 402.357 243.569 169.479 454.405 328.203 225.193 105.828 163.623 137.741 143.394 158.788 188.741 86.2613 90.6276 65.4199 72.5982 103.009
internal_count=5534 4584 950 4113 471 3434 1613 976 679 1821 1315 902 424 659 552 577 637 756 346 363 262 291 413
is_linear=0
shrinkage=0.02


Tree=16
num_leaves=24
num_cat=0
split_feature=20 8 6 20 34 6 37 6 22 11 21 34 16 22 25 10 37 30 4 26 17 8 34
split_gain=27.8455 31.8414 37.3974 28.9606 23.2463 21.3646 21.034 27.9902 17.3305 18.0647 18.6947 14.187 17.7738 12.3262 11.9794 11.8 11.4989 11.3524 11.2694 10.7142 10.6968 11.2553 10.2647
threshold=0.098246589303016676 -0.048696894198656075 0.0013357336865738036 0.051692068576812751 0.22500000149011615 -0.0068723207805305711 0.45822055637836462 -0.0015138663002289829 -0.024924236349761483 -0.0002564362075645476 1.0857663750648501 0.4083333313465119 0.42594818770885473 -0.0086774793453514559 -0.64560216665267933 -0.00097966979956254341 0.46239832043647772 0.28207124769687658 0.0018014505039900543 -0.0093750655651092512 0.24833385646343234 0.09298014268279077 0.94166666269302379
decision_type=2 2 2 2 2 2 2 2 2 2 2 2 2 2 2 2 2 2 2 2 2 2 2
left_child=1 5 3 8 -2 -1 18 19 11 -10 15 14 -13 -4 -3 -11 -7 -9 -5 -8 -6 -22 -15
right_child=4 2 13 6 20 16 7 17 9 10 -12 12 -14 22 -16 -17 -18 -19 -20 -21 21 -23 -24
leaf_value=-0.0037842326752594484 -0.0033177556049556788 0.011397777573405632 0.00022549665412220835 -0.011264190601609428 0.02125125386774154 0.018909366785868173 -0.002983197412371446 0.016482861771751539 -0.023110047998842049 0.0087077969958804808 -0.014849499968769813 0.022015902614040295 0.00016998830483138004 0.0034859061969602268 -0.0060094621124305251 -0.0060441015765121103 0.0015334410028523737 -0.0027476736750304182 -0.022471054218336475 -0.02077908300257417 0.0048655732755981491 0.019423608438283071 0.019770871739395516
leaf_weight=38.388652130961418 72.594946905970573 19.966369912028313 398.94277119636536 100.06781008839607 28.882176041603088 57.659577444195747 23.699568867683411 24.952635899186134 22.10090047121048 44.697589412331581 39.924466952681541 27.944048926234245 31.686681181192398 43.409237504005432 68.676944822072983 41.112418293952942 21.117644429206848 23.19605253636837 58.878040164709091 32.615631178021431 108.23378376662731 26.34845444560051 24.156874373555183
leaf_count=154 292 80 1598 402 116 232 95 100 89 179 160 112 127 174 275 165 85 93 236 131 436 106 97
internal_value=0.000691711 -0.00147408 -0.00260455 -0.00608955 0.00606378 0.00837751 -0.010909 -0.00388592 -0.00178444 -0.0066237 -0.00362992 0.00303311 0.0105386 0.00157304 -0.00202421 0.00162278 0.0143157 0.00724425 -0.0154855 -0.0134173 0.0102397 0.00779189 0.00944011
internal_weight=1379.25 1143.19 1026.03 559.519 236.059 117.166 263.41 104.464 296.109 147.835 125.734 148.274 59.6307 466.509 88.6433 85.81 78.7772 48.1487 158.946 56.3152 163.464 134.582 67.5661
internal_count=5534 4584 4113 2244 950 471 1057 419 1187 593 504 594 239 1869 355 344 317 193 638 226 659 542 271
is_linear=0
shrinkage=0.02


Tree=17
num_leaves=24
num_cat=0
split_feature=4 8 13 6 13 33 27 10 12 13 34 26 0 26 13 19 27 27 34 24 21 3 37
split_gain=25.8243 28.5228 28.23 24.3581 27.3742 20.6053 20.6549 21.5677 18.5056 11.798 10.5831 10.5002 11.7494 10.394 12.7677 21.5801 11.0022 11.3593 9.99625 15.82 16.5971 9.94183 9.72983
threshold=0.021374639123678211 -0.048696894198656075 0.01927111949771643 0.0013357336865738036 0.033491671085357673 -0.56174489110708226 -0.0064491641242057076 0.0025623948313295846 13.096437931060793 0.018869919702410701 0.19166667014360431 -0.036186899989843362 -0.0079062567092478258 -0.05488153733313083 0.012471856549382212 0.021487643010914329 -0.019704003818333145 -0.014277275186032055 0.058333335444331176 1.3585711121559145 1.3879030346870425 -0.013514122925698755 0.45822055637836462
decision_type=2 2 2 2 2 2 2 2 2 2 2 2 2 2 2 2 2 2 2 2 2 2 2
left_child=1 2 -1 4 5 9 -7 10 -4 11 -8 -3 -13 -5 22 -16 -17 -18 -19 20 -20 -9 -15
right_child=-2 3 8 13 -6 6 7 21 -10 -11 -12 12 -14 14 15 16 17 18 19 -21 -22 -23 -24
leaf_value=0.026970033245361895 0.016776878936442887 -0.018190029821915938 0.0057481943286447424 -0.010739254993840775 0.014484327773819656 -0.011980783533728879 -0.0056480685283575513 0.0013767783374445835 -0.012816133873108988 -0.01668707664131688 0.0040264124391515086 0.0097079173808791459 -0.0083401752991526714 0.01799581144993341 -0.018049151251412331 -0.0054739129909647556 0.016618422038857904 0.013696105551216487 0.00095647161244411709 0.012964658020505374 -0.017128710734108446 -0.015097185601043481 0.00041779731065847385
leaf_weight=22.401537850499153 34.517820477485657 20.450301215052605 175.67671199142933 26.719702914357185 28.048903554677963 83.93417452275753 57.90922375023365 19.923913404345512 23.931096449494362 85.406582534313202 198.75454734265804 22.224656194448471 38.895278558135033 32.141580879688263 22.469704613089561 67.613179370760918 23.457340151071548 27.699612200260162 232.7921631783247 39.155755311250687 21.723714888095856 51.972158089280128 20.935608580708504
leaf_count=90 139 82 706 107 113 337 232 80 96 343 797 89 156 129 90 271 94 111 933 157 87 209 84
internal_value=0.000684396 -0.000619833 0.00591994 -0.00191743 -0.00462868 -0.00556897 -0.00315566 -0.000880329 0.00348605 -0.0114916 0.00182911 -0.00595881 -0.00171948 0.00128021 0.00195274 0.000811935 0.00186493 0.00331555 0.00231404 0.00121221 -0.000609869 -0.0105263 0.0111683
internal_weight=1378.76 1344.24 222.009 1122.23 607.52 579.471 412.494 328.56 199.608 166.977 256.664 81.5702 61.1199 514.708 487.989 434.911 412.442 344.829 321.371 293.672 254.516 71.8961 53.0772
internal_count=5534 5394 893 4501 2438 2325 1655 1318 802 670 1029 327 245 2063 1956 1743 1653 1382 1288 1177 1020 289 213
is_linear=0
shrinkage=0.02


Tree=18
num_leaves=24
num_cat=0
split_feature=20 20 20 8 34 13 24 8 0 8 10 9 33 25 27 18 18 20 26 19 8 27 1
split_gain=21.5797 15.5012 20.443 21.2005 18.3525 17.5492 14.8995 14.7562 13.2332 14.5009 13.0781 24.2283 17.1745 22.7644 15.9433 15.4698 17.315 14.9746 14.7491 13.5915 12.3753 11.3028 11.1472
threshold=0.030008081346750263 0.097144298255443587 0.036977834999561317 -0.047399364411830895 0.52500000596046459 0.019355324096977714 0.67120635509490978 -0.0070280875079333774 0.017841196618974212 0.014769417233765127 0.011576276738196613 0.0061255574692040691 -0.56174489110708226 0.25474873185157781 -0.015749470330774781 0.53230634331703197 0.12230033427476884 0.047200195491313941 0.010557765141129495 0.024473905563354496 0.0069344092626124629 0.027815131470561031 -94.485000610351548
decision_type=2 2 2 2 2 2 2 2 2 2 2 2 2 2 2 2 2 2 2 2 2 2 2
left_child=20 2 7 5 6 -4 -3 -2 9 -9 11 12 13 17 -14 16 -13 -5 -12 -16 -1 -8 -21
right_child=1 4 3 10 -6 -7 21 8 -10 -11 18 15 14 -15 19 -17 -18 -19 -20 22 -22 -23 -24
leaf_value=-0.0045632616083986135 -0.0043947885122059089 0.015356155850910064 0.023228530907068123 0.0042246559611461201 0.011071089725638847 0.0031235560901668497 0.00024720486278794027 0.015880423393389714 0.023837683874372601 -0.0062456743626538129 -0.0023987853320410401 -0.0042970057895817104 -0.013788242241965619 0.010612495408553342 -0.0076190298836934468 -0.0027760479236723168 -0.023586630060197657 -0.014243815212997103 0.0080229583294227601 -0.0041927600021135951 -0.020283490878913561 -0.016220019375756404 0.0064508848295015322
leaf_weight=93.260948464274406 26.437523081898689 21.16636723279953 20.854130998253822 20.979534089565277 117.7642514705658 96.169223964214325 89.688986375927925 26.685163930058479 27.364925131201744 20.465576410293579 133.30623637139797 29.598139733076096 26.159981414675713 22.964003190398216 45.152531668543816 53.059000089764595 52.259101182222366 97.19194932281971 90.789416387677193 48.887719184160233 25.39206850528717 19.913509324193001 191.63920846581459
leaf_count=374 106 85 84 84 474 387 360 107 110 82 534 119 105 92 181 213 210 390 364 196 102 80 768
internal_value=0.000621219 0.000883543 -0.00019716 -0.00112939 0.00536159 0.00680696 0.000182067 0.0083252 0.012864 0.00626995 -0.00227913 -0.00384642 -0.00162032 -0.00739752 0.000995631 -0.0112721 -0.0167046 -0.0109442 0.001823 0.00237812 -0.00801522 -0.00278661 0.00427503
internal_weight=1397.15 1278.5 1029.96 929.01 248.533 117.023 130.769 100.953 74.5157 47.1507 811.987 587.891 452.975 141.135 311.839 134.916 81.8572 118.171 224.096 285.679 118.653 109.602 240.527
internal_count=5609 5133 4132 3727 1001 471 525 405 299 189 3256 2358 1816 566 1250 542 329 474 898 1145 476 440 964
is_linear=0
shrinkage=0.02


Tree=19
num_leaves=24
num_cat=0
split_feature=20 20 20 34 19 20 11 11 10 6 13 27 35 27 6 22 15 27 34 37 13 6 20
split_gain=20.7426 14.8984 19.6541 17.6552 15.3984 14.9094 21.0664 19.752 15.7569 28.3003 31.1988 19.9747 13.2802 12.1375 12.072 15.609 12.0463 11.6742 11.4347 11.4998 10.9299 10.1052 12.0473
threshold=0.030008081346750263 0.097144298255443587 0.036977834999561317 0.52500000596046459 0.11020770668983461 0.08241071924567224 0.014245968312025072 0.010813423432409765 -0.00010688721522456034 0.0029022740200161938 0.017920400016009811 -0.013150103390216826 5.6437430381774911 0.035355690866708762 -0.00046274338092189277 -0.018505021929740902 0.45946906507015234 0.0094315870665013807 0.17500000447034839 0.4551557749509812 0.032884409651160247 0.0097263688221573847 0.12649099528789523
decision_type=2 2 2 2 2 2 2 2 2 2 2 2 2 2 2 2 2 2 2 2 2 2 2
left_child=-1 2 14 13 5 6 8 -7 11 -10 12 -4 -11 20 -2 -16 -5 -13 -12 -20 -3 22 -18
right_child=1 3 4 16 -6 7 -8 -9 9 10 18 17 -14 -15 15 -17 21 -19 19 -21 -22 -23 -24
leaf_value=-0.0078591742515838579 -0.0014946589250947914 0.014801218505338984 -0.011563818529810603 0.023154290058500396 0.0094530884952437506 -0.01285106816249084 -0.017883001358768039 0.0075421780426744404 -0.0083474709837167774 -0.011799800349735103 0.018963885004948625 0.0076587746711739169 0.0044847844069209409 -0.013779959505537804 0.0025677629955629284 0.021987154781275182 0.010500088610873728 -0.0012475543372337061 -0.0017223946384671142 0.011024550359342711 -0.00044089775578508408 0.019406544504961484 -0.0060764140195039206
leaf_weight=118.62563447654247 33.920200824737549 23.429694980382919 31.841782838106155 24.847343549132347 51.587710350751877 88.66648331284523 27.111740097403526 23.649578243494034 189.24303226172924 65.65890346467495 29.429889753460884 198.04419592022896 28.200362861156464 20.416297569870949 31.188414812088013 35.796905294060707 42.488946884870529 82.990929067134857 53.424190923571587 58.893608957529068 86.919484078884125 21.268684938549995 29.038916826248169
leaf_count=476 136 94 128 101 207 356 109 95 759 263 118 795 113 82 125 144 171 333 214 236 349 86 117
internal_value=0.000620074 0.000866328 -0.000193197 0.00525762 -0.00110736 -0.00173576 -0.000731251 -0.00852489 -8.65235e-05 -0.00259627 0.0020226 0.00331375 -0.006888 0.000178416 0.00816511 0.0130611 0.0108618 0.00502405 0.00794035 0.00496295 0.00282948 0.00744242 0.00374712
internal_weight=1396.68 1278.06 1029.65 248.409 928.742 877.155 764.839 112.316 737.727 424.85 235.607 312.877 93.8593 130.765 100.906 66.9853 117.644 281.035 141.748 112.318 110.349 92.7965 71.5279
internal_count=5609 5133 4132 1001 3727 3520 3069 451 2960 1704 944 1256 376 525 405 269 476 1128 568 450 443 375 288
is_linear=0
shrinkage=0.02


Tree=20
num_leaves=24
num_cat=0
split_feature=20 20 20 14 8 14 24 8 0 8 8 23 12 11 27 28 10 10 10 15 12 33 22
split_gain=19.9314 14.3283 18.8944 21.7595 20.1754 18.7887 15.8243 13.833 12.5025 14.0189 11.9238 11.0701 10.8869 11.01 10.6418 15.4795 15.4122 11.3317 13.2567 10.4799 10.1189 17.9801 10.3708
threshold=0.030008081346750263 0.097144298255443587 0.036977834999561317 0.0082585434429347532 -0.047399364411830895 0.018095655366778377 1.3037504553794863 -0.0070280875079333774 0.017841196618974212 0.014769417233765127 0.0069344092626124629 0.19398537278175357 12.409941196441652 -0.01478773634880781 -0.019704003818333145 0.030626775696873668 0.0049736676737666139 0.011576276738196613 -0.00097966979956254341 0.32324008643627172 3.7215285301208501 -0.56174489110708226 -0.0091179623268544657
decision_type=2 2 2 2 2 2 2 2 2 2 2 2 2 2 2 2 2 2 2 2 2 2 2
left_child=10 2 7 -4 5 -5 -7 -2 9 -9 -1 12 13 -3 16 20 -6 18 -17 -15 22 -22 -16
right_child=1 11 3 4 14 6 -8 8 -10 -11 -12 -13 -14 19 15 17 -18 -19 -20 -21 21 -23 -24
leaf_value=-0.0043173262045989548 -0.0043025337579244462 -0.0026240770605047178 -0.02103872043164675 0.022418227395471696 -0.018141482884416922 -0.0020828464507979326 0.01677867892584952 0.015458096428718249 0.023091750267105322 -0.0063009452027322482 -0.019752945056175295 -0.0085776151353972579 -0.0043935142322686959 0.02359549073015384 -0.0038013982852288988 0.014069055168062039 -0.0010169495171035482 0.017064322539233887 -0.0047473789681113533 0.0082832350808475126 -0.01002327453896964 0.010001746648642498 0.0086624338496948117
leaf_weight=93.235838919878006 26.440150707960129 31.123006999492645 20.865448132157326 24.833444654941559 36.527279585599899 67.002467751502991 23.622268930077553 26.660584986209869 27.294002965092659 20.462502628564835 25.364338859915733 20.925079599022865 31.377908691763878 20.414810001850128 499.62472829222679 22.708836868405342 49.399827137589455 28.397249385714531 41.593357980251312 144.41054584085941 24.677060186862946 61.613418474793434 27.655048206448555
leaf_count=374 106 125 84 100 147 269 95 107 110 82 102 84 126 82 2004 91 198 114 167 583 99 247 111
internal_value=0.000619485 0.000849824 -0.000189174 -0.00108555 -0.000613323 0.00717563 0.00287674 0.008008 0.0124081 0.00600061 -0.00770431 0.0051578 0.00644696 0.00819982 -0.00175485 -0.000940321 -0.0083825 0.00665031 0.00192421 0.0102575 -0.00209487 0.00422726 -0.00313631
internal_weight=1396.23 1277.63 1029.38 928.52 907.655 115.458 90.6247 100.857 74.4171 47.1231 118.6 248.251 227.326 195.948 792.197 706.27 85.9271 92.6994 64.3022 164.825 613.57 86.2905 527.28
internal_count=5609 5133 4132 3727 3643 465 364 405 299 189 476 1001 916 790 3178 2833 345 372 258 665 2461 346 2115
is_linear=0
shrinkage=0.02


Tree=21
num_leaves=24
num_cat=0
split_feature=28 37 20 20 8 20 6 4 9 20 8 28 1 6 27 6 5 6 16 37 8 1 16
split_gain=23.2744 14.4755 14.404 26.7418 16.4648 23.8775 21.2004 20.4347 22.36 18.4994 15.6522 13.4428 14.2778 12.8296 12.6896 12.2222 11.9328 18.7461 11.8623 11.5968 11.5564 10.487 10.1547
threshold=-0.049229187890887253 0.46239832043647772 0.030008081346750263 0.037937378510832793 -0.048696894198656075 0.11084560304880144 0.0021276406478136782 0.0023542384151369338 -0.0069404931273311368 0.080943603068590178 0.1211652234196663 0.020758252590894703 -46.86500167846679 -0.00078727246727794398 0.0039552734233438977 -0.00074784739990718652 0.10878686234354974 -0.0017679093289189038 0.52859729528427135 0.46239832043647772 -0.0049022431485354892 -60.635000228881829 0.42331928014755255
decision_type=2 2 2 2 2 2 2 2 2 2 2 2 2 2 2 2 2 2 2 2 2 2 2
left_child=1 -1 15 13 9 6 7 8 -6 -5 -8 12 -11 -4 21 -2 17 -7 -17 -15 -10 -9 -3
right_child=2 22 3 4 5 16 10 14 20 11 -12 -13 -14 19 -16 18 -18 -19 -20 -21 -22 -23 -24
leaf_value=-0.011310470572625212 0.0027354253949981792 0.010513277523863114 -0.00027227714724440913 0.014826848209205131 -0.0089598915503304628 0.019212664314397287 0.0025545986394431915 -0.025610368724544644 0.0091832811618203988 0.0083549833661124978 -0.01530738659208585 0.016037934191530434 -0.0066645389229652921 0.020791738430380388 -0.00057302594148066395 -0.019854718956856345 0.02102286487182926 -0.0038178043593132035 -0.0015693564223336917 0.0045182477404714294 -0.0020923491506668885 -0.01087361089214803 -0.007839977609477803
leaf_weight=114.25658093392849 32.691785082221031 24.89344485104084 30.436861529946327 58.521330788731575 98.26358699798584 21.249584630131721 325.45403434336185 24.791787788271904 70.030550792813301 38.241794049739838 20.363458976149559 20.393894672393799 72.384942531585693 49.260125339031219 37.041144922375679 34.6168212890625 23.492192715406418 39.769912540912628 24.391521245241165 28.099121481180191 74.279948979616165 95.616596639156342 22.403728559613228
leaf_count=459 131 100 122 236 394 86 1305 100 281 154 82 82 291 198 149 139 95 160 98 113 298 385 90
internal_value=0.000532156 -0.00747004 0.000596611 0.00121904 0.000213555 -0.000999247 -0.00214478 -0.00527822 -0.00161957 0.00552582 0.00147644 0.00131567 -0.00144031 0.0106688 -0.0108793 -0.00700113 0.00904004 0.00426084 -0.0124066 0.0149734 0.00337846 -0.0140178 0.00178679
internal_weight=1380.94 161.554 1219.39 1127.69 1019.89 830.353 745.841 400.024 242.574 189.542 345.817 131.021 110.627 107.796 157.45 91.7001 84.5117 61.0195 59.0083 77.3592 144.31 120.408 47.2972
internal_count=5550 649 4901 4533 4100 3336 2994 1607 973 764 1387 527 445 433 634 368 342 246 237 311 579 485 190
is_linear=0
shrinkage=0.02


Tree=22
num_leaves=24
num_cat=0
split_feature=26 4 9 13 20 34 13 24 20 13 35 20 23 16 16 4 14 2 12 32 23 31 32
split_gain=26.1542 12.6165 26.9684 21.7479 32.9226 17.1108 19.8672 17.1039 15.5898 24.4263 14.5253 13.2972 12.4293 13.0262 12.1133 11.7851 11.5921 11.5696 11.0339 10.1033 10.0048 11.9512 9.90295
threshold=-0.045336565002799027 -0.0005485425645019858 0.010777035262435676 0.031982298940420158 0.052728066220879562 0.32500000298023229 0.032458873465657241 0.85132938623428356 0.041701324284076698 0.016679745167493824 3.9702211618423466 0.044061629101634033 0.027603956870734695 0.42933370172977453 0.38148306310176855 0.0071661006659269342 0.0088055883534252661 -0.012009023688733576 0.98322087526321422 0.010387557558715345 0.065796896815300002 0.022394959814846519 0.014679334592074158
decision_type=2 2 2 2 2 2 2 2 2 2 2 2 2 2 2 2 2 2 2 2 2 2 2
left_child=19 5 3 4 7 6 12 16 -4 -10 11 -9 13 -2 -7 -6 -3 -11 -8 -1 -19 -22 -18
right_child=1 2 8 -5 15 14 18 10 9 17 -12 -13 -14 -15 -16 -17 22 20 -20 -21 21 -23 -24
leaf_value=-0.019239550748684265 0.0026124790043709403 -0.0028630148523752781 0.018301553353163847 0.011995051112391016 -0.0099314187919511947 0.014851211549694248 0.00033276658603605602 -0.013170482058748987 -0.013948127289769475 -0.010145995462054247 0.0064244179788973278 0.0038818022081438322 0.0090053220857216672 -0.011811248838752862 0.0042432515677947305 -0.025021503895117411 0.023968640324319442 0.015002770719870205 -0.015253248551646663 -0.0055891797282448452 0.0017325970424800902 0.016875331798861748 0.0048312606135873367
leaf_weight=25.52050693333149 112.35287319123745 25.60729643702507 25.294882491230965 29.213752806186676 149.40472450852394 63.216461360454559 30.411251157522202 68.299335286021233 33.169679656624794 20.121529385447502 34.605131283402443 24.434117928147316 85.921204656362534 31.671638190746307 137.46042616665363 24.239954397082329 20.452347904443741 36.677003845572472 43.664489880204201 142.45580218732357 169.20392541587353 23.386574849486351 23.688319534063339
leaf_count=103 451 103 102 117 601 255 122 274 133 81 139 98 345 127 553 98 82 148 175 572 682 94 95
internal_value=0.000529214 0.000683131 -0.00103735 -0.0044622 -0.00577884 0.00309857 9.76076e-05 -0.000169482 0.00340554 0.002035 -0.00453542 -0.00865924 0.0030076 -0.000575414 0.00762348 -0.0121152 0.00774846 0.00419248 -0.00886838 -0.00772588 0.00547893 0.0036207 0.0139124
internal_weight=1380.47 1212.5 707.799 399.945 370.731 504.698 304.021 197.087 307.854 282.559 127.339 92.7335 229.946 144.025 200.677 173.645 69.748 249.389 74.0757 167.976 229.268 192.591 44.1407
internal_count=5550 4875 2847 1608 1490 2028 1220 791 1239 1137 511 372 923 578 808 699 280 1004 297 675 923 776 177
is_linear=0
shrinkage=0.02


Tree=23
num_leaves=24
num_cat=0
split_feature=26 8 10 27 13 34 7 28 13 27 34 1 13 19 29 26 32 37 16 26 0 23 22
split_gain=25.138 12.3042 15.6939 17.4266 15.6255 14.474 13.9731 13.543 13.3782 17.8637 12.5464 9.7899 12.8224 11.6131 9.96741 11.8389 9.73736 9.60385 9.00914 8.7863 8.76159 8.65385 12.0344
threshold=-0.045336565002799027 -0.048696894198656075 0.0079789310693740862 -0.019704003818333145 0.030607880093157295 0.29166667163372045 0.0055788406170904645 0.026066899299621586 0.013596842531114818 0.0041545841377228507 0.92500001192092907 29.204999923706058 0.015907461754977707 0.043364385142922408 0.29244388639926916 0.0032233940437436108 0.010387557558715345 0.44182041287422186 0.48658549785614019 0.017591888085007671 0.082910567522048964 0.016276735812425617 -0.069595735520124422
decision_type=2 2 2 2 2 2 2 2 2 2 2 2 2 2 2 2 2 2 2 2 2 2 2
left_child=16 4 3 7 -2 -6 21 -3 -8 19 11 12 -4 -13 15 -14 -1 -12 -7 -10 -19 22 -5
right_child=1 2 10 6 5 18 8 -9 9 -11 17 13 14 -15 -16 -17 -18 20 -20 -21 -22 -23 -24
leaf_value=-0.018887167877683114 0.011817655866721734 0.00061758594950659632 -0.0069980259495891345 -0.013130854116470927 -0.0068766407886888259 0.015159796332983595 0.0034437749189134858 -0.01703639914712678 -0.017513824598528682 0.0042056309308788255 0.0006157730067892043 0.0074001916395572591 -0.0079665523013213932 -0.0090518221179919662 0.0097573763396320342 0.010457197536693486 -0.0054780414507607364 0.023510837864340824 -0.0012472285824577582 -0.0049315162439801195 0.0069075479688841144 0.0030485802047788995 0.0008192179757552275
leaf_weight=25.486384198069572 83.043959140777588 26.09148371219635 36.618373036384583 34.926435530185699 54.85675373673439 28.850661933422089 48.026125952601433 50.125535637140274 62.840148732066154 31.340160563588142 28.517640426754951 23.148688867688179 34.590850695967674 61.685193836688995 102.49287876486778 22.639658197760582 142.4492321908474 25.284187063574791 24.098591834306717 35.759716719388962 27.138754159212112 288.99445949494839 81.032221466302872
leaf_count=102 335 105 147 140 221 117 193 202 253 126 115 93 139 248 412 91 573 102 97 144 110 1160 325
internal_value=0.000524915 0.000670124 -0.000199952 -0.00203903 0.00532477 0.000273313 -0.000855238 -0.0110022 -0.00551994 -0.00884878 0.00314028 0.00112798 0.00358464 -0.00452205 0.00603759 -0.000616262 -0.00757495 0.0100563 0.0077133 -0.0130186 0.0150998 0.00119412 -0.00340367
internal_weight=1380.04 1212.1 1021.25 659.136 190.85 107.806 582.919 76.217 177.966 129.94 362.116 281.176 196.342 84.8339 159.723 57.2305 167.936 80.9406 52.9493 98.5999 52.4229 404.953 115.959
internal_count=5550 4875 4105 2648 770 434 2341 307 716 523 1457 1130 789 341 642 230 675 327 214 397 212 1625 465
is_linear=0
shrinkage=0.02


Tree=24
num_leaves=24
num_cat=0
split_feature=20 13 6 32 24 1 25 6 6 7 20 8 6 20 8 8 14 25 8 24 1 35 23
split_gain=30.0066 24.3436 18.9493 15.3696 15.2067 12.9166 15.0284 14.5266 13.3323 26.9646 14.0141 18.7086 21.415 12.2156 10.8039 23.8892 21.5953 15.3874 11.4171 11.7256 15.0597 10.0717 22.7388
threshold=0.099146209657192244 0.065753277391195311 -0.012169393245130776 0.0072704164776951083 1.0790852308273318 -155.08000183105466 -0.66220033168792714 -0.0041842178907245389 0.0021276406478136782 0.019376908428967003 0.047563564032316215 -0.049599109217524522 -0.0066374801099300376 0.032289011403918273 -0.016452196985483166 -0.0042452965863049022 0.022139037959277633 0.2211704030632973 -0.025371336378157135 0.70553144812583934 72.364997863769545 5.5676124095916757 0.041152592748403556
decision_type=2 2 2 2 2 2 2 2 2 2 2 2 2 2 2 2 2 2 2 2 2 2 2
left_child=3 2 -2 -1 -4 -5 7 -7 9 10 13 12 -12 -8 18 -16 17 -17 19 -13 -21 22 -10
right_child=1 -3 4 5 -6 6 8 -9 21 -11 11 14 -14 -15 15 16 -18 -19 -20 20 -22 -23 -24
leaf_value=-0.014657986017965172 0.024022550328385593 -0.012374791038488415 0.010483915314583033 -0.0093059456100017725 -0.0018843518033481127 0.02186029972908073 -0.0033382779899655489 0.0027167706997686435 0.0065039442620206233 -0.015960076099793857 -0.0094881078364447285 0.0043181632459180358 0.011357066918214509 0.0059983064982517811 0.0087262853483448324 -0.023545259374533074 0.0066469527984018987 -0.0019781890591800736 -0.023864084850729845 -0.0045872502701309768 -0.025977533977341542 0.0071365142046616106 -0.0057382806043592503
leaf_weight=33.456400617957115 27.79274719953537 23.826240658760071 117.04770454764366 69.4607814848423 59.509757474064827 21.092083945870399 94.390590161085129 61.581261768937111 109.24808250367641 57.154225245118141 30.620049446821213 21.182387068867683 53.148889869451523 136.02018877863884 42.585879102349281 37.972344532608986 22.895569995045662 20.642992585897446 24.892922550439835 34.374730736017227 21.422691464424133 104.67422191798687 135.22852468490601
leaf_count=134 112 96 473 279 240 85 379 247 438 230 124 85 214 546 171 153 92 83 100 138 86 420 542
internal_value=0.000835444 0.00654161 0.00878176 -0.00140093 0.00631027 -0.000988897 -0.00042135 0.00772687 -0.00113892 -0.0029542 -0.00156083 -0.00433854 0.00370271 0.00216585 -0.00732993 -0.00332414 -0.00965917 -0.0160646 -0.01215 -0.00820663 -0.0129931 0.0019606 -0.000257384
internal_weight=1360.22 228.176 204.35 1132.04 176.557 1098.59 1029.13 82.6733 946.454 597.303 540.149 309.738 83.7689 230.411 225.97 124.097 81.5109 58.6153 101.873 76.9798 55.7974 349.151 244.477
internal_count=5471 922 826 4549 713 4414 4135 332 3803 2402 2171 1246 338 925 908 499 328 236 409 309 224 1401 980
is_linear=0
shrinkage=0.02


Tree=25
num_leaves=24
num_cat=0
split_feature=20 32 1 25 27 8 6 2 0 20 25 35 20 25 20 4 4 6 5 20 35 23 20
split_gain=28.848 14.7862 12.41 14.4532 14.056 19.7579 13.9975 13.4654 16.3125 12.3644 11.9174 24.4136 15.6225 11.7431 11.7104 10.454 9.97363 20.7406 12.1863 11.4435 9.88017 9.79605 9.5972
threshold=0.099146209657192244 0.0072704164776951083 -155.08000183105466 -0.66220033168792714 -0.017990968190133568 0.0069344092626124629 -0.0041842178907245389 0.0006930350500624628 0.030180423520505432 0.039031265303492553 0.41234180331230169 4.4882788658142099 0.055051624774932868 -0.22158837318420407 0.030398272909224037 -0.013985754456371067 0.00061685332912020396 0.0027682094369083647 -0.0095358937978744489 0.080127656459808363 -0.5956624150276183 0.13596501946449283 0.057277815416455276
decision_type=2 2 2 2 2 2 2 2 2 2 2 2 2 2 2 2 2 2 2 2 2 2 2
left_child=1 -1 -3 6 5 -5 -4 8 -6 14 16 12 -12 -2 -9 -15 19 18 -18 -11 -17 -22 -13
right_child=13 2 3 4 7 -7 -8 9 -10 10 11 22 -14 15 -16 20 17 -19 -20 -21 21 -23 -24
leaf_value=-0.014383790451272598 0.0016733524956466998 -0.0091230718544562089 0.02146601967917984 -0.016753412654855769 -0.0016310585220729497 -0.00011791888258517456 0.0026629345740493715 0 -0.016608148031388194 0.01135964929838359 -0.026524856814775368 -0.0035013179855083228 -0.0033181748701658904 -0.0020568561119347186 0.014756226559812454 0.026075842601965969 0.0047443750644570563 0.0071382954950738788 -0.013155991531649385 -0.0047431292593258173 0.0033327207984445118 0.017622728949730864 0.01516332836893978
leaf_weight=33.422160238027573 109.83026480674744 69.446237608790398 21.059413909912109 51.77150622010231 377.24018421769142 63.505530834197998 61.579837903380394 36.154430702328682 31.094622001051903 76.547698572278023 24.439195618033409 23.414631173014641 22.414664909243584 20.555316612124443 53.556871190667152 19.791597858071327 20.907960131764412 70.774735018610954 52.067592725157738 22.39170803129673 41.312944605946541 36.52046512067318 19.863455936312675
leaf_count=134 444 279 85 208 1515 256 247 145 125 308 98 94 90 83 216 80 84 285 210 90 168 148 80
internal_value=0.000832974 -0.001374 -0.000969895 -0.000413422 -0.00111725 -0.00764637 0.00757896 -0.00020492 -0.00279537 0.0022941 0.000506798 -0.00567679 -0.0156174 0.00641627 0.00886312 0.0107816 0.00281848 -0.000535398 -0.00800282 0.00768967 0.0135019 0.010133 0.0050949
internal_weight=1359.66 1131.65 1098.23 1028.78 946.145 115.277 82.6393 830.868 408.335 422.533 332.822 90.1319 46.8539 228.011 89.7113 118.18 242.69 143.75 72.9756 98.9394 97.625 77.8334 43.2781
internal_count=5471 4549 4414 4135 3803 464 332 3339 1640 1699 1338 362 188 922 361 479 976 578 294 398 396 316 174
is_linear=0
shrinkage=0.02


Tree=26
num_leaves=24
num_cat=0
split_feature=20 13 6 28 6 7 27 32 20 10 20 18 5 20 22 13 20 6 18 34 20 34 23
split_gain=27.7435 23.2107 18.3427 14.5384 13.29 30.4734 14.0131 13.9479 13.4092 22.5334 15.925 14.858 17.5906 14.3879 13.4052 20.0839 10.9559 10.7928 10.7604 9.90812 14.8467 9.80675 20.1733
threshold=0.099146209657192244 0.065753277391195311 -0.012169393245130776 -0.073308002203702913 0.0021276406478136782 0.019376908428967003 -0.015173827763646839 0.0076970073860138663 0.047563564032316215 0.0015446518082171681 0.031893333420157439 -0.087308727204799638 -0.077817182987928377 0.066894188523292555 -0.027674716897308823 0.010181270074099304 0.080127656459808363 -0.0020704073831439014 0.13381470739841464 0.64166665077209484 0.14409452676773074 0.90833333134651195 0.066362988203763976
decision_type=2 2 2 2 2 2 2 2 2 2 2 2 2 2 2 2 2 2 2 2 2 2 2
left_child=3 2 -2 -1 5 6 -5 -8 10 11 14 12 -10 -11 -9 -16 18 -14 -13 20 -4 22 -6
right_child=1 -3 19 4 21 -7 7 8 9 13 -12 16 17 -15 15 -17 -18 -19 -20 -21 -22 -23 -24
leaf_value=-0.01166642492333568 0.023509206354736578 -0.01217230688545836 -0.0015378403073933703 -0.010221008260607477 0.0041043190495621742 -0.015392300686244316 -0.013482986671119405 0.0084416253176811794 0.0067056239162430345 -0.021104275280414742 0.0086781860345098959 0.022440947925687786 -0.013298299615607032 -0.00040580840488249978 0.001179101498227168 -0.023515847270651483 -0.00531591798023732 -0.00061124987953337919 0.0055004177682556792 0.01206428477240991 0.016371550329410425 0.0089815888245055406 -0.006614069800043778
leaf_weight=51.630620777606964 27.690387576818466 23.829100638628006 85.953787013888359 60.795272022485733 216.66905809938908 65.922832816839218 29.241327375173569 29.213401183485985 47.452866017818451 35.465080142021179 133.95114992558956 20.094747543334961 61.675081238150597 21.792488858103752 34.357897356152534 20.67873053252697 24.126216411590576 47.859007507562637 59.109815895557404 67.3536347001791 23.028098285198212 68.005291998386383 103.27142463624477
leaf_count=208 112 96 346 245 869 265 118 117 191 143 538 81 248 88 138 83 97 192 238 272 93 273 414
internal_value=0.000828202 0.00629475 0.00848586 -0.0013473 -0.000846809 -0.00250922 -0.00113773 -0.000148666 0.00058725 -0.00203021 0.00440184 0.00046893 -0.00339602 -0.0133327 -0.00238472 -0.00819162 0.00634815 -0.00780106 0.00993725 0.0060556 0.00228567 0.00211166 0.000633439
internal_weight=1359.17 227.855 204.026 1131.31 1079.68 691.736 625.813 565.018 535.776 317.575 218.201 260.318 156.987 57.2576 84.25 55.0366 103.331 109.534 79.2046 176.336 108.982 387.946 319.94
internal_count=5471 922 826 4549 4341 2784 2517 2272 2154 1278 876 1047 631 231 338 221 416 440 319 713 439 1557 1283
is_linear=0
shrinkage=0.02


Tree=27
num_leaves=24
num_cat=0
split_feature=27 16 9 34 6 24 7 4 21 27 21 13 21 19 4 9 2 24 6 21 6 0 35
split_gain=14.8751 14.2748 15.6484 15.6282 19.2206 14.102 15.7347 12.4839 11.7023 8.97898 9.10052 9.58223 8.20407 13.6043 8.02448 7.92689 7.8496 8.98671 12.3217 8.58634 6.70573 6.64088 8.85485
threshold=-0.30344288051128382 0.3836363554000855 0.021223303861916069 0.32500000298023229 -0.0010239848052151499 0.75394812226295482 0.045813405886292465 0.018034466542303566 0.7272377908229829 -0.019704003818333145 0.98656082153320324 0.023291802965104583 0.36594414710998541 0.012806983664631845 -0.0090306703932583315 -0.0055543892085552207 -0.014562692958861588 1.3906701207160952 0.0012796019436791541 1.4582354426383974 -0.00078727246727794398 0.04303992539644242 2.8257510662078862
decision_type=2 2 2 2 2 2 2 2 2 2 2 2 2 2 2 2 2 2 2 2 2 2 2
left_child=-1 3 9 8 -5 -4 -7 -8 14 10 11 -3 13 -11 -2 -10 -14 19 20 21 -19 -18 -23
right_child=1 2 5 4 -6 6 7 -9 15 12 -12 -13 16 -15 -16 -17 17 18 -20 -21 -22 22 -24
leaf_value=0.016747759292917875 0.0012753199294964581 -0.010542290630323484 -0.0095444781424078671 0.015241332647464091 -0.0018183679058494382 0.016251093107218645 -0.011603701904408672 0.0077424337992325941 0.00047747447824397548 0.0036363269226605726 -0.015158535754730536 0.0054989824046398888 -0.007801149605236612 -0.015264276953966982 -0.014631694232768165 0.010591688181085778 0.00053034560907676081 0.0073053253287701713 0.016007931454576324 -0.010348121262472766 -0.00871241437888692 0.0016047558812250836 -0.011601873008979849
leaf_weight=21.120402976870537 21.554208561778069 29.939999550580978 20.832416877150536 77.578083515167236 39.480300784111023 51.11070205271244 19.901639774441719 37.977377414703369 125.36628977954388 23.855725690722466 39.484463602304459 28.561789870262146 58.02020725607872 40.185178011655807 29.351390197873116 40.905464321374893 486.40104949474335 20.411932304501534 30.590047940611839 36.119234636425972 20.367600187659264 36.490573763847351 44.339757829904556
leaf_count=85 87 121 84 313 160 207 81 154 503 96 159 115 234 162 118 164 1958 82 123 145 82 147 179
internal_value=0.000824534 2.53741e-05 -0.00114412 0.00361275 0.00948733 0.00532755 0.00821908 0.00101362 0.000422651 -0.00208778 -0.00778995 -0.00269648 -0.00137959 -0.00821904 -0.00791062 0.00300202 -0.0007739 -0.000161325 0.00652082 -0.000959805 -0.000655015 -0.000349881 -0.00564198
internal_weight=1379.95 1358.83 1024.59 334.236 117.058 129.822 108.99 57.879 217.177 894.768 97.9863 58.5018 796.781 64.0409 50.9056 166.272 732.74 674.72 71.3696 603.351 40.7795 567.231 80.8303
internal_count=5557 5472 4127 1345 473 525 441 235 872 3602 395 236 3207 258 205 667 2949 2715 287 2428 164 2283 326
is_linear=0
shrinkage=0.02


Tree=28
num_leaves=24
num_cat=0
split_feature=27 8 15 28 4 9 24 27 26 24 30 6 23 9 6 10 13 15 25 37 19 37 37
split_gain=14.3081 12.8014 14.8557 24.7768 16.1498 13.9005 13.7871 13.2659 13.0149 11.4645 13.2993 17.9303 12.5786 14.9251 12.6598 16.8291 13.1445 21.8972 16.2934 18.9864 12.4972 12.0361 10.3434
threshold=-0.30344288051128382 -0.050922039896249764 0.51584270596504223 0.006442870246246458 -0.015979846008121964 0.021223303861916069 0.7616681456565858 -0.019704003818333145 -0.069049999117851243 1.3368116021156313 0.24597813189029696 0.0013828083174303176 0.065796896815300002 0.0035447293194010858 0.0013357336865738036 0.0040374400559812793 0.017997831106185917 0.7157263755798341 0.33075349032878881 0.46239832043647772 0.040095547214150436 0.46239832043647772 0.45822055637836462
decision_type=2 2 2 2 2 2 2 2 2 2 2 2 2 2 2 2 2 2 2 2 2 2 2
left_child=-1 2 4 22 -2 7 -7 -3 -9 12 11 -11 14 -14 15 -10 17 18 19 -16 -15 -18 -4
right_child=1 5 3 -5 -6 6 -8 8 9 10 -12 -13 13 20 16 -17 21 -19 -20 -21 -22 -23 -24
leaf_value=0.016429836869205638 0.001387835039523511 -0.0087292861000964617 -0.0028014272824717218 0.0091614144300699273 0.01608703736747092 -0.0091992213023388419 0.0081780103206751525 -0.010535045031010338 -0.00062305365886126929 -0.010361435431194813 0.010718596456653786 0.012053941524584123 0.0049100125472746736 -0.020703132493862637 0.0067294885019506135 -0.013330037621826066 0.0044809713823030861 0.015703739404397371 -0.020224003825562879 -0.013375627021900621 -0.0057190930157098108 0.019441119481435887 -0.022752665533593435
leaf_weight=21.108301281929016 57.374367877840996 93.737094342708588 21.775364100933075 40.813219845294952 62.909958004951477 21.339844286441803 110.13567145168781 51.879192680120468 324.53466035425663 37.344240680336952 74.388170048594475 22.389383122324944 33.752348810434341 31.754905506968498 50.614035695791245 47.419119209051132 74.070458069443703 25.566739901900291 21.176756903529167 29.193994462490082 75.879594698548317 30.400478154420853 20.149167135357857
leaf_count=85 232 377 88 165 255 86 446 209 1305 150 299 90 136 128 203 191 297 103 85 117 306 122 81
internal_value=0.000816035 2.46581e-05 0.00465139 -0.00184698 0.009127 -0.000788137 0.00531818 -0.00157624 -0.000849097 -0.000269148 0.00509934 -0.00189617 -0.00124192 -0.00659977 1.55106e-05 -0.00226411 0.00369138 -0.000631634 -0.00484403 -0.000637601 -0.0102335 0.00892521 -0.0125924
internal_weight=1379.71 1358.6 203.022 82.7378 120.284 1155.58 131.476 1024.1 930.364 878.485 134.122 59.7336 744.363 141.387 602.976 371.954 231.022 126.552 100.985 79.808 107.635 104.471 41.9245
internal_count=5557 5472 821 334 487 4651 532 4119 3741 3532 539 240 2993 570 2423 1496 927 508 405 320 434 419 169
is_linear=0
shrinkage=0.02


Tree=29
num_leaves=24
num_cat=0
split_feature=5 5 20 6 22 28 20 6 33 5 13 20 20 9 13 11 17 28 24 24 32 6 14
split_gain=21.5908 17.5844 14.9691 11.5481 11.8208 10.9067 13.0743 13.2696 17.7325 17.598 14.561 20.5091 13.8732 12.9392 17.7212 11.9515 12.1041 11.9065 10.2258 16.7999 12.4 13.3596 10.1997
threshold=-0.059648942202329629 0.10439182817935945 0.075843509286642088 -0.011546635068953036 -0.087209481745958314 -0.064527627080678926 0.046988092362880714 0.0021276406478136782 -0.56174489110708226 -0.0045789682772010556 0.016942312009632591 0.087225735187530531 0.096659503877162947 0.0063354445155709991 0.025702508166432384 -0.0018768843729048965 0.31840211153030401 0.018632000312209133 0.83852228522300731 0.63269758224487316 0.022737788967788223 0.0041611974593251952 0.025404311716556553
decision_type=2 2 2 2 2 2 2 2 2 2 2 2 2 2 2 2 2 2 2 2 2 2 2
left_child=2 5 -1 -4 -5 -2 18 8 12 -10 -9 13 17 -12 15 16 -15 -8 19 -7 21 -20 -11
right_child=1 -3 3 4 -6 6 7 10 9 22 11 -13 -14 14 -16 -17 -18 -19 20 -21 -22 -23 -24
leaf_value=0.014769522270112509 -0.0096210375734773028 0.0072560702922120877 0.01101409435986952 -0.0045535677830867878 0.012219365996533334 -0.0010007949910126345 -0.018031543609088013 -0.010806691182624166 0.0024137293041659987 -0.011414000949405777 0.013706454769316798 -0.0074449217896715757 0.002945227166751318 0.0022556108464422799 -0.01431248954989346 0 0.023663226614771379 -0.0030977716128712976 -0.00099072055366400034 0.015037574743109476 0.0064146651379545575 -0.017918980818183838 0.0021893019848491574
leaf_weight=58.570879086852074 62.080829575657845 99.405835822224617 46.239645972847939 79.286963939666748 20.771924942731857 49.244874477386475 78.267177328467369 37.395553395152092 154.73905089497566 84.821043744683266 57.308384761214256 61.353109538555145 23.29978010058403 20.213192209601402 20.960483461618423 62.56105175614357 22.442444756627083 30.098041519522667 128.91531889140606 54.481207996606827 76.162876173853874 21.381381809711456 29.226214721798897
leaf_count=237 250 400 187 319 84 198 316 150 624 343 230 246 94 81 84 251 90 122 518 219 306 86 118
internal_value=0.000805281 -0.000767143 0.00626119 0.00280254 -0.00100822 -0.00151397 -0.0010106 -0.00259165 -0.00493091 -0.00196842 0.00072322 0.00251083 -0.0109332 0.00586185 0.00224309 0.00561218 0.0137088 -0.0139354 0.00225126 0.00743575 -0.000125748 -0.00346365 -0.00791616
internal_weight=1379.23 1174.36 204.869 146.299 100.059 1074.95 1012.87 682.686 400.451 268.786 282.234 244.839 131.665 183.486 126.177 105.217 42.6556 108.365 330.186 103.726 226.46 150.297 114.047
internal_count=5557 4729 828 591 403 4326 4076 2749 1616 1084 1133 983 532 736 506 422 171 438 1327 417 910 604 461
is_linear=0
shrinkage=0.02


Tree=30
num_leaves=24
num_cat=0
split_feature=14 10 27 4 8 28 19 20 34 8 3 14 10 2 15 19 13 11 3 4 8 34 11
split_gain=18.1186 16.4632 14.3547 14.6129 16.6701 13.8912 13.0645 12.7237 13.8035 12.6483 12.6178 12.4511 12.1051 11.4642 11.4103 10.9665 10.3863 10.9388 10.2694 9.75379 16.8991 15.0042 12.795
threshold=0.0068731603678315887 -0.0014230685192160306 0.0058695827610790738 0.020325550809502605 -0.053422003984451287 -0.0073153164703398934 0.048856616020202644 0.061183480545878417 0.37500000000000006 -0.10342745110392569 -0.0041145069990307084 0.0098543744534254091 -0.011452881153672932 0.0017207085620611908 0.54265937209129345 0.045262606814503677 0.033491671085357673 0.01472677616402507 0.031779598444700248 0.002666712505742908 0.084433052688837065 0.39166666567325598 -0.0080419178120791895
decision_type=2 2 2 2 2 2 2 2 2 2 2 2 2 2 2 2 2 2 2 2 2 2 2
left_child=1 -1 3 4 9 13 7 8 -4 -2 -10 -7 -13 -6 -11 -15 17 18 -14 21 -21 22 -8
right_child=2 -3 6 -5 5 11 19 -9 10 14 -12 12 16 15 -16 -17 -18 -19 -20 20 -22 -23 -24
leaf_value=6.8289492730501931e-05 -0.0014886961983786233 -0.024493420641704091 -0.010893462174176329 0.014971597267977657 0.0018639422799800738 0.0089732370365946754 -0.0055360200139411486 -0.016377031774113607 0.011362797862264707 0.018367351530838787 -0.0044337436713783466 -0.016047593708209067 -0.0026903308556780782 0.022187557699494192 0.0034865582203094233 0.00232733085792926 0.011350525320883018 -0.013408783795796773 0.0077194987213556488 -0.011535244480706381 0.0090871016025519131 0.012188237488150358 0.0076992986524306375
leaf_weight=20.402129501104355 38.900045141577721 22.57639853656292 64.028716310858727 31.423980131745338 153.48789811134338 39.802157267928123 80.953337013721466 41.706848382949829 31.317441761493683 49.699734106659889 54.889248609542847 24.883501306176186 361.08051684498787 24.619813948869705 36.088527530431747 20.630061417818069 22.163261696696281 33.619950085878372 41.787337556481361 55.055375903844833 21.733724057674408 49.146039217710495 45.018980354070663
leaf_count=83 158 91 257 127 617 160 325 168 126 202 221 100 1453 99 146 83 89 135 168 222 88 198 181
internal_value=0.000805194 -0.0129211 0.000199439 0.00168222 0.00117814 7.25729e-06 -0.00272844 -0.00665244 -0.00389416 0.00791567 0.00131424 -0.00169958 -0.00259061 0.00450491 0.0121871 0.0133011 -0.00183948 -0.00252602 -0.00159739 0.000260808 -0.00565157 0.00287347 -0.000778535
internal_weight=1365.02 42.9785 1322.04 878.187 846.763 722.074 443.85 191.942 150.235 124.688 86.2067 523.337 483.535 198.738 85.7883 45.2499 458.651 436.488 402.868 251.907 76.7891 175.118 125.972
internal_count=5501 174 5327 3540 3411 2906 1787 772 604 505 347 2107 1947 799 348 182 1847 1757 1621 1015 310 705 506
is_linear=0
shrinkage=0.02


Tree=31
num_leaves=24
num_cat=0
split_feature=5 5 24 12 26 10 6 16 25 11 32 10 20 20 20 35 25 25 8 8 6 15 24
split_gain=20.7975 18.2063 13.16 12.9411 12.1871 11.3783 15.2352 10.703 10.4803 10.3309 11.3405 9.96185 14.371 12.6814 13.8435 17.2408 12.2793 11.1608 12.2054 10.8463 11.2446 10.0379 10.5529
threshold=-0.057194242253899567 0.059099167585372932 1.5145148634910586 -6.0503377914428702 0.012017685920000078 -0.020859012380242344 -0.011546635068953036 0.23988056182861331 0.12272056937217714 0.01472677616402507 0.0080080623738467711 -0.00021382710110628975 0.061183480545878417 0.077616322785615935 0.038263792172074325 3.9702211618423466 -0.43835520744323725 -0.28002338111400599 -0.025371336378157135 -0.016822033561766144 -0.0040834289975464335 0.75899299979209911 1.2923288941383364
decision_type=2 2 2 2 2 2 2 2 2 2 2 2 2 2 2 2 2 2 2 2 2 2 2
left_child=4 7 3 8 5 6 -1 -2 -3 10 -9 12 -12 14 15 -13 -16 18 -14 20 -19 22 -18
right_child=1 2 -4 -5 -6 -7 -8 9 -10 -11 11 13 17 -15 16 -17 21 19 -20 -21 -22 -23 -24
leaf_value=0.010504511565955945 -0.01373543283740331 0.022137694799445513 0.017699551290489772 -0.00021014281623715634 0.016551531286349251 0.0095557257487966472 -0.0052838242091710601 -0.012005339282709812 0.001611963796895351 -0.012145183704667353 0.004493322825301199 -0.0030493174792909968 -0.0027055816627160729 0.0049259462211985747 0.001434844860187935 0.01659144135910777 -0.0094185964708697195 0.0050393948458153726 -0.022318975429365746 0.009663390403394893 -0.013237815427603059 -0.020754299502875755 0.004698740750509604
leaf_weight=34.487737014889717 33.109831467270851 20.29242180287838 22.952150613069534 191.57704070210457 32.908637478947639 72.807227090001106 80.567004695534706 40.295583620667458 19.676903381943703 39.498949036002159 217.12117916345596 71.842299535870552 30.795677065849304 63.604792758822441 53.268511742353439 23.219636052846909 158.62835501134396 24.332140758633614 21.617331176996231 32.817493960261345 28.802930638194084 26.44452366232872 23.92043399810791
leaf_count=139 133 82 93 773 133 294 326 162 80 159 873 289 124 256 214 94 639 98 87 132 116 107 96
internal_value=0.000801169 -0.00129884 0.00341002 0.00194986 0.00539906 0.00339606 -0.000508977 -0.0026498 0.0122271 -0.00221101 -0.00172098 -0.00117727 0.00128298 -0.00325882 -0.00472617 0.00178887 -0.0070942 -0.00373827 -0.0109672 0.000684677 -0.00486189 -0.00927588 -0.00755001
internal_weight=1364.59 1143.82 254.499 231.546 220.771 187.862 115.055 889.32 39.9693 856.21 816.711 776.415 355.487 420.929 357.324 95.0619 262.262 138.366 52.413 85.9526 53.1351 208.993 182.549
internal_count=5501 4608 1027 934 893 759 465 3581 162 3448 3288 3125 1429 1696 1439 383 1056 557 211 346 214 842 735
is_linear=0
shrinkage=0.02


Tree=32
num_leaves=24
num_cat=0
split_feature=14 10 27 4 8 12 28 37 19 8 24 14 34 8 1 34 13 11 31 8 18 35 15
split_gain=17.0895 15.9251 13.7007 13.9483 15.7503 16.4046 13.2922 13.2862 13.7132 13.25 12.518 14.4614 12.2622 9.88536 10.7583 9.76133 10.8699 10.2637 10.1088 14.9254 9.20695 8.667 8.29462
threshold=0.0068731603678315887 -0.0014230685192160306 0.0058695827610790738 0.020325550809502605 -0.053422003984451287 12.409941196441652 -0.0073153164703398934 0.46239832043647772 0.048538558185100562 -0.025846118107438084 1.3585711121559145 0.0098543744534254091 0.24166666716337207 -0.049599109217524522 -127.52000045776366 0.25833334028720861 0.031982298940420158 0.0090631367638707178 0.0095946476794779318 0.01587743312120438 0.33710464835166937 -1.9177824258804319 0.54265937209129345
decision_type=2 2 2 2 2 2 2 2 2 2 2 2 2 2 2 2 2 2 2 2 2 2 2
left_child=1 -1 3 4 5 22 20 9 -9 12 11 -8 -4 -10 -15 18 17 -17 19 -13 -6 -14 -2
right_child=2 -3 7 -5 6 -7 10 8 13 -11 -12 15 21 14 -16 16 -18 -19 -20 -21 -22 -23 -24
leaf_value=0.00020283372013816855 0.015545260408018796 -0.023976785253745084 -0.0049662465299334328 0.014647748736482542 0.0026785081452238018 -0.0087154860091859885 0.0087892865808299591 -0.0054597212398361421 -0.0043294271446429793 -0.0078000613634414823 0.0059291420785306361 -0.0018826706059182062 0.018349108202991429 -0.00054000850824892106 0.016865216236334003 -0.0045211881350819636 0.0074385788436605029 -0.013385782219180416 -0.0074318684451574078 0.020780146048494687 0.0152228809802827 0 0.0039724760400600481
leaf_weight=20.390784174203873 61.874939396977425 22.483827918767929 54.737705916166306 31.334859117865562 171.86077708005905 19.907556921243668 38.051884114742279 53.20033010840416 21.054966047406197 209.87025505304337 74.052952021360397 25.64895635843277 20.706352576613426 20.566101714968681 43.694955468177795 249.69119794666767 23.879026010632515 66.474737226963043 24.901933804154396 20.432234480977058 26.813077673316002 19.815274178981781 42.736590966582298
leaf_count=83 251 91 221 126 691 81 153 214 85 845 298 103 84 83 176 1006 96 268 100 82 108 80 174
internal_value=0.000799212 -0.0125613 0.000196116 0.00164526 0.00115313 0.00770706 1.51845e-05 -0.00266484 0.00245634 -0.00499641 -0.00165476 -0.00291499 0.00116803 0.00741891 0.0113028 -0.00401276 -0.00542168 -0.0064095 0.00269939 0.0082382 0.00441551 0.00946267 0.0108779
internal_weight=1364.18 42.8746 1321.31 877.661 846.326 124.519 721.807 443.646 138.516 305.13 523.133 449.08 95.2593 85.316 64.2611 411.028 340.045 316.166 70.9831 46.0812 198.674 40.5216 104.612
internal_count=5501 174 5327 3540 3411 505 2906 1787 558 1229 2107 1809 384 344 259 1656 1371 1274 285 185 799 164 425
is_linear=0
shrinkage=0.02


Tree=33
num_leaves=24
num_cat=0
split_feature=26 35 10 6 14 25 37 37 0 32 6 21 22 6 22 14 21 31 25 11 11 14 26
split_gain=13.726 9.51078 14.2263 19.4542 13.2651 11.0243 13.1617 11.6023 10.7888 9.02792 8.43109 9.67114 9.29137 12.583 8.21915 7.35114 7.58885 13.7821 10.5976 7.15647 12.1309 11.7866 7.11986
threshold=-0.078096892684698091 7.3054256439208993 0.00032100554381031548 0.00068982774973846983 0.028509404510259632 0.15806396305561068 0.45822055637836462 0.45822055637836462 0.044945640489459045 0.078241951763629927 -0.0058043724857270709 0.55220073461532604 -0.092816632241010652 -0.0088504212908446771 -0.015593249350786207 0.035764642059803016 1.1537666916847231 0.0070370645262300977 -0.2421074956655502 0.007951236795634033 0.0053233620710670957 0.023074345663189891 -0.044032141566276543
decision_type=2 2 2 2 2 2 2 2 2 2 2 2 2 2 2 2 2 2 2 2 2 2 2
left_child=-1 2 8 4 5 7 -7 -4 9 10 11 -2 -13 -14 -10 16 22 -18 -19 20 -5 -21 -12
right_child=1 -3 3 19 -6 6 -8 -9 14 -11 15 12 13 -15 -16 -17 17 18 -20 21 -22 -23 -24
leaf_value=-0.01205382775670164 0.020217203480668022 0.0067892143949816828 -0.021456787152531461 -2.4139752565727567e-05 0.0047530076632744658 0.0053148792235282087 -0.015105642715544794 -0.0053384344083364709 0.00033225446384513324 -0.0073430037507812435 -0.0061913868890103967 0.011390496062820298 -0.012932685735323298 0.006531150703758995 -0.016069244980285877 -0.0085269239895668855 -0.0036376758967909045 0.0053881552614410419 0.020812746475658232 -0.01787458271964722 0.014059854781733572 0.00060848129872589777 0.0023300410235352208
leaf_weight=35.404674619436264 20.759569421410561 88.58337864279747 49.540468007326126 342.08977030217648 25.396088898181915 28.61161296069622 21.734567239880562 29.020741984248161 26.998933151364326 32.763695403933525 45.450609117746353 52.953176617622375 19.766693815588951 38.056525945663452 21.454516589641571 24.352287918329239 31.909118488430977 43.08502858877182 31.0935437977314 22.077214896678925 25.823534607887268 34.912203684449196 264.89274573326111
leaf_count=143 84 357 201 1375 103 116 88 118 109 132 183 215 80 154 87 98 128 173 125 89 104 141 1067
internal_value=0.000535714 0.00047828 2.05939e-05 -0.00225897 -0.00832902 -0.0109302 -0.00352323 -0.0155993 0.00204413 0.00277516 0.00336379 0.00780381 0.00537916 -0.000142041 -0.0069792 0.00202696 0.00265841 0.00726629 0.0119765 -4.27256e-05 0.000976716 -0.0066101 0.00106767
internal_weight=1356.73 1321.33 1232.74 579.206 154.303 128.907 50.3462 78.5612 653.536 605.083 572.319 131.536 110.776 57.8232 48.4534 440.783 416.431 106.088 74.1786 424.903 367.913 56.9894 310.343
internal_count=5473 5330 4970 2335 626 523 204 319 2635 2439 2307 533 449 234 196 1774 1676 426 298 1709 1479 230 1250
is_linear=0
shrinkage=0.02


Tree=34
num_leaves=24
num_cat=0
split_feature=4 26 8 20 1 23 33 24 21 13 20 20 6 8 20 23 23 21 23 35 13 35 37
split_gain=13.5312 12.5874 11.9181 27.9637 19.5181 19.2175 12.5225 10.8397 10.1941 10.0781 9.35469 13.8823 24.6871 15.0488 15.3558 14.1814 15.7228 12.3383 12.0687 15.2597 14.1763 12.8718 11.3365
threshold=0.023769320920109752 -0.078096892684698091 -0.048696894198656075 0.14409452676773074 -202.21500396728513 0.12935116887092593 -1.0000000180025095e-35 1.3169390559196474 1.1128610372543337 0.032884409651160247 0.099146209657192244 0.052354160696268089 0.00077841689926572155 -0.0038312695687636729 0.067621879279613509 0.066362988203763976 0.031591400504112251 0.73121011257171642 0.041152592748403556 4.6242971420288095 0.019355324096977714 -2.5584521293640132 0.4551557749509812
decision_type=2 2 2 2 2 2 2 2 2 2 2 2 2 2 2 2 2 2 2 2 2 2 2
left_child=1 -1 5 4 -4 6 -3 10 -9 -8 11 15 13 14 -13 16 -6 -18 21 20 -20 -14 -22
right_child=-2 2 3 -5 7 -7 9 8 -10 -11 -12 12 18 -15 -16 -17 17 -19 19 -21 22 -23 -24
leaf_value=-0.011823885472386907 0.014294105936221917 0.011461118906612347 -0.014389391993418122 0.020448327282015694 -0.0015698283595097673 -0.01166790554905159 0.0059884052431663105 0.013750845215949674 0.0014924998083121449 -0.0088150024973943971 0.0056767597361824856 0.00086334483646054367 -0.0062076363774341801 -0.018232387992306472 -0.013296871469030049 -0.013394288403401169 0.013966596034625849 0.0017305464427733782 -0.019615641998819128 0.003804922617379167 -0.011297497287472385 0.012522467050407684 0.0044067564382508587
leaf_weight=35.381292998790741 26.0004952698946 102.23960287868977 42.217123299837112 24.043332532048225 210.66756165027618 25.073698207736015 53.125822246074677 34.527747377753258 123.38492494821548 27.46724633872509 66.934167936444283 62.933346092700958 20.697949081659317 60.51374027132988 58.629991501569748 25.823584288358688 59.14955373108387 75.01330803334713 29.819775834679604 73.167873352766037 35.3500846773386 47.078208908438683 37.113908439874649
leaf_count=143 105 415 170 97 847 102 216 139 496 111 270 254 83 245 236 104 238 302 120 294 142 189 149
internal_value=0.000534041 -0.000138012 0.000184167 -0.000653881 -0.00114244 0.00456666 0.00682973 -0.000585853 0.00422037 0.00089529 -0.00146966 -0.00207632 -0.00454058 -0.0100993 -0.00597623 0.000748202 0.00183095 0.00717184 -0.000358986 -0.00313553 -0.00811415 0.00676967 -0.00325175
internal_weight=1356.35 1330.35 1294.97 1087.07 1063.02 207.906 182.833 1020.81 157.913 80.5931 862.893 795.959 425.305 182.077 121.563 370.654 344.83 134.163 243.228 175.452 102.284 67.7762 72.464
internal_count=5473 5365 5222 4379 4281 843 742 4111 635 327 3476 3205 1714 737 490 1491 1387 540 977 705 411 272 291
is_linear=0
shrinkage=0.02


Tree=35
num_leaves=24
num_cat=0
split_feature=4 8 20 23 1 24 20 20 27 24 7 22 8 27 8 33 13 20 10 6 27 20 33
split_gain=13.0405 12.0686 28.4928 17.8134 17.664 10.1332 10.4618 13.1366 12.9085 16.542 15.3484 10.6553 10.0264 9.92669 10.1231 9.85939 9.35649 8.63476 8.33322 28.3083 13.9525 11.2815 9.3605
