tree
version=v4
num_class=1
num_tree_per_iteration=1
label_index=0
max_feature_idx=9
objective=binary sigmoid:1
feature_names=atr_pct vol_ratio bb_width bb_width_rank momentum_5 trend_r2 vol_ma_ratio range_ratio funding_rate ma60_slope
feature_infos=[0.0019425900770673403:0.040486711964442409] [0.072442199462213142:2.1135625530488049] [0.0018795519753884637:0.10168674729007152] [0.0083333333333333332:1] [-0.094350243805959355:0.082986886339723398] [5.2037382677516946e-07:0.94179386508443963] [0.17441480630216627:3.0266442851797439] [0.043728314083368143:1] none [-0.016908230828267867:0.0085473498255241864]
tree_sizes=1406 1395 1396 1367 1406 1401 1412 1390 1391 1400 1409 1400 1406 1400 1407 1398 1402 1396 1405 1400 1398 1387

Tree=0
num_leaves=12
num_cat=0
split_feature=0 9 1 0 0 6 1 0 0 9 6
split_gain=87.8781 47.8074 20.5161 19.4359 16.8959 11.7529 11.508 11.3378 10.9131 10.2939 9.85745
threshold=0.0036953631756518435 -0.0069075087020281636 1.0793836918897961 0.0067299400776340626 0.0089084524975770879 1.0124524974767939 1.6321784865159654 0.0093635944282754076 0.011310514014243579 0.00048024823993098048 0.66278821691448953
decision_type=2 2 2 2 2 2 2 2 2 2 2
left_child=-1 -2 3 10 -4 7 -6 -5 9 -9 -3
right_child=1 2 4 5 6 -7 -8 8 -10 -11 -12
leaf_value=-0.14305933347852529 -0.0066427861566210056 -0.13567271014185545 -0.026329331380591285 -0.037554497046798134 -0.053290308559972757 -0.095050161996052596 -0.11357618272475441 -0.1286013116489787 -0.044002329566236634 -0.063833428001557363 -0.084850399826180575
leaf_weight=34.455010950565338 36.202728897333145 17.47717946767807 41.695556730031967 36.202728897333145 22.220985323190689 26.964791178703308 10.985655665397642 11.734677642583849 14.481091558933256 10.735981673002241 22.970007300376892
leaf_count=138 145 70 167 145 89 108 44 47 58 43 92
internal_value=-0.0722536 -0.0590151 -0.0681464 -0.0793297 -0.0471446 -0.0675857 -0.073421 -0.0570892 -0.0762426 -0.0979772 -0.108173
internal_weight=0 251.671 215.469 140.566 74.9022 100.119 33.2066 73.1545 36.9518 22.4707 40.4472
internal_count=1146 1008 863 563 300 401 133 293 148 90 162
is_linear=0
shrinkage=1


Tree=1
num_leaves=12
num_cat=0
split_feature=0 9 1 0 0 9 9 0 1 6 6
split_gain=79.7584 43.2213 18.565 17.6733 15.2791 11.3002 16.132 18.0772 10.4762 10.0727 12.8538
threshold=0.0036953631756518435 -0.0069075087020281636 1.0793836918897961 0.0067299400776340626 0.0089084524975770879 0.004686132461561022 -0.001531014388082119 0.0095540397135443333 1.6321784865159654 1.0124524974767939 0.67803968005308057
decision_type=2 2 2 2 2 2 2 2 2 2 2
left_child=-1 -2 3 -3 -4 6 -5 9 -6 10 -8
right_child=1 2 4 5 8 -7 7 -9 -10 -11 -12
leaf_value=-0.067620803331987223 0.062337316138034463 -0.034292040924536298 0.043632164232611605 0.023743658507762805 0.018045436950484647 0.050593299325773403 -0.013254124626155817 -0.057225508109947559 -0.039499864603533753 -0.036637365563755922 0.056599685330115994
leaf_weight=34.324080437421799 36.249600276350975 40.378367155790329 41.742765948176384 36.197011888027191 22.234210222959518 10.737865969538687 12.742788389325144 18.70975923538208 10.964602053165434 10.226883575320242 11.495613485574721
leaf_count=138 145 162 167 145 89 43 51 75 44 41 46
internal_value=0 0.0125758 0.00388397 -0.00675691 0.0238556 0.00443008 -0.00144881 -0.0189963 -0.00112076 0.00236219 0.0202112
internal_weight=0 251.679 215.43 140.488 74.9416 100.11 89.3721 53.175 33.1988 34.4653 24.2384
internal_count=1146 1008 863 563 300 401 358 213 133 138 97
is_linear=0
shrinkage=0.05


Tree=2
num_leaves=12
num_cat=0
split_feature=0 4 1 0 6 0 0 4 0 0 1
split_gain=72.5569 30.8698 13.1316 12.1375 14.9576 11.1216 10.355 9.48634 9.25194 13.9908 7.90519
threshold=0.0036953631756518435 -0.0030674494338336351 1.0646400845394022 0.011547930567063897 1.1439964198173489 0.0067299400776340626 0.0089403347390543987 0.013964018731300267 0.0093635944282754076 0.011917689286112849 0.81735482281642724
decision_type=2 2 2 2 2 2 2 2 2 2 2
left_child=-1 3 5 4 10 -3 -4 -8 -7 -10 -2
right_child=1 2 6 -5 -6 8 7 -9 9 -11 -12
leaf_value=-0.064718567161144672 0.017094334131208231 -0.036342060079270745 0.039917549195064829 0.05840464822799174 -0.0075768920599702935 0.01799614718966859 0.022994005248689869 -0.038694589940924756 -0.043650623007174497 0.014349901336674917 0.064762187733386087
leaf_weight=34.11998462677002 20.702904045581818 31.58175665140152 26.247717216610909 32.963797196745872 26.947263285517693 33.219855606555939 12.482642769813539 10.472487509250639 21.663483127951622 17.988213643431664 17.230548232793808
leaf_count=138 83 127 105 132 108 133 50 42 87 72 69
internal_value=0 0.0119692 -0.00194819 0.0337756 0.0203382 -0.0120438 0.0189981 -0.00496358 -0.00096073 -0.0172636 0.0402391
internal_weight=0 251.501 153.656 97.8445 64.8807 104.453 49.2028 22.9551 72.8716 39.6517 37.9335
internal_count=1146 1008 616 392 260 419 197 92 292 159 152
is_linear=0
shrinkage=0.05


Tree=3
num_leaves=12
num_cat=0
split_feature=2 0 5 6 6 2 0 0 0 6 6
split_gain=56.1849 20.1094 16.1317 16.0793 10.4579 9.70925 11.34 14.166 14.5141 16.0888 14.1763
threshold=0.0077749900608718838 0.021655100019874359 0.84850712921303917 1.0981581936212137 1.9078516967500152 0.04064189174847236 0.011310514014243579 0.0089084524975770879 0.0068091645731430421 0.66278821691448953 0.95705430715082607
decision_type=2 2 2 2 2 2 2 2 2 2 2
left_child=3 2 4 -1 5 6 7 8 9 -2 -9
right_child=1 -3 -4 -5 -6 -7 -8 10 -10 -11 -12
leaf_value=-0.062445982842149139 -0.059920229796502057 0.060699197560372321 0.056048519709164538 -0.0036126130751005523 0.041451255330987223 -0.033521356435453169 0.032319110367427545 0 0.025908296056620525 0.0084825391921404623 -0.056775145696400908
leaf_weight=36.4978396743536 11.880069851875303 18.713619232177734 14.961140960454939 17.819420114159584 15.70651003718376 18.2121691852808 28.207339853048325 25.915942966938019 53.197776690125465 24.417943298816681 18.679924041032791
leaf_count=148 48 75 60 72 63 73 113 104 213 98 75
internal_value=0 0.0122647 0.00763614 -0.0438304 0.00360327 1.7202e-05 0.00405477 -0.00197507 0.00937065 -0.0145093 -0.024779
internal_weight=0 229.892 211.179 54.3173 196.218 180.511 162.299 134.092 89.4958 36.298 44.5959
internal_count=1142 922 847 220 787 724 651 538 359 146 179
is_linear=0
shrinkage=0.05


Tree=4
num_leaves=12
num_cat=0
split_feature=3 9 4 0 0 6 0 2 9 2 9
split_gain=66.3034 36.5576 15.5885 10.0234 10.042 19.7407 16.9059 10.5035 16.3747 14.0325 11.6931
threshold=0.087500000000000008 -0.0069075087020281636 0.00068484007620583942 0.0033233626688773882 0.0089084524975770879 0.65243398239982453 0.0068091645731430421 0.030207701352606236 6.7549385527998509e-05 0.039755565234345994 0.0013550122718082316
decision_type=2 2 2 2 2 2 2 2 2 2 2
left_child=-1 2 -2 -3 5 6 -5 10 9 -9 -6
right_child=1 3 -4 4 7 -7 -8 8 -10 -11 -12
leaf_value=-0.07602905873103652 0.077151268260543915 -0.043925362291051394 0.0084239031718964553 -0.056032090050571394 -0.039779578181000044 0.025155074750743935 0.015650392292829895 0.069332250744569279 -0.037346408956662379 -0.00033744741726178567 0.0078553574198387353
leaf_weight=24.230640292167664 24.121598586440086 10.736645773053167 13.464053615927694 15.506684452295305 34.849406123161316 88.210912972688675 15.245502591133116 12.23586279153824 11.198081523180006 14.969483613967894 18.934509739279747
leaf_count=99 97 44 54 63 140 354 61 49 45 60 76
internal_value=0 0.00884994 0.0537766 0.000965343 0.00351495 0.0131161 -0.0206491 -0.00872171 0.0108297 0.0318125 -0.0228987
internal_weight=0 259.473 37.5857 221.887 211.15 118.963 30.7522 92.1873 38.4034 27.2053 53.7839
internal_count=1142 1043 151 892 848 478 124 370 154 109 216
is_linear=0
shrinkage=0.05


Tree=5
num_leaves=12
num_cat=0
split_feature=3 9 4 7 5 9 9 9 3 9 2
split_gain=60.7206 34.0371 18.142 11.9282 12.3558 8.79166 9.56988 8.31053 7.13355 10.441 13.0031
threshold=0.087500000000000008 -0.0026907482610572515 0.00032601355292394279 0.65541818314130762 0.84850712921303917 -0.0069075087020281636 -0.0045161144712854142 0.0005184988584039375 0.61250000000000016 0.0034062654253117501 0.018796814234381416
decision_type=2 2 2 2 2 2 2 2 2 2 2
left_child=-1 2 5 4 7 -2 -7 -3 -9 10 -10
right_child=1 3 -4 -5 -6 6 -8 8 9 -11 -12
leaf_value=-0.073228989098915981 0.073950299170065834 -0.027381648610415706 0.0036963006622785389 0.027176781234372033 0.040240798355738426 -0.00055760311277113287 0.053873841293522601 -0.019141459293493153 0.061760597279992072 -0.018797522967792676 -0.0099843841923415288
leaf_weight=23.944676876068115 23.954760015010834 62.865266919136047 33.373860657215118 24.120588108897209 10.216230124235151 13.223085373640062 17.714942678809166 33.929685771465302 13.970845177769663 15.678368315100668 9.9562098979949933
leaf_count=99 97 254 134 97 41 53 71 137 56 63 40
internal_value=0 0.00842754 0.0334703 -0.00455108 -0.0100211 0.050914 0.0308508 -0.0141603 -0.00244046 0.0116168 0.0321024
internal_weight=0 259.004 88.2666 170.737 146.617 54.8928 30.938 136.4 73.5351 39.6054 23.9271
internal_count=1142 1043 355 688 591 221 124 550 296 159 96
is_linear=0
shrinkage=0.05


Tree=6
num_leaves=12
num_cat=0
split_feature=0 9 4 0 6 0 0 9 9 9 6
split_gain=44.3628 32.0155 13.9824 13.4642 23.7528 16.4515 8.63153 9.69642 8.4802 13.2808 12.5945
threshold=0.0033233626688773882 -0.0069075087020281636 0.00068484007620583942 0.0083597653339232796 0.65243398239982453 0.0068091645731430421 0.0063790217041012091 -0.0014150739250738396 -0.0016037213586955199 -0.0045947332422983092 0.84700581535977315
decision_type=2 2 2 2 2 2 2 2 2 2 2
left_child=-1 2 -2 4 5 -3 7 -6 9 -5 -10
right_child=1 3 -4 8 6 -7 -8 -9 10 -11 -12
leaf_value=-0.061377591356410834 0.073530365134751682 -0.054414175885375241 0.0054113666492461819 -0.033581629471349371 -0.033756742320571791 0.01929095083877079 0.039793865932016455 0.020253577688845129 -0.0018286425157203478 0.023189207219265824 -0.047783133074612474
leaf_weight=27.192298576235771 21.034263506531715 19.437569499015812 12.461880326271055 15.453664809465407 9.8734020292758924 10.992218628525732 40.13114407658577 33.261574730277061 28.117167741060257 26.443251699209213 32.751205548644066
leaf_count=114 86 80 50 62 40 44 161 134 113 106 132
internal_value=0 0.00475691 0.0495138 -0.00229583 0.00944135 -0.0275456 0.0233028 0.00706625 -0.0153918 0.00160493 -0.0271703
internal_weight=0 249.957 33.4961 216.461 113.696 30.4298 83.2661 43.135 102.765 41.8969 60.8684
internal_count=1122 1008 136 872 459 124 335 174 413 168 245
is_linear=0
shrinkage=0.05


Tree=7
num_leaves=12
num_cat=0
split_feature=0 4 0 1 3 7 0 4 7 0 0
split_gain=40.7293 13.2306 9.09986 7.40872 7.2303 15.4103 13.5007 9.25089 6.72 6.4357 5.73591
threshold=0.0033233626688773882 -0.0030674494338336351 0.016849106722693925 1.1213842475097942 0.48750000000000004 0.36528555688914371 0.0089084524975770879 0.0060324677162216797 0.26221034840649854 0.0085501302410406228 0.011917689286112849
decision_type=2 2 2 2 2 2 2 2 2 2 2
left_child=-1 2 3 -2 5 -3 7 -6 10 -7 -8
right_child=1 4 -4 -5 6 9 8 -9 -10 -11 -12
leaf_value=-0.059225656519296482 0.00049881107530280733 -0.040344400300744127 0.059533679976834231 0.032087608788423254 0.0040825480203271602 0.020955072220310525 -0.016053401297538652 0.052422907691207013 -0.029047223583597077 -0.02446161013234819 0.030349285723184245
leaf_weight=26.817170009016991 48.839663997292519 33.072325080633163 11.666641458868979 29.993342384696007 23.058754608035088 24.005029290914536 12.415652662515642 17.658916264772415 26.494035616517067 10.175512731075285 11.945583358407019
leaf_count=114 197 135 48 121 93 97 50 71 107 41 48
internal_value=0 0.00453294 0.01971 0.0129566 -0.00409035 -0.0164684 0.00491799 0.026161 -0.0119776 0.0066972 0.0064083
internal_weight=0 249.325 90.4996 78.833 158.826 67.2529 91.5729 40.7177 50.8553 34.1805 24.3612
internal_count=1122 1008 366 318 642 273 369 164 205 138 98
is_linear=0
shrinkage=0.05


Tree=8
num_leaves=12
num_cat=0
split_feature=0 9 0 6 0 1 9 6 9 6 0
split_gain=37.4638 28.7129 10.0226 21.6103 15.3327 12.8824 9.45552 13.0336 11.0268 9.16236 8.44888
threshold=0.0033233626688773882 -0.0075923145407869588 0.0083597653339232796 0.65243398239982453 0.0068091645731430421 0.80775431156994759 -0.0020453563882109056 0.83884691543802437 -0.0043430888885264687 0.49944517241947478 0.0051833051484323931
decision_type=2 2 2 2 2 2 2 2 2 2 2
left_child=-1 -2 3 4 -3 -5 8 9 -4 -8 -7
right_child=1 2 6 5 -6 10 7 -9 -10 -11 -12
leaf_value=-0.057217555195661754 0.049245008016434902 -0.052616102713622132 -0.018882099400985789 -0.0057621822187156543 0.018384538633866094 0.0063703668014233389 -0.036614914173795074 -0.045034929740106727 0.032080590851225971 0.01969517133166105 0.048929617309991284
leaf_weight=26.415747329592705 30.181674227118492 19.665941923856739 20.854507163167 27.750564873218536 10.986943066120146 18.615522012114525 10.184434071183206 35.095061659812927 19.43798828125 19.395679891109467 36.739454299211502
leaf_count=114 124 82 84 112 44 75 41 142 78 78 148
internal_value=0 0.00433787 -0.00198644 0.00818138 -0.0269166 0.0214715 -0.0131206 -0.0248703 0.00552168 0 0.0352504
internal_weight=0 248.908 218.726 113.758 30.6529 83.1055 104.968 64.6752 40.2925 29.5801 55.355
internal_count=1122 1008 884 461 126 335 423 261 162 119 223
is_linear=0
shrinkage=0.05


Tree=9
num_leaves=12
num_cat=0
split_feature=0 9 1 9 9 0 9 4 0 0 9
split_gain=37.5992 28.7121 15.879 9.73196 10.109 7.11515 9.89637 11.0259 6.87897 9.81393 6.81634
threshold=0.0030089116694095616 -0.0071180961444339266 1.0886461515940848 0.004686132461561022 0.0035214410766410968 0.0133854842787853 0.0011059447342323116 -0.0030674494338336351 0.015074478902519494 0.022637850171264105 -0.0043430888885264687
decision_type=2 2 2 2 2 2 2 2 2 2 2
left_child=-1 8 3 4 5 6 7 -3 -2 -10 -4
right_child=1 2 10 -5 -6 -7 -8 -9 9 -11 -12
leaf_value=-0.067488357730051921 0.077487058460538535 0.0025523676917878898 -0.020894448020649489 0.027135341426544279 -0.059781168837791145 0.023541751488050211 0.00855206593833009 -0.035618253437727058 -0.0083010136641489089 0.058638880782811091 0.021240358261019863
leaf_weight=18.89641909301281 11.833045497536661 26.222946003079407 9.9386280328035337 13.443016692996023 11.147863537073134 11.941241860389708 30.665470257401466 59.955794036388404 9.7032312750816363 10.114232644438742 69.650914937257767
leaf_count=83 49 106 40 54 46 48 124 246 40 42 282
internal_value=0 0.00376061 -0.00232254 -0.0117601 -0.0157692 -0.0114126 -0.0152816 -0.0239354 0.0476952 0.0263182 0.0155987
internal_weight=0 264.616 232.966 153.376 139.933 128.785 116.844 86.1787 31.6505 19.8175 79.5895
internal_count=1160 1077 946 624 570 524 476 352 131 82 322
is_linear=0
shrinkage=0.05


Tree=10
num_leaves=12
num_cat=0
split_feature=3 9 4 9 5 9 4 9 9 1 9
split_gain=39.9404 25.1983 11.5069 13.4349 11.842 10.2344 9.39255 7.90845 10.7357 7.85334 6.99654
threshold=0.087500000000000008 -0.0071180961444339266 -0.0030674494338336351 0.0016042977119098414 0.65322655657112338 -0.0021814072012066861 0.0096006597449310744 0.0034763633386976083 0.0049651862026679492 0.86769581547726593 -0.00062225770053864194
decision_type=2 2 2 2 2 2 2 2 2 2 2
left_child=-1 -2 5 4 6 -3 -4 -5 -9 -7 -6
right_child=1 2 3 7 10 9 -8 8 -10 -11 -12
leaf_value=-0.062027303981247464 0.045906550777394264 0.037168414462372207 -0.038168316451498679 0.034067528497339232 -0.017318365490106843 -0.021312423588186493 0.0020103546470813419 -0.043268101218174815 0.025628119596436412 0.017147267706054552 0.03267270410248007
leaf_weight=23.597203880548477 31.376475274562836 28.790010631084442 60.459775760769844 21.934768155217171 11.841285154223444 22.515111416578293 18.017560437321663 10.045149475336077 10.429555609822271 29.449402555823326 14.011863753199576
leaf_count=104 131 116 249 89 48 91 73 41 42 119 57
internal_value=0 0.00462287 -0.0011814 -0.00956512 -0.0192204 0.0137999 -0.0288458 0.0137377 -0.00791557 0.000112529 0.0094249
internal_weight=0 258.871 227.494 146.74 104.33 80.7545 78.4773 42.4095 20.4747 51.9645 25.8531
internal_count=1160 1056 925 599 427 326 322 172 83 210 105
is_linear=0
shrinkage=0.05


Tree=11
num_leaves=12
num_cat=0
split_feature=3 9 7 3 0 0 9 9 0 0 5
split_gain=36.8725 23.0262 11.256 16.5622 6.62692 9.16992 5.86286 9.68852 12.0569 6.1308 5.47727
threshold=0.087500000000000008 -0.0071180961444339266 0.36528555688914371 0.47916666666666669 0.015074478902519494 0.022637850171264105 0.0016042977119098414 -0.0012854473544859355 0.005722128810801622 0.0091726198537904671 0.4475407739227108
decision_type=2 2 2 2 2 2 2 2 2 2 2
left_child=-1 4 3 -3 -2 -6 7 9 -9 -4 -5
right_child=1 2 6 10 5 -7 -8 8 -10 -11 -12
leaf_value=-0.060150909007861519 0.073556444220395284 -0.039114724695549698 0.041684566489956894 0.018833333385002055 -0.010055616156257406 0.054948359969328044 0.027726483610225783 0.019675430455257242 -0.030598617741971784 0.00072333599772112444 -0.0091157718544524983
leaf_weight=23.159004360437393 11.538113951683046 37.508134171366692 18.021622717380524 27.118815049529076 9.6446307748556155 9.9079652577638608 31.401870831847191 17.825317978858948 30.912842184305191 19.118803665041924 45.195702999830246
leaf_count=104 49 156 73 110 40 42 127 74 125 77 183
internal_value=0 0.00442364 -0.00110922 -0.0126127 0.0440812 0.0232251 0.00955152 0.00249047 -0.0118841 0.021564 0.0012748
internal_weight=0 258.194 227.103 109.823 31.0907 19.5526 117.28 85.8786 48.7382 37.1404 72.3145
internal_count=1160 1056 925 449 131 82 476 349 199 150 293
is_linear=0
shrinkage=0.05


Tree=12
num_leaves=12
num_cat=0
split_feature=9 0 1 0 0 0 9 0 4 9 9
split_gain=38.3694 22.3442 10.6594 9.94185 9.30865 14.9584 7.17775 8.8508 6.29058 5.7012 8.68809
threshold=-0.0075923145407869588 0.0038242638535369218 1.0886461515940848 0.0089084524975770879 0.0067299400776340626 0.0084017070743252591 -0.0016037213586955199 0.012580469025191681 0.0038957100642106339 0.00090068916563179624 -0.0012138134049599068
decision_type=2 2 2 2 2 2 2 2 2 2 2
left_child=8 -2 4 9 -3 -6 7 -7 -1 10 -4
right_child=1 2 3 -5 5 6 -8 -9 -10 -11 -12
leaf_value=0.060993936319761667 -0.045582909979441172 -0.031130450045224731 0.041569349544121649 -0.0056112158004466154 0.023610526116843042 -0.020752564005531146 -0.028873871993398515 0.034214305626627833 0.010801430126134272 0.056826885214502923 -0.0175923107552555
leaf_weight=23.976781293749809 34.041344359517097 38.027915433049202 12.309970766305922 33.911815151572227 35.296718701720238 15.35046871006489 41.381687805056572 12.163050651550291 10.03412228822708 13.227711841464041 10.403049767017366
leaf_count=104 152 159 50 137 142 62 168 49 41 54 42
internal_value=0 -0.00856946 -0.00237171 0.0134124 -0.0102684 -0.00228809 -0.0159192 0.00336859 0.0473457 0.0314341 0.0142403
internal_weight=0 246.114 212.072 69.8525 142.22 104.192 68.8952 27.5135 34.0109 35.9407 22.713
internal_count=1160 1015 863 283 580 421 279 111 145 146 92
is_linear=0
shrinkage=0.05


Tree=13
num_leaves=12
num_cat=0
split_feature=9 0 4 7 5 9 9 9 9 9 9
split_gain=35.2008 17.157 11.9003 8.53913 6.67807 6.5991 19.187 8.01052 6.3938 8.25772 4.9762
threshold=-0.0026907482610572515 0.0028562827256739284 -0.0013229362310210322 0.67976896761269556 0.83767843221612881 0.004686132461561022 0.0035214410766410968 0.0025026409219692796 -0.0039181487267577744 -0.0075923145407869588 -0.0063143881535436255
decision_type=2 2 2 2 2 2 2 2 2 2 2
left_child=2 -2 10 4 5 6 7 -3 9 -4 -1
right_child=1 3 8 -5 -6 -7 -8 -9 -10 -11 -12
leaf_value=0.058390273661685935 -0.066346073778932202 -0.017848168592129562 0.020770002559554301 0.019439386045573381 0.02141970229049955 0.017561369253543943 -0.07755790209162805 0.021188233024210766 0.036112643584658669 -0.030748558968904771 0.023552408029877413
leaf_weight=22.393348708748817 13.386409267783163 106.44081518054008 12.645261839032171 21.512790158390999 11.539486080408095 11.903836548328398 12.049465641379355 13.785153269767759 10.084240600466726 16.728379964828495 26.198166042566299
leaf_count=99 63 441 52 88 47 48 51 56 41 68 106
internal_value=0 -0.0136109 0.0244257 -0.00919368 -0.0133439 -0.0163579 -0.0196318 -0.0131106 0.00342507 -0.0081225 0.0407636
internal_weight=0 190.618 88.0494 177.232 155.719 144.179 132.275 120.226 39.4579 29.3736 48.5915
internal_count=1160 794 366 731 643 596 548 497 161 120 205
is_linear=0
shrinkage=0.05


Tree=14
num_leaves=12
num_cat=0
split_feature=9 3 0 0 0 7 0 2 9 9 7
split_gain=32.3207 19.7131 7.50557 10.4458 10.1116 15.0322 8.34182 8.05346 7.42686 11.9094 6.515
threshold=-0.0075923145407869588 0.087500000000000008 0.0038242638535369218 0.0088663227068327046 0.0067299400776340626 0.33155309980957709 0.011917689286112849 0.04064189174847236 -0.0027632490778204395 0.00090068916563179624 0.42729990344321228
decision_type=2 2 2 2 2 2 2 2 2 2 2
left_child=-1 -2 10 4 5 -4 -5 -8 -6 -10 -3
right_child=1 2 3 6 8 -7 7 -9 9 -11 -12
leaf_value=0.044107078513437807 -0.053078400702902984 -0.058740498643605248 -0.035533328160961157 -0.023090310501102725 0.059823167326409243 0.018738899707641515 0.026600185843665393 -0.024165848326927281 -0.010786788091534653 0.036861406947360779 -0.00058437306707571001
leaf_weight=33.14509442448616 20.938961401581764 9.8483159542083758 22.954226583242416 62.327121064066887 10.806192770600317 26.058550924062729 20.285661220550541 11.172059357166289 23.615803390741348 26.616953656077385 9.65377429127693
leaf_count=145 99 44 97 254 44 106 82 45 95 108 41
internal_value=0 -0.00780137 -0.00327192 -0.000295632 0.0100371 -0.00658084 -0.0125567 0.00791967 0.0235136 0.0143946 -0.0321168
internal_weight=0 244.278 223.339 203.837 110.052 49.0128 93.7848 31.4577 61.0389 50.2328 19.5021
internal_count=1160 1015 916 831 450 203 381 127 247 203 85
is_linear=0
shrinkage=0.05


Tree=15
num_leaves=12
num_cat=0
split_feature=3 9 4 9 6 7 9 3 5 9 6
split_gain=24.9891 16.3012 7.32508 6.6541 6.76801 7.15926 5.87883 6.54119 11.3632 12.0054 8.43744
threshold=0.087500000000000008 -0.0091474976617180719 -0.0030674494338336351 -0.0020453563882109056 1.0124524974767939 0.56361065179864644 -0.0045947332422983092 0.42916666666666675 0.22355170122427043 0.0033752450643939062 0.62214073511212054
decision_type=2 2 2 2 2 2 2 2 2 2 2
left_child=-1 -2 3 -3 -5 -6 -4 10 -9 -10 -8
right_child=1 2 6 4 5 -7 7 8 9 -11 -12
leaf_value=-0.052695545525778188 0.046961202806439464 0.029099840224831058 -0.035155889597399931 0.018374015011856478 -0.039312138505314828 0.012658226193279136 -0.047061280632602141 0.036602660864727563 0.0058367614795301259 -0.046124035808733831 -0.0036672096564456347
leaf_weight=21.080554366111755 18.27425990998745 30.759393468499184 16.018085286021233 23.863843590021133 14.946494147181513 10.106544882059096 15.588642016053198 20.304086551070213 48.918289750814438 13.217448845505713 37.842579066753387
leaf_count=101 81 127 66 97 61 41 67 83 200 54 158
internal_value=0 0.00276612 -0.000844025 0.0112764 0 -0.0180901 -0.00733231 -0.00370966 0.00497821 -0.00553419 -0.0172351
internal_weight=0 249.84 231.565 79.6763 48.9169 25.053 151.889 135.871 82.4398 62.1357 53.4312
internal_count=1136 1035 954 326 199 102 628 562 337 254 225
is_linear=0
shrinkage=0.05


Tree=16
num_leaves=12
num_cat=0
split_feature=0 4 0 6 1 2 0 0 4 6 6
split_gain=22.4717 10.7414 7.15214 8.56421 7.31814 5.24323 7.61684 9.69662 17.4148 10.876 5.35062
threshold=0.0033233626688773882 -0.0030674494338336351 0.016849106722693925 1.0124524974767939 0.89842167370725001 0.04064189174847236 0.011310514014243579 0.0089084524975770879 0.0094114782107569423 0.62214073511212054 1.3989624213283547
decision_type=2 2 2 2 2 2 2 2 2 2 2
left_child=-1 2 3 -2 -5 6 7 8 9 -3 -11
right_child=1 5 -4 4 -6 -7 -8 -9 -10 10 -12
leaf_value=-0.048309289934676168 0.027606386996158524 -0.035482540819220428 0.052853082134522944 -0.036215456022109016 0.0085389425021611936 -0.028022124930296835 0.028669347287351394 -0.028565308247143074 0.051389791236141714 0.014632362995088209 -0.022586934429981609
leaf_weight=22.556294023990631 37.562647491693497 22.36155179142952 11.057523086667059 12.072991758584974 28.635053128004074 20.452850103378296 17.284853711724281 33.092711195349693 14.299528032541273 38.876919493079185 11.569931790232657
leaf_count=110 155 97 50 50 117 84 71 136 59 160 47
internal_value=0 0.00276937 0.0165669 0.0106494 -0.00492453 -0.00499514 -0.00128363 -0.00591564 0.00274538 -0.00717195 0.00553148
internal_weight=0 247.267 89.3282 78.2707 40.708 157.938 137.485 120.201 87.1079 72.8084 50.4469
internal_count=1136 1026 372 322 167 654 570 499 363 304 207
is_linear=0
shrinkage=0.05


Tree=17
num_leaves=12
num_cat=0
split_feature=0 4 6 0 6 1 0 4 6 0 1
split_gain=20.8544 9.47286 7.78919 6.34645 8.28939 6.76995 5.4638 15.1743 8.65668 7.62916 6.98216
threshold=0.0039227828494927649 -0.0030674494338336351 1.035829058056253 0.016849106722693925 1.0124524974767939 0.89842167370725001 0.0087272804526508981 0.0094114782107569423 0.83207652004339894 0.0074108601899027663 0.7981762561963105
decision_type=2 2 2 2 2 2 2 2 2 2 2
left_child=2 3 -1 4 -2 -6 7 9 10 -3 -8
right_child=1 6 -4 -5 5 -7 8 -9 -10 -11 -12
leaf_value=-0.060156766933216012 0.027702520834662309 -0.016441949944480699 -0.010196394179294077 0.051241266648200029 -0.035850097977547006 0.0082973466446753137 -0.010070015124469475 0.051061733702230508 -0.031132337736090112 0.020930948524800184 0.037003052213844166
leaf_weight=17.588370755314827 37.013728648424149 44.569410264492035 15.72812734544277 10.871289953589438 11.335886403918265 27.628235280513763 26.739772737026215 13.710627436637877 35.235324054956436 18.309257313609123 9.9288063347339612
leaf_count=88 153 188 70 50 47 113 110 57 145 74 41
internal_value=0 0.003701 -0.0379929 0.0167523 0.011021 -0.00474687 -0.00389295 0.00523347 -0.0137583 -0.00516744 0.00292178
internal_weight=0 235.342 33.3165 86.8491 75.9779 38.9641 148.493 76.5893 71.9039 62.8787 36.6686
internal_count=1136 978 158 363 313 160 615 319 296 262 151
is_linear=0
shrinkage=0.05


Tree=18
num_leaves=12
num_cat=0
split_feature=3 9 9 9 4 7 3 2 2 6 3
split_gain=21.7126 11.0729 7.12295 15.6162 12.3339 10.9741 7.60618 13.6534 5.57046 9.29063 8.63453
threshold=0.087500000000000008 -0.0075923145407869588 -0.0045947332422983092 -0.0027632490778204395 -0.0011484365688924079 0.60583818520571764 0.62916666666666676 0.016424470985026546 0.015093658253276054 0.56662859448932712 0.33750000000000008
decision_type=2 2 2 2 2 2 2 2 2 2 2
left_child=-1 -2 4 -4 -3 6 8 -8 9 -5 -11
right_child=1 2 3 5 -6 -7 7 -9 -10 10 -12
leaf_value=-0.048415907051343743 0.033473324230001142 0.01030399772943081 0.038230438902140923 -0.064033570269034362 -0.059911912022756801 0.024133474324287731 0.037684519775021047 -0.010820633805843728 0.014029455338088848 0.0043337681468381024 -0.036646546359738207
leaf_weight=19.245223492383957 29.843159541487694 11.768892064690592 28.338741958141327 11.312722384929655 11.148181229829786 32.865332633256912 20.263966798782349 44.171928435564041 9.7743452042341215 27.072977438569069 22.258819803595543
leaf_count=98 135 48 116 50 46 135 83 181 40 115 92
internal_value=0 0.00540257 0.00137398 0.00455951 -0.0243027 -0.00123365 -0.0076584 0.00454695 -0.0189441 -0.0246432 -0.0142195
internal_weight=0 248.819 218.976 196.059 22.9171 167.72 134.855 64.4359 70.4189 60.6445 49.3318
internal_count=1139 1041 906 812 94 696 561 264 297 257 207
is_linear=0
shrinkage=0.05


Tree=19
num_leaves=12
num_cat=0
split_feature=0 0 4 0 6 0 4 1 2 0 6
split_gain=20.7142 10.0355 8.654 8.7369 10.4624 15.3755 6.56429 4.72553 3.76188 6.50156 2.95445
threshold=0.0029541444297829247 0.02419350717896666 -0.0030674494338336351 0.0095197266831388901 0.65917215343067703 0.0073404445090102226 -0.00015496458044805814 1.1213842475097942 0.04064189174847236 0.011310514014243579 0.63994235360122154
decision_type=2 2 2 2 2 2 2 2 2 2 2
left_child=-1 2 7 4 5 -4 -6 10 9 -5 -2
right_child=1 -3 3 8 6 -7 -8 -9 -10 -11 -12
leaf_value=-0.057944447616268907 0.021945445303395053 0.048077214781602914 -0.046169719020320021 -0.029079190667477179 -0.012916176136151576 0.020467208465168162 0.022557240101966008 0.029550217270723142 -0.042496923114857608 0.012625225222597104 -0.0024101260078769147
leaf_weight=12.977789208292959 16.959988877177238 11.621420159935949 20.054036274552345 21.263859510421753 15.707387581467627 13.565376207232474 54.898053169250488 32.838773638010025 14.814029932022093 14.742875084280966 37.350117787718773
leaf_count=69 71 53 92 89 66 55 228 139 61 61 155
internal_value=0 0.00454805 0.00220857 -0.00480335 0.00338479 -0.019034 0.0143859 0.0147665 -0.0216266 -0.0117183 0.00518371
internal_weight=0 253.816 242.194 155.046 104.225 33.6194 70.6054 87.1489 50.8208 36.0067 54.3101
internal_count=1139 1070 1017 652 441 147 294 365 211 150 226
is_linear=0
shrinkage=0.05


Tree=20
num_leaves=12
num_cat=0
split_feature=3 9 4 9 9 1 3 6 1 5 9
split_gain=19.1329 9.82456 8.23302 12.4008 11.9254 7.96602 6.9235 7.17897 5.89334 4.89751 9.81602
threshold=0.087500000000000008 -0.012759048398145177 -0.0022340903193703849 -0.0019725665643619546 -0.0043430888885264687 0.81735482281642724 0.47916666666666669 0.72032619634367945 1.1456433368707677 0.24126856716244324 0.0033752450643939062
decision_type=2 2 2 2 2 2 2 2 2 2 2
left_child=-1 -2 3 -3 -4 -5 7 -6 -9 -8 -11
right_child=1 2 4 5 6 -7 9 8 -10 10 -12
leaf_value=-0.046407758700289417 0.051781855000180455 0.034753534710775628 -0.038738664904299634 -0.024071135279920809 -0.035185997865566636 0.014099836729539773 0.033928731751178068 0.023297633316895657 -0.017718211640601982 0.015234340258102389 -0.035854098417395806
leaf_weight=18.525233909487724 9.7667830884456617 40.494091212749481 20.886515229940414 22.070646330714226 19.766660779714584 32.375376537442207 17.46372751891613 16.032328277826309 16.880028620362282 40.169299811124802 11.125362694263456
leaf_count=98 46 175 87 90 88 133 72 67 71 166 46
internal_value=0 0.00498001 0.00278125 0.0141475 -0.00474202 -0.00125797 0.00125133 -0.0121218 0.00191702 0.011739 0.00339314
internal_weight=0 247.031 237.264 94.9401 142.324 54.446 121.437 52.679 32.9124 68.7584 51.2947
internal_count=1139 1041 995 398 597 223 510 226 138 284 212
is_linear=0
shrinkage=0.05


Tree=21
num_leaves=12
num_cat=0
split_feature=0 5 0 2 3 5 5 2 3 5 0
split_gain=21.1926 8.88909 7.21097 5.80798 4.52803 4.6083 4.68581 9.25555 6.56788 9.65855 6.99843
threshold=0.0033233626688773882 0.84850712921303917 0.021655100019874359 0.04064189174847236 0.10416666666666669 0.77937838716488916 0.69708314050536069 0.0076477531674360357 0.87083333333333346 0.53645975177148408 0.0077185190245221353
decision_type=2 2 2 2 2 2 2 2 2 2 2
left_child=-1 2 3 4 -2 6 7 -6 9 10 -9
right_child=1 -3 -4 -5 5 -7 -8 8 -10 -11 -12
leaf_value=-0.047116480162489288 -0.028177173380022104 0.039438912292109288 0.038509081763174059 -0.025640363062713487 -0.030266318508133855 -0.025300227034519132 0.031217454034025871 0.034603082626563891 -0.02819772001577734 -0.014711221127647073 0.0073543177717989502
leaf_weight=20.203103765845299 10.091463401913641 16.450940698385239 11.921290174126623 18.969399809837341 16.549358442425728 10.878069013357161 16.728712379932404 39.992265537381172 10.258035898208616 26.588757306337357 61.496734797954559
leaf_count=109 47 71 54 79 71 45 70 168 42 111 255
internal_value=0 0.00501327 0.00224781 0 0.00268107 0.00461349 0.00673211 0.00380799 0.00817998 0.0114056 0.0184711
internal_weight=0 239.925 223.474 211.553 192.583 182.492 171.614 154.885 138.336 128.078 101.489
internal_count=1122 1013 942 888 809 762 717 647 576 534 423
is_linear=0
shrinkage=0.05


end of trees

feature_importances:
atr_pct=69
ma60_slope=59
vol_ma_ratio=27
momentum_5=21
vol_ratio=17
bb_width_rank=17
bb_width=12
trend_r2=11
range_ratio=9

parameters:
[boosting: gbdt]
[objective: binary]
[metric: auc]
[tree_learner: serial]
[device_type: cpu]
[data: ]
[valid: ]
[num_iterations: 200]
[learning_rate: 0.05]
[num_leaves: 12]
[num_threads: -1]
[deterministic: 0]
[force_col_wise: 0]
[force_row_wise: 0]
[histogram_pool_size: -1]
[max_depth: -1]
[min_data_in_leaf: 40]
[min_sum_hessian_in_leaf: 0.001]
[bagging_fraction: 0.8]
[pos_bagging_fraction: 1]
[neg_bagging_fraction: 1]
[bagging_freq: 3]
[bagging_seed: 400]
[feature_fraction: 0.8]
[feature_fraction_bynode: 1]
[feature_fraction_seed: 30056]
[extra_trees: 0]
[extra_seed: 12879]
[early_stopping_round: 0]
[first_metric_only: 0]
[max_delta_step: 0]
[lambda_l1: 0.3]
[lambda_l2: 1]
[linear_lambda: 0]
[min_gain_to_split: 0]
[drop_rate: 0.1]
[max_drop: 50]
[skip_drop: 0.5]
[xgboost_dart_mode: 0]
[uniform_drop: 0]
[drop_seed: 17869]
[top_rate: 0.2]
[other_rate: 0.1]
[min_data_per_group: 100]
[max_cat_threshold: 32]
[cat_l2: 10]
[cat_smooth: 10]
[max_cat_to_onehot: 4]
[top_k: 20]
[monotone_constraints: ]
[monotone_constraints_method: basic]
[monotone_penalty: 0]
[feature_contri: ]
[forcedsplits_filename: ]
[refit_decay_rate: 0.9]
[cegb_tradeoff: 1]
[cegb_penalty_split: 0]
[cegb_penalty_feature_lazy: ]
[cegb_penalty_feature_coupled: ]
[path_smooth: 0]
[interaction_constraints: ]
[verbosity: -1]
[saved_feature_importance_type: 0]
[linear_tree: 0]
[max_bin: 255]
[max_bin_by_feature: ]
[min_data_in_bin: 3]
[bin_construct_sample_cnt: 200000]
[data_random_seed: 175]
[is_enable_sparse: 1]
[enable_bundle: 1]
[use_missing: 1]
[zero_as_missing: 0]
[feature_pre_filter: 1]
[pre_partition: 0]
[two_round: 0]
[header: 0]
[label_column: ]
[weight_column: ]
[group_column: ]
[ignore_column: ]
[categorical_feature: ]
[forcedbins_filename: ]
[precise_float_parser: 0]
[parser_config_file: ]
[objective_seed: 16083]
[num_class: 1]
[is_unbalance: 0]
[scale_pos_weight: 1]
[sigmoid: 1]
[boost_from_average: 1]
[reg_sqrt: 0]
[alpha: 0.9]
[fair_c: 1]
[poisson_max_delta_step: 0.7]
[tweedie_variance_power: 1.5]
[lambdarank_truncation_level: 30]
[lambdarank_norm: 1]
[label_gain: ]
[lambdarank_position_bias_regularization: 0]
[eval_at: ]
[multi_error_top_k: 1]
[auc_mu_weights: ]
[num_machines: 1]
[local_listen_port: 12400]
[time_out: 120]
[machine_list_filename: ]
[machines: ]
[gpu_platform_id: -1]
[gpu_device_id: -1]
[gpu_use_dp: 0]
[num_gpu: 1]

end of parameters

pandas_categorical:[]
